tree
version=v4
num_class=1
num_tree_per_iteration=1
label_index=0
max_feature_idx=35
objective=quantile
feature_names=lmp_lag_1h lmp_lag_3h lmp_lag_6h lmp_lag_24h lmp_lag_168h lmp_roll_6h_mean lmp_roll_24h_mean lmp_roll_24h_std lmp_roll_168h_mean lmp_dev_from_24h hour_of_day day_of_week month is_weekend temperature_c cdh hdh wind_speed_ms relative_humidity cdh_lag_24h hdh_lag_24h cdh_lag_168h hdh_lag_168h temp_roll_24h_mean gas_henry gas_waha waha_basis reserve_margin_proxy renewable_share_proxy thermal_stress heat_rate vom capacity_mw site_id load_zone settlement_point
feature_infos=[-13.300000000000001:2256.4899999999998] [-13.300000000000001:2256.4899999999998] [-13.300000000000001:2256.4899999999998] [-13.300000000000001:2256.4899999999998] [-13.300000000000001:2236.4899999999998] [-12.37500000000002:1092.3966666666668] [-8.6350000000000104:422.13708333333335] [0.0010762600678322777:611.11889235996887] [10.685178571428571:135.42398809523809] [-328.52916666666664:2061.907083333333] [0:23] [0:6] [1:12] [0:1] [-12.800000000000001:42.799999999999997] [0:24.499999999999996] [0:31.100000000000001] [0:28.305555555555557] [1:100] [0:24.499999999999996] [0:31.100000000000001] [0:24.499999999999996] [0:31.100000000000001] [-11.65:36.137499999999996] [1.21:13.199999999999999] [0.10000000000000001:12.430971800333952] [0.20000555615828597:1.399994443841714] [0.050000000000000003:0.78410487107784288] [0.083398200442660941:0.44073397743153298] [0.73083333333333322:19.933333333333334] [6.7999999999999998:7.5999999999999996] [3.3999999999999999:3.9500000000000002] [200:600] -1:6:5:4:8:7:2:1:9:11:0:3:10 -1:3:1:2:0 -1:3:5:6:0:4:2:1:7
tree_sizes=5336 5665 5703 5706 5727 5723 5765 5706 5758 5776 5784 5748 5743 5766 5763 5757 5753 5775 5771 5821 5749 5774 5805 5811 5789 5839 5802 5825 5835 5798 5834 5841 5826 5795 5841 5875 5856 5820 5884 5874 5873 5860 5852 5856 5866 5858 5863 5853 5881 5877 5902 5886 5867 5884 5888 5913 5871 5894 5899 5901 5876 5894 5877 5867 5872 5879 5890 5913 5905 5897 5845 5910 5937 5891 5893 5895 5866 5918 5896 5913 5882 5960 5896 5936 5918 5878 5899 5888 5908 5903 5924 5926 5881 5908 5890 5928 5919 5892 5931 5890 5883 5895 5889 5856 5901 5890 5899 5869 5912 5891 5889 5930 5920 5875 5893 5926 5880 5900 5905 5886 5849 5875 5906 5924 5886 5889 5832 5856 5895 5873 5876 5856 5864 5874 5844 5907 5859 5887 5873 5840 5876 5910 5870 5863 5838 5916 5825 5880 5835 5851 5846 5897 5886 5879 5894 5875 5912 5871 5864 5865 5928 5868 5824 5884 5864 5932 5851 5821 5924 5857 5831 5896 5883 5842 5844 5835 5862 5859 5911 5871 5846 5794 5896 5859 5898 5916 5879 5826 5897 5859 5887 5820 5921 5927 5816 5900 5777 5833 5835 5878 5787 5875 5777 5897 5864 5816 5815 5920 5901 5847 5892 5949 5903 5821 5867 5821 5897 5824 5798 5835 5939 5818 5848 5843 5824 5857 5847 5841 5895 5838 5826 5893 5852 5813 5864 5910 5848 5856 5802 5861 5869 5927 5847 5820 5854 5885 5878 5831 5782 5853 5832 5842 5831 5859 5801 5803 5807 5831 5814 5834 5894 5804 5876 5852 5855 5856 5907 5813 5870 5928 5849 5820 5832 5844 5841 5852 5792 5850 5821 5856 5867 5863 5856 5894 5909 5869 5875 5857 5879 5887 5899 5946 5801 5880 5858 5831 5807 5885 5865 5850 5851 5806 5819 5833 5870 5872 5866 5885 5896 5849 5763 5790 5857 5915 5863 5783 5848 5874 5820 5872 5867 5888 5818 5843 5825 5887 5901 5876 5853 5866 5887 5861 5907 5870 5847 5918 5849 5902 5889 5821 5880 5883 5875

Tree=0
num_leaves=63
num_cat=0
split_feature=0 0 0 1 1 10 10 14 0 10 14 0 10 0 28 2 10 12 1 0 1 0 1 26 10 0 24 2 1 2 0 1 7 26 10 5 7 0 0 1 10 10 0 24 28 24 10 0 28 2 10 7 2 29 27 28 1 28 10 12 3 14
split_gain=9857.66 352.389 339.864 185.669 109.554 93.1342 88.312 56.9905 43.2951 42.3963 38.7118 37.7546 35.9204 31.6272 26.3899 26.3006 27.3987 25.4592 23.1133 22.6267 39.3762 21.7581 24.8476 19.7787 19.3482 17.0229 16.6635 15.1926 14.8353 31.798 17.2754 14.7226 15.408 14.442 14.0334 11.9005 11.1937 10.7052 10.2781 10.228 9.83924 9.53027 8.36543 9.21734 7.88129 7.69707 7.1444 10.3343 6.80528 6.77037 15.9973 6.02767 5.80447 5.79868 7.37688 5.70544 5.63411 12.8643 5.50771 5.41172 5.27445 4.76792
threshold=10.775 8.1250000000000018 13.165000000000001 8.8350000000000026 17.265000000000004 21.500000000000004 1.0000000180025095e-35 26.133333333333336 16.105000000000004 21.500000000000004 24.212500000000002 3.2950000000000004 7.5000000000000009 10.025 0.35106883428793417 7.6950000000000012 15.500000000000002 9.5000000000000018 25.325000000000003 5.2750000000000012 4.0750000000000011 9.1650000000000009 6.2950000000000008 1.0194314820861325 22.500000000000004 11.925000000000002 3.7800000000000002 12.153200000000002 12.745000000000003 13.735000000000001 11.695000000000002 12.965000000000002 9.0270309347908064 0.95071264267913691 14.500000000000002 11.842499999999925 7.2824153536930849 9.4750000000000032 12.325000000000001 11.935 12.500000000000002 9.5000000000000018 9.1650000000000009 1.7700000000000002 0.35969997587530084 1.6650000000000003 14.500000000000002 14.852400000000001 0.28291715254629418 7.2350000000000012 15.500000000000002 7.77051472511046 2.5250000000000004 9.120000000000001 0.58931525854379474 0.18822417165409119 19.735000000000003 0.1339035713992375 22.500000000000004 4.5000000000000009 14.055000000000001 16.650000000000002
decision_type=2 2 2 2 2 2 2 2 2 2 2 2 2 2 2 2 2 2 2 2 2 2 2 2 2 2 2 2 2 2 2 2 2 2 2 2 2 2 2 2 2 2 2 2 2 2 2 2 2 2 2 2 2 2 2 2 2 2 2 2 2 2
left_child=1 5 4 21 12 6 -1 9 15 13 27 17 25 39 33 16 40 58 56 -8 36 22 -3 -13 -25 35 46 -6 49 44 -31 32 61 -9 -12 -2 -21 -35 -29 42 52 -23 -5 55 59 -42 47 -20 -34 50 -14 -27 -4 -22 -55 -44 -17 -58 -7 -30 -24 -15
right_child=2 3 8 7 10 11 19 14 -10 -11 34 23 28 31 -16 18 -18 -19 26 20 53 41 60 24 -26 51 -28 38 29 30 -32 -33 48 37 -36 -37 -38 -39 -40 -41 45 -43 43 -45 -46 -47 -48 -49 -50 -51 -52 -53 -54 54 -56 -57 57 -59 -60 -61 -62 -63
leaf_value=10.416254303747923 10.661000299602744 10.543000292778014 10.471800289568305 10.478500294685364 10.497000288963317 9.9757502985335904 9.9065002918243401 10.579000289663671 11.042500305175782 10.649400277344878 10.498000288009644 10.579100310513374 10.415000295639038 10.586750293795021 10.434800287273529 10.775000286102294 10.862000274658204 10.194000288844109 10.516500282287598 10.33450029978901 10.334950290910152 10.529750296566636 10.515300293792786 10.407700300216675 10.484250303644689 10.610500288009643 10.400350298029926 10.461500288799403 10.539900295770163 10.619500303268433 10.694400294965503 10.471700295138367 10.572000312805176 10.513500285826625 10.692500305175781 10.556050281756377 10.460600292527678 10.579800313678383 10.547500297263271 10.421000289916993 10.510800294083356 10.625450283891691 10.551500272750854 10.577500295639037 10.507000312209131 10.310300295752286 10.71700029373169 10.671300287832315 10.658250284496702 10.704000282287598 10.736500310897828 10.669000316664579 10.650650301168119 10.330050293304771 10.423500299453735 10.578300272402165 10.53825029499456 10.705500268936158 10.120050291889161 10.650500279024238 10.534400296671691 10.599500274658203
leaf_weight=148 101 335 140 462 200 322 6318 301 135030 140 198 189 200 106 189 9258 383 127 195 104 3190 102 159 194 116 188 122 586 113 517 1183 673 164 131 301 312 273 165 437 1437 117 804 160 152 126 137 457 263 136 2581 279 259 254 132 125 154 114 1871 188 120 207 265
leaf_count=148 101 335 140 462 200 322 6318 301 135030 140 198 189 200 106 189 9258 383 127 195 104 3190 102 159 194 116 188 122 586 113 517 1183 673 164 131 301 312 273 165 437 1437 117 804 160 152 126 137 457 263 136 2581 279 259 254 132 125 154 114 1871 188 120 207 265
internal_value=10.68 10.6446 10.684 10.6541 10.6738 10.6394 10.6379 10.6491 10.6845 10.6466 10.6626 10.653 10.677 10.6455 10.6613 10.6818 10.6741 10.6449 10.6825 10.6373 10.6403 10.6688 10.6622 10.6633 10.6555 10.6675 10.6753 10.6579 10.6785 10.6753 10.6781 10.6517 10.6569 10.6665 10.6744 10.6602 10.6557 10.6586 10.6603 10.6421 10.6679 10.6739 10.6462 10.6509 10.6617 10.6602 10.6776 10.6732 10.6653 10.6808 10.6753 10.6743 10.6728 10.6387 10.6459 10.646 10.6831 10.6807 10.6399 10.6672 10.6532 10.6501
internal_weight=173710 17668 156042 6242 7701 11426 10290 4635 148341 3849 1722 1136 5979 3709 786 13311 1031 637 12280 10142 3824 1607 701 499 310 860 1037 1223 5119 2059 1700 1344 671 597 499 413 377 296 1023 2365 648 906 928 466 359 254 915 458 300 3060 479 447 394 3447 257 314 11243 1985 510 233 366 371
internal_count=173710 17668 156042 6242 7701 11426 10290 4635 148341 3849 1722 1136 5979 3709 786 13311 1031 637 12280 10142 3824 1607 701 499 310 860 1037 1223 5119 2059 1700 1344 671 597 499 413 377 296 1023 2365 648 906 928 466 359 254 915 458 300 3060 479 447 394 3447 257 314 11243 1985 510 233 366 371
is_linear=0
shrinkage=1


Tree=1
num_leaves=63
num_cat=0
split_feature=0 0 0 5 10 10 14 10 0 0 0 10 10 20 10 0 28 2 5 10 4 10 26 12 10 3 28 29 10 0 2 5 14 10 5 11 5 12 4 7 12 3 5 0 26 0 5 4 28 28 10 29 29 29 7 5 19 10 10 5 0 21
split_gain=9524.97 382.502 307.675 114.151 92.3274 92.4579 65.601 53.2663 41.8604 39.589 35.6252 32.3858 75.7197 49.0135 29.1661 27.0517 25.6882 24.0802 23.8929 23.6195 22.363 22.0647 21.4679 19.9378 19.4996 19.0942 24.2052 17.8057 17.333 15.3736 15.0739 26.1461 14.9957 17.5825 14.0718 13.4873 12.4354 12.2093 11.2777 11.2186 10.8615 10.5049 9.51276 9.09905 8.98353 9.41978 8.41785 8.04389 7.9841 7.61473 7.50347 7.376 9.43595 7.29183 7.22666 7.37885 7.21948 7.20343 15.8087 7.13397 7.00624 6.86071
threshold=10.775 8.1250000000000018 13.165000000000001 10.267499999999917 21.500000000000004 1.0000000180025095e-35 26.133333333333336 7.5000000000000009 16.105000000000004 2.5250000000000004 10.025 12.500000000000002 14.500000000000002 2.7500000000000013 21.500000000000004 5.2750000000000012 0.34727082567743278 6.2950000000000008 7.1708333333333494 20.500000000000004 14.375000000000002 15.500000000000002 0.91039798867064214 9.5000000000000018 22.500000000000004 10.005000000000001 0.37505335003116286 5.8012500000000005 8.5000000000000018 11.925000000000002 10.775 16.204999999999945 24.550000000000004 16.500000000000004 12.275 4.5000000000000009 26.651666666666657 3.5000000000000004 26.185000000000006 13.474408970264072 4.5000000000000009 21.285000000000004 14.075000000000008 9.1650000000000009 0.95071264267913691 9.7550000000000008 12.075099999999997 25.365000000000006 0.18378775069380912 0.14569636936966585 15.500000000000002 7.8608333333333347 3.7495833333333333 8.7529166666666693 6.4508106438795734 4.5633333333333148 4.8500000000000005 12.500000000000002 15.500000000000002 16.204999999999945 9.4750000000000032 10.600000000000001
decision_type=2 2 2 2 2 2 2 2 2 2 2 2 2 2 2 2 2 2 2 2 2 2 2 2 2 2 2 2 2 2 2 2 2 2 2 2 2 2 2 2 2 2 2 2 2 2 2 2 2 2 2 2 2 2 2 2 2 2 2 2 2 2
left_child=1 4 7 14 5 -1 10 29 17 23 34 -9 25 32 20 -7 44 21 54 48 43 40 -11 -6 -24 -13 27 35 -22 38 -12 39 33 37 41 -27 -19 -14 -2 46 -4 60 -35 -3 -8 -46 -32 56 49 -15 -45 52 -31 -20 -17 -56 -36 -30 -59 -49 -5 -55
right_child=2 3 8 6 9 15 16 11 -10 22 30 12 13 19 -16 18 -18 36 53 -21 28 -23 24 -25 -26 26 -28 -29 57 51 31 -33 -34 42 47 -37 -38 -39 -40 -41 -42 -43 -44 50 45 -47 -48 59 -50 -51 -52 -53 -54 61 55 -57 -58 58 -60 -61 -62 -63
leaf_value=-0.25055870135646591 -0.13112050982736456 -0.16965000987052914 -0.17157001431808033 -0.17985051854604478 -0.65250251793231817 -0.73482501268386846 -0.079450025927275375 0.0168799859740991 0.34437499999999999 -0.061955026083140921 -0.20630201573445273 -0.26363751572165406 -0.17816601301874269 -0.23057501798644769 -0.0048950136479149996 -0.28972501689679914 -0.23224001627102508 0.073749985694885292 -0.32774751597601909 0.028799972534179652 -0.23760300383692018 0.17210000057816954 -0.27348501392602337 -0.4837500090010467 -0.20900251173343509 -0.40675001621246337 -0.22035002037882814 -0.0036500219523930792 -0.036720005296841406 -0.044875033154321023 -0.02814200356929691 -0.18843502052291497 0.0276199913024902 0.023800001144409146 -0.23077501108834372 -0.11482003243371926 -0.050912491861544409 -0.10075501568571399 -0.057793262231441545 -0.036250021392857511 -0.24551501001924275 -0.16605001896619831 -0.058170026611826756 -0.20984651181497493 -0.15972376221168599 -0.036740019941929707 -0.12763501180424683 -0.15678751236740635 -0.3030750054247664 -0.076003994496278884 -0.043772514194584569 0.015099965545532612 -0.089885036371350271 -0.33017501831054691 -0.3690822496149983 -0.26524750405509012 -0.18255001544952398 -0.41336951728822929 -0.069373003364013919 -0.25475001792907737 -0.14055000655986327 -0.28800250583630271
leaf_weight=148 459 244 397 394 450 6318 306 1919 135030 166 198 196 139 165 344 127 192 11245 2876 120 130 265 244 114 162 109 103 205 352 351 144 454 1629 627 1235 107 1289 229 158 174 115 101 462 133 136 132 380 112 151 129 114 118 325 169 194 347 259 105 303 129 171 111
leaf_count=148 459 244 397 394 450 6318 306 1919 135030 166 198 196 139 165 344 127 192 11245 2876 120 130 265 244 114 162 109 103 205 352 351 144 454 1629 627 1235 107 1289 229 158 174 115 101 462 133 136 132 380 112 151 129 114 118 325 169 194 347 259 105 303 129 171 111
internal_value=5.92944e-05 -0.0347357 0.00399899 -0.0247821 -0.0401733 -0.0416667 -0.0289606 -0.00574536 0.00450486 -0.0266461 -0.0316836 -0.00377583 -0.00615305 -0.00323062 -0.0138406 -0.0422392 -0.0156266 0.00182969 -0.03892 -0.0167699 -0.0170854 -0.00671171 -0.0173776 -0.0360461 -0.0235714 -0.0209722 -0.0159924 -0.010677 -0.0123596 -0.0145252 -0.0251852 -0.0229948 -0.000751782 -0.0044372 -0.0353374 -0.0206944 0.00235918 -0.0138859 -0.0204457 -0.0169198 -0.0127734 -0.0291592 -0.00124426 -0.0256517 -0.010331 -0.0170149 -0.0205725 -0.0377089 -0.0220787 -0.0172789 -0.0188866 -0.00992443 -0.0119379 -0.0407383 -0.0303293 -0.0278096 -0.0390763 -0.00947368 -0.0139951 -0.0292324 -0.0318142 -0.0330357
internal_weight=173710 17668 156042 6242 11426 10290 4517 7701 148341 1136 3751 6290 4371 3651 1725 10142 766 13311 3824 565 1381 777 572 564 406 720 524 421 890 1411 1350 1152 3086 1457 2401 216 12534 368 617 698 512 666 1089 491 574 268 524 1735 445 294 247 794 676 3156 668 541 1494 760 408 241 565 280
internal_count=173710 17668 156042 6242 11426 10290 4517 7701 148341 1136 3751 6290 4371 3651 1725 10142 766 13311 3824 565 1381 777 572 564 406 720 524 421 890 1411 1350 1152 3086 1457 2401 216 12534 368 617 698 512 666 1089 491 574 268 524 1735 445 294 247 794 676 3156 668 541 1494 760 408 241 565 280
is_linear=0
shrinkage=0.05


Tree=2
num_leaves=63
num_cat=0
split_feature=0 0 0 1 1 10 10 0 0 0 10 1 0 0 1 1 1 14 26 21 26 0 29 1 23 10 2 10 10 0 4 5 1 2 24 5 10 0 26 24 10 10 10 14 6 0 2 1 24 9 7 0 10 4 5 23 5 27 28 27 1 4
split_gain=9050.48 369.388 340.025 156.336 96.8137 82.6638 85.2131 56.3478 42.2361 35.8521 34.7818 32.4475 28.2582 26.9046 51.4977 26.5368 25.5601 24.8227 21.8243 21.276 20.1175 19.3195 17.5792 16.6231 15.7024 16.6234 15.5361 16.7826 15.2878 14.2294 15.3299 12.4028 11.5203 20.0717 11.0545 11.0259 10.2337 10.1748 9.78372 9.0208 8.7061 8.63691 11.1223 11.6776 8.49363 8.43209 7.7138 7.74793 10.4487 7.61792 12.4934 7.51219 7.39466 6.93243 6.639 6.50534 6.37655 6.0788 6.04431 5.8767 5.87652 9.00064
threshold=10.525 7.705000000000001 13.165000000000001 8.8350000000000026 17.995000000000001 21.500000000000004 1.0000000180025095e-35 9.4750000000000032 15.415000000000001 2.5250000000000004 7.5000000000000009 12.965000000000002 8.8450000000000006 4.0850000000000009 4.0750000000000011 20.545000000000005 6.2950000000000008 24.212500000000002 0.91039798867064214 8.6125000000000007 0.67441237540747567 11.215000000000002 8.0258333333333365 12.335000000000003 20.793750000000006 20.500000000000004 6.2950000000000008 15.500000000000002 22.500000000000004 11.925000000000002 21.611200000000004 16.504999999999956 13.353800000000001 13.555000000000001 3.7800000000000002 13.14499999999998 12.500000000000002 10.305000000000001 0.89003240527524696 1.5350000000000004 20.500000000000004 14.500000000000002 8.5000000000000018 26.433333333333337 31.87479166666667 20.305000000000003 4.0850000000000009 28.365000000000006 3.8700000000000006 -10.456875000000005 12.83088031915536 6.7750000000000012 7.5000000000000009 20.105000000000004 18.463266666666602 18.402083333333341 21.028166666666625 0.54505970948478499 0.27368798870781236 0.56243287390089847 12.965000000000002 13.895000000000001
decision_type=2 2 2 2 2 2 2 2 2 2 2 2 2 2 2 2 2 2 2 2 2 2 2 2 2 2 2 2 2 2 2 2 2 2 2 2 2 2 2 2 2 2 2 2 2 2 2 2 2 2 2 2 2 2 2 2 2 2 2 2 2 2
left_child=1 5 4 12 10 6 -1 19 15 20 29 24 16 -8 39 26 57 31 -11 44 -7 23 52 -12 25 37 27 36 -20 30 -2 -6 -23 -34 41 -25 -4 -9 -19 -15 -14 42 56 -44 60 46 53 -48 -49 50 -33 58 -13 -10 -46 -54 -17 -3 -41 -52 61 -5
right_child=2 3 8 7 17 9 13 11 45 18 21 22 40 14 -16 34 -18 38 28 -21 -22 32 -24 35 -26 -27 -28 -29 -30 -31 -32 49 33 -35 -36 -37 -38 -39 -40 51 -42 -43 43 -45 54 -47 47 48 -50 -51 59 -53 55 -55 -56 -57 -58 -59 -60 -61 -62 -63
leaf_value=-0.24658476981989025 -0.11924649050379924 -0.22480211153549479 -0.16101151757720855 -0.17986014637610115 -0.24119626989897347 -0.45956250855099445 -0.73418376912335037 -0.11467882365695355 -0.23484376239776614 -0.070357281387649365 -0.028505393065535324 -0.18849724373135157 -0.10478929979701566 -0.2552708958329804 -0.33458376300334924 -0.047965703019205337 -0.14770734888953402 0.010522488720528855 -0.26751075572550231 -0.13193249643636049 -0.61987739203570236 0.026282984951386902 -0.17342251467704781 -0.24138219868666233 -0.06608186823300434 -0.020225274628939971 0.070562497854232839 0.16329499577492454 -0.20501239006867406 -0.039248716013081067 -0.058912866235035825 -0.28836396286107141 -0.11733500472858066 -0.0090640273984204708 -0.23885839739744316 -0.054128120881640179 -0.27443928131370926 -0.069488473092256794 -0.14413341268074728 -0.24178376697301501 0.021055838393395507 0.017037481546401969 -0.22464150109210329 -0.05346250581741812 -0.1886335201740944 0.48515624237060551 0.17815622520446778 0.075274503230888287 -0.15134378242492677 -0.12029513518351256 -0.16757572927472716 -0.18626958997850995 -0.23601127443184994 0.045072357282530076 -0.24923238577603746 -0.20274752260190346 -0.0020925681981146852 -0.037902343430928805 -0.24258375537395471 -0.17078726541775247 -0.29226014347483104 -0.18472187478751176
leaf_weight=138 358 123 185 505 166 114 5099 400 138 158 951 312 768 132 3803 109 394 226 217 336 450 2659 122 104 486 107 7485 216 136 502 181 123 268 1352 189 456 130 135 199 195 242 710 132 106 149 111118 24184 2443 242 465 152 115 278 406 100 311 548 238 169 236 823 416
leaf_count=138 358 123 185 505 166 114 5099 400 138 158 951 312 768 132 3803 109 394 226 217 336 450 2659 122 104 486 107 7485 216 136 502 181 123 268 1352 189 456 130 135 199 195 242 710 132 106 149 111118 24184 2443 242 465 152 115 278 406 100 311 548 238 169 236 823 416
internal_value=0.000160613 -0.0345233 0.00391603 -0.0248559 -0.00587164 -0.040152 -0.0416169 -0.0298214 0.00447014 -0.027 -0.00330039 -0.0239865 -0.0122521 -0.0421828 -0.0393249 0.00129969 -0.0195695 -0.0170804 -0.017407 -0.0352104 -0.0356915 -0.00178756 -0.030435 -0.00664791 -0.0181383 -0.023271 0.00252994 -0.00573446 -0.0243201 -0.0117147 -0.0173562 -0.0209194 -7.12781e-05 -0.00339506 -0.00419732 -0.0134821 -0.0130952 -0.0268692 -0.00676471 -0.0258511 -0.00678218 -0.00285047 -0.00611732 -0.0153782 -0.0371726 0.00469465 0.00390928 0.00402862 0.00148045 -0.0187705 -0.0229843 -0.0226618 -0.0328468 -0.00198529 -0.0285341 -0.0295501 -0.00276256 -0.00995845 -0.0261813 -0.0185825 -0.038406 -0.0356623
internal_weight=173710 16971 156739 6245 8398 10726 9651 4480 148341 1075 6831 2151 1765 9513 4414 9810 755 1567 511 2329 564 5790 1023 1511 1128 642 8016 531 353 1041 539 1142 4279 1620 1794 560 315 535 425 611 1010 1605 895 238 1993 138531 27413 26869 2685 976 511 479 901 544 249 589 657 361 364 388 1744 921
internal_count=173710 16971 156739 6245 8398 10726 9651 4480 148341 1075 6831 2151 1765 9513 4414 9810 755 1567 511 2329 564 5790 1023 1511 1128 642 8016 531 353 1041 539 1142 4279 1620 1794 560 315 535 425 611 1010 1605 895 238 1993 138531 27413 26869 2685 976 511 479 901 544 249 589 657 361 364 388 1744 921
is_linear=0
shrinkage=0.05


Tree=3
num_leaves=63
num_cat=1
split_feature=0 0 0 1 1 10 10 0 0 19 0 0 10 15 0 1 0 1 0 1 21 12 2 10 24 5 1 25 5 10 10 0 29 10 10 24 24 7 2 10 10 33 3 1 11 20 1 0 10 4 29 6 17 5 2 11 29 24 0 7 23 10
split_gain=8631.84 374.872 329.128 147.154 101.356 83.7763 78.1059 58.262 41.0739 37.9293 31.6309 31.2202 27.9648 31.5951 27.2432 47.0864 25.8275 25.3511 24.2246 23.7798 22.4632 21.0384 19.8609 19.9389 17.6828 17.6543 17.5646 16.6034 13.8985 12.0731 10.3629 10.158 10.155 10.0467 9.99434 9.99088 9.46827 9.49257 9.31329 8.98953 8.24743 10.75 8.16024 7.83619 7.69339 8.31328 7.26326 7.61415 7.06004 7.3069 7.17529 6.99827 6.90911 6.77128 10.9276 6.65948 17.2485 6.61601 6.58237 6.41823 6.31129 6.12817
threshold=10.305000000000001 13.165000000000001 7.245000000000001 8.1150000000000002 16.115000000000006 21.500000000000004 1.0000000180025095e-35 9.1650000000000009 16.375000000000004 5.2500000000000009 2.5250000000000004 11.215000000000002 20.500000000000004 9.5166666666666675 4.0850000000000009 4.0750000000000011 11.925000000000002 12.745000000000003 8.4750000000000032 25.325000000000003 8.6125000000000007 9.5000000000000018 7.6950000000000012 15.500000000000002 3.7800000000000002 7.1708333333333494 11.935 1.9557424867937456 16.642499999999966 7.5000000000000009 22.500000000000004 11.005000000000001 2.8433333333333337 7.5000000000000009 12.500000000000002 1.6650000000000003 1.5750000000000004 11.017270853660511 14.852400000000001 21.500000000000004 14.500000000000002 0 12.145000000000001 17.385000000000002 5.5000000000000009 0.45000000000000112 7.2350000000000012 5.8050000000000006 8.5000000000000018 30.395000000000003 3.2208333333333332 18.091041666666666 3.416666666666667 13.33306666666663 23.325000000000003 4.5000000000000009 5.2754166666666675 1.9150000000000003 10.025 9.1489766989416115 17.206250000000004 14.500000000000002
decision_type=2 2 2 2 2 2 2 2 2 2 2 2 2 2 2 2 2 2 2 2 2 2 2 2 2 2 2 2 2 2 2 2 2 2 2 2 2 2 2 2 2 1 2 2 2 2 2 2 2 2 2 2 2 2 2 2 2 2 2 2 2 2
left_child=2 4 5 18 11 6 -1 20 19 16 21 17 13 26 -8 44 28 32 25 22 48 -7 23 34 40 -4 36 30 -6 -13 -12 -11 -2 -19 -3 -36 38 -38 -9 55 41 -21 -31 -18 45 -16 47 -17 -5 50 -50 -49 -45 -35 -55 -20 -57 -27 -28 -30 -60 -33
right_child=1 8 3 7 9 10 14 12 -10 31 27 29 -14 -15 15 46 43 33 39 24 -22 -23 -24 -25 -26 57 58 -29 59 42 -32 61 -34 53 35 -37 37 -39 -40 -41 -42 -43 -44 52 -46 -47 -48 51 49 -51 -52 -53 -54 54 -56 56 -58 -59 60 -61 -62 -63
leaf_value=-0.23425553132889576 -0.11190130088229265 -0.087868206320809508 -0.12698565294111994 -0.24413095250388778 -0.24073936122133044 -0.58888352243391717 -0.69747458066718293 -0.051373397589701324 0.32339843025207521 -0.14855099621411508 -0.28373772692094035 -0.057068319151866033 -0.05457688337507105 -0.069897587462372554 -0.19634412574719368 -0.25658748320966196 -0.054610829767941141 -0.14147065778403117 -0.055956510417051963 -0.16767353040800512 -0.13710201765162519 -0.43658438312344466 0.0715343805909157 0.15783022731351856 -0.24246684393694329 -0.11697477225590421 -0.20488764569078236 -0.10483640060137965 -0.14941905396033944 -0.03125138752634813 -0.19951177390682631 -0.11416592840080904 -0.024032084869950548 -0.21428080379317527 -0.12598449562582162 -0.33762573318581574 -0.14872181834948944 -0.042582752561861781 -0.11802117819965106 0.035468446557180983 0.042033922400002623 -0.0021142282481639188 0.024761927984225097 -0.089407165138600822 -0.29949457274734986 -0.1576042339985394 -0.34317567685558314 -0.19513095155021346 -0.23217741316683593 -0.22019951691607176 -0.24030951322535216 -0.17788094970619187 -0.15808190070311304 -0.01647671730561209 -0.051483540697192277 -0.18689404693734421 -0.022237384536898497 -0.20548289553043714 -0.19286269714815721 -0.22568734750296437 -0.18885932057439403 0.00447832675386958
leaf_weight=130 270 389 318 654 180 450 5099 171 133657 117 159 522 186 208 235 478 201 140 450 235 345 114 12391 398 146 217 821 184 185 1232 114 344 1288 108 126 135 203 183 157 165 530 334 2560 193 149 158 2359 212 537 114 785 186 487 244 135 145 122 173 116 445 191 430
leaf_count=130 270 389 318 654 180 450 5099 171 133657 117 159 522 186 208 235 478 201 140 450 235 345 114 12391 398 146 217 821 184 185 1232 114 344 1288 108 126 135 203 183 157 165 530 334 2560 193 149 158 2359 212 537 114 785 186 487 244 135 145 122 173 116 445 191 430
internal_value=0.000253296 0.00383847 -0.0343971 -0.0254025 -0.00602301 -0.0400135 -0.0415523 -0.0298748 0.00444216 -0.0144036 -0.0264398 -0.00269349 -0.0240474 -0.0257317 -0.0421158 -0.0388973 -0.0188025 -0.00756293 -0.0122642 0.00193204 -0.0352259 -0.0343617 0.00254446 -0.00406489 -0.00467871 -0.0191525 -0.0278176 -0.016663 -0.0252469 -0.000227167 -0.0244872 -0.00605499 -0.00414634 -0.0160526 -0.00946154 -0.0170307 -0.0216807 -0.0163731 -0.0279268 -0.00673469 -0.00250682 -0.00668717 0.00075422 -0.0128774 -0.0252583 -0.0215903 -0.0411824 -0.0372945 -0.037177 -0.0352159 -0.0362632 -0.0321859 -0.0154412 -0.0126591 -0.00951187 -0.00915621 -0.015412 -0.0262821 -0.0317021 -0.021746 -0.025456 -0.00397933
internal_weight=173710 157422 16288 6261 9081 10027 9006 4671 148341 2582 1021 6499 2236 2050 8876 3777 1691 2185 1590 14684 2435 564 13439 1048 1245 708 1842 457 810 4314 273 891 1558 627 650 261 714 386 328 882 1099 569 3792 881 542 393 3235 876 2090 1436 1322 398 680 487 379 717 267 390 1128 630 307 774
internal_count=173710 157422 16288 6261 9081 10027 9006 4671 148341 2582 1021 6499 2236 2050 8876 3777 1691 2185 1590 14684 2435 564 13439 1048 1245 708 1842 457 810 4314 273 891 1558 627 650 261 714 386 328 882 1099 569 3792 881 542 393 3235 876 2090 1436 1322 398 680 487 379 717 267 390 1128 630 307 774
cat_boundaries=0 1
cat_threshold=2055
is_linear=0
shrinkage=0.05


Tree=4
num_leaves=63
num_cat=0
split_feature=0 0 0 1 10 1 10 0 0 1 0 0 0 1 0 1 14 14 0 10 12 21 10 26 29 19 10 10 1 24 2 10 3 10 5 0 25 21 6 10 2 11 7 10 0 2 18 29 1 0 29 10 24 10 10 2 18 21 5 29 3 24
split_gain=8258.08 368.013 336.639 141.005 90.1875 79.4251 76.2462 56.1353 42.1128 41.4892 36.4762 33.8749 32.3187 54.2308 31.4877 26.8347 25.1405 24.874 23.9458 22.911 22.0008 21.3259 18.0154 15.9853 14.2905 13.3786 15.3033 65.6723 13.2599 12.5349 11.236 10.4249 10.3007 10.2902 10.9767 9.84211 9.21303 8.86519 8.79827 8.64398 8.43711 8.23709 8.11699 9.37053 7.72314 7.66919 8.89962 7.60806 7.39445 8.15161 7.36255 7.34097 7.33324 11.7228 7.30358 7.23477 7.14618 6.47652 6.38304 6.33271 6.27836 6.16451
threshold=10.305000000000001 7.245000000000001 13.885000000000003 8.8350000000000026 21.500000000000004 17.995000000000001 1.0000000180025095e-35 9.1650000000000009 11.695000000000002 12.745000000000003 2.5250000000000004 8.4750000000000032 4.0850000000000009 4.0750000000000011 11.005000000000001 5.2650000000000006 25.450000000000003 24.212500000000002 18.845000000000002 20.500000000000004 9.5000000000000018 8.6125000000000007 6.5000000000000009 1.0194314820861325 9.4358333333333331 4.8500000000000005 12.500000000000002 15.500000000000002 15.265000000000002 3.4350000000000005 8.1150000000000002 22.500000000000004 9.7350000000000012 7.5000000000000009 13.14499999999998 13.165000000000001 0.80024147208212215 6.6499999999999995 31.645000000000021 21.500000000000004 1.7650000000000003 3.5000000000000004 7.1320244168290374 17.500000000000004 5.2750000000000012 17.635000000000002 69.500000000000014 5.2754166666666675 8.1150000000000002 5.8050000000000006 2.8008333333333337 14.500000000000002 1.5250000000000001 12.500000000000002 9.5000000000000018 23.575000000000003 59.166666666666679 0.9499999999999994 17.98499999999996 3.8929166666666677 17.735000000000003 1.6150000000000004
decision_type=2 2 2 2 2 2 2 2 2 2 2 2 2 2 2 2 2 2 2 2 2 2 2 2 2 2 2 2 2 2 2 2 2 2 2 2 2 2 2 2 2 2 2 2 2 2 2 2 2 2 2 2 2 2 2 2 2 2 2 2 2 2
left_child=1 4 5 11 6 8 -1 21 9 50 20 15 -8 41 -7 -3 19 30 25 28 -6 38 -10 -12 33 26 40 29 42 45 -16 -25 -24 -11 -35 -32 56 -18 -5 52 -4 57 -9 54 -43 46 47 -28 49 -15 -2 -19 53 -13 -44 -36 -17 -14 -40 -57 -51 -56
right_child=2 3 18 7 10 14 12 16 22 24 23 39 13 48 17 36 37 51 -20 -21 -22 -23 32 31 -26 -27 27 -29 -30 -31 35 -33 -34 34 55 -37 -38 -39 58 -41 -42 44 43 -45 -46 -47 -48 -49 -50 60 -52 -53 -54 -55 61 59 -58 -59 -60 -61 -62 -63
leaf_value=-0.22254275476245092 -0.087256217795065136 -0.14666632114090819 -0.11832734261113345 -0.23392440297134476 -0.55943934631222125 -0.21646069535154791 -0.66260085163382376 -0.12230009796586083 -0.066374355814980898 -0.13015602355341632 -0.10296406064195684 -0.062830686665425739 -0.13611435437170272 -0.25719579673244847 -0.13459948357458673 -0.1269864851556286 -0.1352456368669456 -0.13221593799777515 0.39872850492477419 -0.053634242657894772 -0.41475516396727247 -0.13852683276422656 -0.044042374678254073 -0.26955084057489337 0.0053895892720279047 0.12995765011727817 -0.23472193949648468 0.11995766126010139 -0.21167560821390544 -0.27791805224085614 -0.15932417237716015 -0.17935218029898861 0.024836377265544083 -0.22070852993483758 -0.056288793533598995 -0.093638757841567083 -0.1792006179426392 -0.091700916285416975 -0.14038333525149141 0.02814826996076545 0.091707638021376603 -0.22438559501520736 -0.13069476360504215 -0.11382179488914568 -0.28147198192487155 -0.035777427191726295 -0.06186269029259546 -0.093771479578018194 -0.33477215900661411 -0.19242440471551953 -0.0092288766025422578 0.020403710996957883 -0.097957908263622787 -0.13628528675429588 -0.05244418504995077 -0.031638775524513045 -0.11112603277426916 -0.21267736836733883 -0.23794078353103193 -0.053038418031744521 -0.17027455902062227 -0.078819241327096834
leaf_weight=130 403 296 159 1680 450 297 5099 289 574 312 183 106 118 633 109 201 139 294 119531 120 114 305 950 159 136 13616 249 3791 547 188 915 115 4439 169 436 396 229 301 122 201 6806 140 293 164 174 505 552 154 2059 394 1832 364 698 101 123 110 111 110 101 135 149 134
leaf_count=130 403 296 159 1680 450 297 5099 289 574 312 183 106 118 633 109 201 139 294 119531 120 114 305 950 159 136 13616 249 3791 547 188 915 115 4439 169 436 396 229 301 122 201 6806 140 293 164 174 505 552 154 2059 394 1832 364 698 101 123 110 111 110 101 135 149 134
internal_value=0.000335905 -0.033556 0.0038426 -0.0240449 -0.0394949 -0.00425364 -0.0410915 -0.0290783 -0.0022083 -0.00653411 -0.0254114 -0.012859 -0.0416483 -0.0381427 -0.0124316 -0.020448 -0.0232464 -0.0102551 0.00450292 -0.0260479 -0.0339184 -0.0346513 0.000354687 -0.0149125 -0.0136441 0.00312836 0.0019405 -4.68834e-05 -0.0276774 -0.00837985 -0.0139789 -0.0225547 0.00125162 -0.0154389 -0.0125882 -0.0126964 -0.0270702 -0.0126136 -0.0366185 -0.00711573 0.00349246 -0.0235055 -0.0242622 -0.0214006 -0.028758 -0.00681507 -0.00945026 -0.0150993 -0.0405951 -0.037432 -0.00240492 -0.00221884 -0.00919889 -0.0174638 -0.0182727 -0.00975771 -0.0326603 -0.0162719 -0.027287 -0.0166327 -0.0329374 -0.0121206
internal_weight=173710 16288 157422 6261 10027 11871 9006 4318 9496 3533 1021 1943 8876 3777 2375 837 2110 2078 145551 1670 564 2208 5963 457 1298 26020 12404 5439 1550 1648 1420 274 5389 1162 850 1311 541 440 1903 1106 6965 542 1003 714 314 1460 955 403 3235 1176 2235 658 905 207 550 681 312 228 223 245 543 257
internal_count=173710 16288 157422 6261 10027 11871 9006 4318 9496 3533 1021 1943 8876 3777 2375 837 2110 2078 145551 1670 564 2208 5963 457 1298 26020 12404 5439 1550 1648 1420 274 5389 1162 850 1311 541 440 1903 1106 6965 542 1003 714 314 1460 955 403 3235 1176 2235 658 905 207 550 681 312 228 223 245 543 257
is_linear=0
shrinkage=0.05


Tree=5
num_leaves=63
num_cat=0
split_feature=0 0 0 10 5 10 10 10 0 0 0 0 5 0 29 0 4 26 28 5 10 10 3 20 10 25 3 28 24 28 10 0 28 10 25 0 14 26 19 10 10 24 10 24 26 10 10 19 5 6 0 3 22 11 21 26 26 29 4 10 29 5
split_gain=7801.6 363.645 310.51 92.8683 89.2377 80.6678 56.4358 49.3649 41.618 40.1685 34.3563 33.107 28.8185 28.7835 24.8345 20.7904 19.3983 18.9835 18.9065 18.7564 17.9685 36.3813 27.6604 26.3389 21.6971 16.9361 16.2017 15.6344 16.098 15.225 14.7724 14.3683 12.1258 11.841 11.6405 10.8234 11.2007 10.6905 10.436 14.9555 58.9608 14.3685 10.34 10.3209 10.1666 9.94513 26.4452 23.0061 9.46915 8.98179 8.48486 8.32354 12.0232 8.17763 7.8571 7.68395 7.64942 7.42816 7.7504 7.2431 7.172 7.22818
threshold=10.025 13.165000000000001 7.245000000000001 21.500000000000004 8.5449999999999822 1.0000000180025095e-35 8.5000000000000018 7.5000000000000009 14.852400000000001 3.2950000000000004 9.1650000000000009 2.5250000000000004 5.2608333333333155 11.005000000000001 3.2208333333333332 11.925000000000002 13.575000000000001 0.67441237540747567 0.2457127188544776 18.826666666666686 11.500000000000002 14.500000000000002 10.005000000000001 0.45000000000000112 15.500000000000002 2.6866655151999743 22.775000000000002 0.11411970904500139 1.5750000000000004 0.1566858043163272 5.5000000000000009 20.985000000000003 0.37505335003116286 2.5000000000000004 0.20056163696117282 6.3050000000000006 26.250000000000004 1.066624437827272 4.3500000000000005 12.500000000000002 15.500000000000002 3.2450000000000006 8.5000000000000018 2.9950000000000006 0.74584953543360644 15.500000000000002 12.500000000000002 8.408333333333335 24.564166666666676 8.6752083333333303 8.8450000000000006 12.335000000000003 6.0500000000000016 4.5000000000000009 9.0125000000000011 1.3698254288921976 1.1989095447367439 6.467083333333334 21.735000000000003 12.500000000000002 4.5845833333333337 10.548333333333343
decision_type=2 2 2 2 2 2 2 2 2 2 2 2 2 2 2 2 2 2 2 2 2 2 2 2 2 2 2 2 2 2 2 2 2 2 2 2 2 2 2 2 2 2 2 2 2 2 2 2 2 2 2 2 2 2 2 2 2 2 2 2 2 2
left_child=2 7 3 5 16 -1 -6 15 30 -7 14 17 34 19 37 33 50 -5 26 45 -15 22 -22 -23 -25 -26 -13 -12 -29 -16 -3 38 55 -2 -11 -14 -37 -8 39 -10 41 51 -18 60 -43 46 -9 56 -45 -36 -4 52 -41 -17 -31 -24 -48 58 -19 -51 61 -32
right_child=1 8 4 11 6 9 10 13 31 12 27 18 35 20 29 53 42 57 -20 -21 21 23 32 24 25 -27 -28 28 -30 54 43 -33 -34 -35 49 36 -38 -39 -40 40 -42 44 -44 48 -46 -47 47 -49 -50 59 -52 -53 -54 -55 -56 -57 -58 -59 -60 -61 -62 -63
leaf_value=-0.21141561447503748 -0.12291999382781499 -0.066376445511230564 -0.19679659160608454 -0.37196741228295116 -0.20017941515742335 -0.65567080358190521 -0.1843258607433044 -0.024555693357113564 0.12582468132471666 -0.23140004304183989 -0.19177521865410041 -0.18992600279115954 -0.29937079523066101 0.027044294777073399 -0.24096305593973366 -0.035571662195979813 -0.21470924631593485 -0.60975236931525145 -0.28554972157448832 -0.16261060059219254 -0.23144122725355701 0.018815936577130987 -0.018848947428846421 -0.26535425423254122 -0.026317322401297274 -0.18481888216297629 0.072699436567713965 -0.081785161441239054 -0.13388253084888541 -0.16791924143526932 -0.16093774906703828 0.45229204534626011 -0.10702657255102235 -0.12088327616752384 -0.3867502975032005 -0.26523355594240633 -0.2019844358950969 -0.19776255368253015 0.1555378990132941 -0.076328353451239922 0.15137721507867685 -0.11013264266402699 -0.060609106761255638 -0.021789037935446575 -0.25800973421272577 -0.028463680582995605 -0.27049319205075734 -0.039978917567220967 -0.22063664315967674 -0.13535325539849205 -0.090824356152530011 -0.040105441740792815 -0.23153587843684278 -0.10138001007203989 -0.094071240889622515 -0.16120657180566625 -0.1545986463487099 -0.61425237340562022 -0.39025237599097162 -0.179065410391161 0.062715846512790038 0.013961032852565581
leaf_weight=141 115 660 243 117 1044 4505 236 540 8535 176 104 176 2451 1546 280 562 105 120 105 247 204 2499 412 115 568 101 179 446 767 769 160 106910 172 880 167 1057 152 435 19648 356 4226 161 720 1049 200 1041 149 124 201 132 103 1213 106 230 250 114 128 191 131 175 3237 1650
leaf_count=141 115 660 243 117 1044 4505 236 540 8535 176 104 176 2451 1546 280 562 105 120 105 247 204 2499 412 115 568 101 179 446 767 769 160 106910 172 880 167 1057 152 435 19648 356 4226 161 720 1049 200 1041 149 124 201 132 103 1213 106 230 250 114 128 191 131 175 3237 1650
internal_value=0.000444749 0.00376217 -0.0334345 -0.0386942 -0.0238986 -0.0403216 -0.0272097 -0.005593 0.00437699 -0.0409217 -0.023993 -0.0243916 -0.037471 -0.00390703 -0.0281726 -0.013103 -0.0116524 -0.0325671 -0.0144565 -0.00872813 -0.00203193 -0.00373357 -0.0126275 -0.00128998 -0.00928571 -0.00583707 -0.00894366 -0.0177411 -0.0161459 -0.0241378 0.000601553 0.0045628 -0.00789398 -0.0179146 -0.0277692 -0.039194 -0.0353226 -0.0359836 0.0036747 0.00267183 0.000816033 -0.00617387 -0.00748485 0.00134747 -0.0152216 -0.00710898 -0.0108342 -0.0205611 -0.00272 -0.023692 -0.0215896 -0.00422388 -0.00993506 -0.00705808 -0.0213003 -0.00412548 -0.028574 -0.0373077 -0.0316534 -0.0186156 0.00235486 -0.000165746
internal_weight=173536 158059 15477 9975 5502 8956 4331 9747 148312 8815 3287 1019 4310 7960 1970 1787 1171 559 460 2229 5731 4185 902 3283 784 669 355 1317 1213 1299 6957 141355 698 995 650 3660 1209 671 34445 14797 6262 2036 825 6297 361 1982 941 401 1250 474 346 1675 462 792 1019 526 277 442 251 307 5047 1810
internal_count=173536 158059 15477 9975 5502 8956 4331 9747 148312 8815 3287 1019 4310 7960 1970 1787 1171 559 460 2229 5731 4185 902 3283 784 669 355 1317 1213 1299 6957 141355 698 995 650 3660 1209 671 34445 14797 6262 2036 825 6297 361 1982 941 401 1250 474 346 1675 462 792 1019 526 277 442 251 307 5047 1810
is_linear=0
shrinkage=0.05


Tree=6
num_leaves=63
num_cat=0
split_feature=5 5 27 27 3 29 3 10 27 8 10 29 9 10 1 9 9 27 6 6 1 28 27 8 3 9 4 9 9 10 1 6 9 6 27 9 6 6 25 27 8 8 26 24 4 24 9 9 1 10 26 17 6 9 6 6 21 8 4 6 29 9
split_gain=3131.49 426.574 343.997 262.509 210.368 184.515 182.52 173.301 131.375 135.123 106.752 95.6891 92.7844 85.8049 73.1148 65.3653 53.8804 48.1585 48.0833 44.3889 43.8256 42.636 40.0781 66.1339 38.2707 35.9691 32.7757 31.1052 31.0767 28.8982 27.9037 28.5555 36.7587 27.138 26.7389 26.6135 26.4286 25.9863 25.8168 48.5935 44.6906 25.7879 25.5473 25.1239 24.9924 24.6927 24.6485 23.7134 23.5542 22.7417 22.1324 21.9766 19.4379 19.2998 26.9013 18.3869 17.906 17.2781 16.8951 16.3961 16.329 15.9722
threshold=12.723333333333299 5.9666666666666375 0.57701747027917449 0.52004913996615054 14.545000000000002 5.3587500000000006 12.745000000000003 1.5000000000000002 0.68530049849290242 31.088720238095238 22.500000000000004 6.4258333333333342 -8.9502916666666721 9.5000000000000018 12.145000000000001 -9.0829166666666623 0.20312499999998404 0.63703802006852961 24.226458333333341 17.004583333333333 10.525 0.22978180886257998 0.47251242940816973 19.074202380952382 12.545000000000002 -0.18208333333334001 26.585000000000004 -15.687916666666657 -27.63979166666666 15.500000000000002 0.91500000000000015 8.6752083333333303 -6.5175000000000116 3.3941666666666674 0.52309293383182076 -2.9608333333333401 19.029583333333342 15.206249999999999 1.0814662231618293 0.50948844408607885 30.058994047619052 51.988690476190477 1.3892699066754777 1.8550000000000002 3.2950000000000004 2.1850000000000005 -13.991458333333332 -11.398958333333326 16.635000000000002 21.500000000000004 0.82839257006833555 6.6388888888888893 29.302499999999998 -1.3935416666666713 12.568125000000002 33.022291666666668 2.9499999999999997 31.586488095238099 19.515000000000004 15.206249999999999 2.8433333333333337 1.1118333333333272
decision_type=2 2 2 2 2 2 2 2 2 2 2 2 2 2 2 2 2 2 2 2 2 2 2 2 2 2 2 2 2 2 2 2 2 2 2 2 2 2 2 2 2 2 2 2 2 2 2 2 2 2 2 2 2 2 2 2 2 2 2 2 2 2
left_child=1 7 6 48 11 8 14 -1 9 15 16 25 13 57 43 18 30 36 -4 45 -11 -12 -16 34 59 49 -19 52 -22 35 -9 -32 58 -18 -24 37 -15 -14 39 -8 44 55 -25 61 -41 -17 51 -13 53 60 -49 -38 -20 54 -3 -10 -46 -6 -33 -7 -5 -2
right_child=2 3 5 4 12 24 38 10 41 20 21 47 29 17 22 19 33 26 27 -21 28 -23 23 42 -26 -27 -28 -29 -30 -31 31 32 -34 -35 -36 -37 46 -39 -40 40 -42 -43 -44 -45 56 -47 -48 50 -50 -51 -52 -53 -54 -55 -56 -57 -58 -59 -60 -61 -62 -63
leaf_value=-0.053536206650890573 -0.22848864571149835 -0.26677957404320529 -0.28408725899851323 -0.3134872605595847 -0.41408726442196619 -0.29858726430275689 0.14967751937289239 -0.7145872579846646 -0.32826501145036535 -0.33658726053276311 -0.0028806706504837759 -0.34583725581282021 -0.21947187337691443 -0.4220872627530361 0.11603569604675977 -0.21925879954310315 -0.52487657717691449 -0.41608726251461753 -0.30022187902073 -0.0067748345637641556 -0.23698017893928591 -0.38475475770372491 -0.073713120681488178 0.011164826389306225 0.073525445830499955 -0.21870606197650677 -0.26258726585247766 -0.11023050466034222 0.034432878687048175 0.048621092050370962 -0.47728726219274908 -0.40983725978398233 -0.15937861046566049 -0.27496345389032373 -0.15976501902734191 0.015946853191213105 -0.096634856807596634 -0.17569029552301921 0.27270185929819818 -0.29039495438848956 0.031291459139357304 -0.18820504876707284 -0.15736341024498657 -0.04944379349350117 -0.14397188094669611 -0.11460179668423037 -0.00089501134999315926 -0.019230233065815849 -0.33288778925606838 -0.089565452438795837 -0.19619494225451595 -0.37527758927142446 -0.20392157433737568 0.014077392673785397 -0.079897189279034456 -0.25298864663639897 -0.011000190986388266 -0.33390226404976686 -0.33633209739637659 -0.086216542109925867 -0.30958726152369082 -0.053428542112992153
leaf_weight=490 501 126 691 1014 340 141 10152 2150 411 131 339 296 237 199 4219 191 284 406 214 833 448 153 1342 5880 8284 387 205 382 3746 1069 532 734 292 269 621 428 809 348 110574 103 1451 166 468 324 721 255 676 375 157 134 548 295 325 2096 1738 189 521 109 503 836 1576 102
leaf_count=490 501 126 691 1014 340 141 10152 2150 411 131 339 296 237 199 4219 191 284 406 214 833 448 153 1342 5880 8284 387 205 382 3746 1069 532 734 292 269 621 428 809 348 110574 103 1451 166 468 324 721 255 676 375 157 134 548 295 325 2096 1738 189 521 109 503 836 1576 102
internal_value=0.000530322 -0.0184493 0.00290724 -0.0136136 -0.0182039 -0.00374848 0.00374506 -0.0298677 -0.00931972 -0.00722977 -0.032519 -0.0263164 -0.0113445 -0.0169151 -0.00178457 -0.0155984 -0.034809 -0.013417 -0.0222953 -0.00715794 -0.00163584 -0.0103455 -0.000782123 -0.0027969 0.00105334 -0.0309691 -0.0256874 -0.0148154 -0.000746304 -0.00321326 -0.0367359 -0.0325788 -0.0291073 -0.0201356 -0.0108176 -0.00926456 -0.0096286 -0.0161966 0.00434748 0.00223509 -0.00360157 -0.0290078 -0.000316635 -0.0153344 -0.0101673 -0.0198879 -0.00769663 -0.0144422 -0.00307627 -0.0329956 -0.010493 -0.0123007 -0.022551 -0.00232323 -0.00602468 -0.0338333 -0.00820451 -0.0370935 -0.0328739 -0.00830604 -0.0340347 -0.0213682
internal_weight=173536 19314 154222 13568 9451 17243 136979 5746 7982 7216 5256 4330 5121 3039 13457 2891 4764 2590 1612 1279 4325 492 12530 8311 9261 3111 611 921 4194 2082 4211 2061 1529 553 1963 1013 1979 585 123522 12948 2796 766 6348 927 1345 446 1780 1219 4117 2724 923 1104 539 3960 1864 600 1242 449 1237 977 2590 603
internal_count=173536 19314 154222 13568 9451 17243 136979 5746 7982 7216 5256 4330 5121 3039 13457 2891 4764 2590 1612 1279 4325 492 12530 8311 9261 3111 611 921 4194 2082 4211 2061 1529 553 1963 1013 1979 585 123522 12948 2796 766 6348 927 1345 446 1780 1219 4117 2724 923 1104 539 3960 1864 600 1242 449 1237 977 2590 603
is_linear=0
shrinkage=0.05


Tree=7
num_leaves=63
num_cat=1
split_feature=0 0 0 1 1 4 0 1 0 0 1 0 0 14 1 1 5 1 0 26 4 19 4 14 2 24 1 2 19 29 3 26 14 0 20 0 1 3 4 33 26 28 22 9 1 29 2 1 7 11 3 28 24 2 3 4 26 3 0 3 22 0
split_gain=7060.89 371.727 311.139 138.597 69.5451 59.4613 49.8689 80.7418 42.3826 40.3837 38.7366 35.1455 26.4945 25.5652 22.6495 21.6313 21.0802 20.7022 20.5278 18.4803 18.1916 15.925 14.7131 13.9402 13.1358 13.0214 12.0261 10.0026 9.93237 9.69612 9.52917 9.40561 9.37802 8.54134 8.77514 8.01536 8.00359 8.94729 7.99011 7.97595 7.57997 14.3741 7.50587 7.25593 7.22597 6.70582 7.84179 6.64214 6.85487 6.47441 6.47245 6.32889 6.18255 8.1206 6.17013 5.96951 5.94671 5.91469 5.88823 5.80518 6.10135 5.79309
threshold=9.7550000000000008 13.555000000000001 6.7750000000000012 7.6950000000000012 17.385000000000002 53.085000000000008 2.5250000000000004 2.5250000000000004 11.695000000000002 8.8450000000000006 11.223200000000002 17.625000000000004 11.435 25.308333333333337 8.1150000000000002 12.145000000000001 5.2608333333333155 25.995000000000001 5.2750000000000012 0.89003240527524696 30.395000000000003 8.6125000000000007 13.375000000000002 24.950000000000003 7.2350000000000012 4.0900000000000007 5.7950000000000008 26.425000000000004 8.3166666666666682 4.5845833333333337 49.455000000000005 1.3838655955404449 20.833333333333339 10.525 3.2500000000000013 8.1250000000000018 10.293400000000002 13.165000000000001 11.715000000000002 0 1.0432531844064787 0.1480716046516686 2.350000000000001 -12.444791666666672 17.265000000000004 8.3487500000000026 2.5250000000000004 20.645000000000003 24.639781473270151 5.5000000000000009 11.445000000000002 0.26756946372282403 1.7500000000000002 14.705000000000002 14.705000000000002 11.715000000000002 1.3267711727353337 7.6550000000000011 3.2950000000000004 19.795000000000005 6.5500000000000016 10.775
decision_type=2 2 2 2 2 2 2 2 2 2 2 2 2 2 2 2 2 2 2 2 2 2 2 2 2 2 2 2 2 2 2 2 2 2 2 2 2 2 2 1 2 2 2 2 2 2 2 2 2 2 2 2 2 2 2 2 2 2 2 2 2 2
left_child=2 4 5 26 8 6 30 32 10 13 -2 17 31 20 18 40 56 24 55 -15 36 27 -20 47 44 39 38 33 -17 -16 -1 59 -8 34 51 -28 37 -5 -4 -19 -11 -42 -39 -21 -3 46 -10 -14 -49 -48 -51 -12 -35 -54 -13 -9 -7 -29 -34 60 61 -6
right_child=1 11 3 9 12 16 7 14 45 15 21 54 23 19 29 28 -18 25 22 43 -22 -23 -24 -25 -26 -27 35 57 -30 -31 -32 -33 58 52 -36 -37 -38 42 -40 -41 41 -43 -44 -45 -46 -47 49 48 -50 50 -52 -53 53 -55 -56 -57 -58 -59 -60 -61 -62 -63
leaf_value=-0.60685789222440834 -0.021788383677945292 -0.027705541817871777 -0.1603212774178524 -0.11651303411753713 -0.17794847669862757 -0.2462250118317674 -0.18645680358518368 -0.23472073093580034 -0.16000341972826118 -0.044753179161359902 -0.025402364900701732 0.15934891596096393 -0.078386927401008596 -0.05985479052142785 -0.30021806636434556 -0.18129735343059961 -0.48729122665878838 -0.13018947656527757 -0.16559576656555752 -0.1334672206217343 -0.19000893912180514 -0.037605478878399268 -0.16175039942970618 -0.034342143316531272 0.080664460492375412 -0.20932294926356187 -0.097102927837039887 -0.057834712216291252 -0.15086419267042672 -0.33521713370737793 -0.54735788936338536 -0.16698053132924642 -0.21926267674297134 -0.02962687648114113 -0.13005593632445783 -0.093815103890528662 -0.22764117207584059 -0.072665373980588963 -0.048286828622757967 0.011708658181035681 -0.15479360479391321 -0.053558420572908452 -0.22560698541531066 -0.20511662650342563 -0.089585672023161256 0.047421964356688932 0.0083735916674999682 -0.13912138175026656 -0.19219402338206321 -0.10116525594292476 -0.0066418581531856096 -0.14213226744816768 -0.20091055095499177 -0.042226540705783314 0.33969358618378886 -0.22495142950491567 -0.5860170181496086 -0.090710362901121791 -0.15867921548312347 -0.24672878879382801 -0.3260814622358949 -0.057042484910200419
leaf_weight=4188 2275 972 166 369 232 170 276 388 135 258 125 10795 515 134 1314 719 102 722 279 163 170 457 464 488 17339 109 286 107 133 672 162 122 115 443 144 335 1236 124 625 1060 103 419 101 158 189 1103 2879 583 127 202 439 198 103 323 115724 789 123 431 237 143 112 162
leaf_count=4188 2275 972 166 369 232 170 276 388 135 258 125 10795 515 134 1314 719 102 722 279 163 170 457 464 488 17339 109 286 107 133 672 162 122 115 443 144 335 1236 124 625 1060 103 419 101 158 189 1103 2879 583 127 202 439 198 103 323 115724 789 123 431 237 143 112 162
internal_value=0.000609557 0.00368668 -0.0324476 -0.0230233 -0.00483288 -0.0380327 -0.0388766 -0.0352073 -0.00285989 -0.027689 -0.00627877 0.00437377 -0.0122705 -0.0317413 -0.0378827 -0.0215931 -0.0190506 0.0024474 -0.0340104 -0.021044 -0.034175 -0.0108087 -0.0275034 -0.00880619 0.00295676 -0.0025357 -0.00951841 -0.0128495 -0.0271009 -0.0416264 -0.0427011 -0.0199676 -0.0185669 -0.0105314 -0.015985 -0.0147262 -0.0356284 -0.0308586 -0.00542984 -0.00150954 -0.0155769 -0.0190421 -0.023 -0.0275545 -0.00219208 0.000449769 -0.000581395 -0.0116531 -0.0147887 -0.000127841 -0.00467239 -0.0114087 -0.00760069 -0.0119014 0.00468424 -0.0381181 -0.0122355 -0.0186059 -0.0239773 -0.0175732 -0.0150593 -0.012132
internal_weight=173536 158758 14778 5499 11848 9279 8884 4534 9364 4087 4606 146910 2484 2455 3906 1632 395 20391 1920 455 2000 2331 743 1713 18500 1891 1412 1874 852 1986 4350 771 628 1336 467 621 1830 594 791 1782 780 522 225 321 1161 4758 3655 1225 710 3520 641 323 869 426 126519 1177 293 538 352 649 506 394
internal_count=173536 158758 14778 5499 11848 9279 8884 4534 9364 4087 4606 146910 2484 2455 3906 1632 395 20391 1920 455 2000 2331 743 1713 18500 1891 1412 1874 852 1986 4350 771 628 1336 467 621 1830 594 791 1782 780 522 225 321 1161 4758 3655 1225 710 3520 641 323 869 426 126519 1177 293 538 352 649 506 394
cat_boundaries=0 1
cat_threshold=2055
is_linear=0
shrinkage=0.05


Tree=8
num_leaves=63
num_cat=1
split_feature=0 0 0 1 10 10 1 10 0 1 0 0 0 1 0 0 28 14 10 28 3 10 14 1 24 1 0 2 1 10 29 10 10 12 19 24 1 27 19 24 12 25 25 0 10 27 1 29 33 10 1 3 11 14 1 14 29 2 24 28 0 8
split_gain=6703.11 338.026 335.021 129.165 101.958 84.0603 54.1788 48.5521 46.9414 58.2837 41.184 40.8737 39.2285 32.2417 30.1058 25.8766 23.546 19.5969 19.15 17.1699 16.5123 15.4572 15.1755 14.659 14.0914 13.2086 15.8982 12.664 12.384 10.9199 10.7445 10.3839 10.3643 10.3547 9.39477 8.81065 8.5612 8.46425 8.44423 10.3124 8.42409 7.89899 7.81348 7.77585 7.46714 7.38756 7.3617 7.34989 6.9518 8.58476 6.85698 6.70595 7.94205 8.63355 6.68985 6.49646 6.43211 8.65455 6.37009 8.05409 6.26642 6.37802
threshold=9.7550000000000008 13.885000000000003 6.7750000000000012 7.6950000000000012 21.500000000000004 1.0000000180025095e-35 17.265000000000004 7.5000000000000009 2.5250000000000004 2.5250000000000004 11.695000000000002 8.4750000000000032 -1.0000000180025095e-35 12.745000000000003 18.845000000000002 11.435 0.2457127188544776 25.308333333333337 7.5000000000000009 0.14008544828636812 23.745000000000001 11.500000000000002 24.950000000000003 25.995000000000001 3.9050000000000007 8.1150000000000002 5.2750000000000012 3.2950000000000004 15.825000000000001 21.500000000000004 2.8433333333333337 6.5000000000000009 14.500000000000002 2.5000000000000004 6.2500000000000009 3.0850000000000004 30.030600000000003 0.62106543659697755 2.0499999999999994 2.0950000000000002 6.5000000000000009 0.43470994572214944 0.32307804603962204 8.1250000000000018 18.500000000000004 0.63277389501331394 10.293400000000002 8.8695833333333347 0 14.500000000000002 31.725000000000005 10.285000000000002 4.5000000000000009 21.025000000000002 5.7950000000000008 17.750000000000004 4.7837500000000004 12.745000000000003 2.4050000000000007 0.25832580717995596 9.4750000000000032 25.462023809523814
decision_type=2 2 2 2 2 2 2 2 2 2 2 2 2 2 2 2 2 2 2 2 2 2 2 2 2 2 2 2 2 2 2 2 2 2 2 2 2 2 2 2 2 2 2 2 2 2 2 2 1 2 2 2 2 2 2 2 2 2 2 2 2 2
left_child=2 6 4 29 5 -1 10 -5 -7 21 13 17 37 30 23 32 20 41 -15 33 -14 -10 36 27 48 26 -11 44 45 43 -2 -12 -8 -13 -27 -30 -17 -6 39 -34 -36 -9 -23 54 -3 60 -43 -20 49 50 -25 52 -33 -54 -4 -32 57 -29 59 -28 61 -21
right_child=1 14 3 7 12 8 15 11 9 25 31 19 16 18 -16 22 -18 -19 47 28 -22 42 -24 24 -26 34 58 56 35 -31 55 51 38 -35 40 -37 -38 -39 -40 -41 -42 46 -44 -45 -46 -47 -48 -49 -50 -51 -52 -53 53 -55 -56 -57 -58 -59 -60 -61 -62 -63
leaf_value=-0.16908297089170563 -0.067978889526058892 -0.18644538137407568 -0.16703193372393596 -0.21313634917688429 -0.529375150215316 -0.5870149995205366 -0.20371806130721648 -0.1610665782599929 -0.11736587563399375 -0.21259332611861226 -0.066980106860057662 -0.14163054745298528 -0.20531866027844572 -0.11034480927377205 0.33716920167333791 -0.083146404185099262 -0.22279347525670065 -0.11670215721753313 -0.073035183141704041 -0.066780695361006864 -0.081267833613096141 -0.22259650184595448 -0.0093002572035560515 -0.06084101038029055 -0.18234879119822153 -0.29284258951433906 -0.15903136533995152 -0.017389995665490682 -0.15779104341910954 0.035907382674357932 -0.040525329086334598 0.015715757689092627 -0.067661947163529232 -0.15670833947734711 -0.28538600806149472 -0.3259392718853486 -0.20185126064989056 -0.51319249333903516 -0.066511531065039584 -0.30284025538569298 -0.17585185625482264 -0.13873160155377998 -0.18453505848245078 -0.085413498356370632 0.23033823923888949 -0.021898954906700675 -0.22557047119051973 0.0028466327750402698 0.030764533631793031 0.053508508873064201 -0.16521578455785982 0.026202758610359568 -0.15700396537712563 -0.073285551376733746 -0.099250788903531367 0.0012635679140122194 0.11482412765122439 0.084750026846663232 -0.15264017054323065 -0.16152344499687998 -0.042432124043565118 -0.098244767640105479
leaf_weight=140 586 310 328 792 197 3905 324 466 150 1069 505 166 298 395 119458 1315 137 315 902 510 250 103 706 291 221 1632 155 1286 254 208 683 737 124 109 188 117 221 110 231 113 155 201 273 632 128 102 537 201 1676 467 238 4045 148 176 244 1815 14409 7047 274 243 240 278
leaf_count=140 586 310 328 792 197 3905 324 466 150 1069 505 166 298 395 119458 1315 137 315 902 510 250 103 706 291 221 1632 155 1286 254 208 683 737 124 109 188 117 221 110 231 113 155 201 273 632 128 102 537 201 1676 467 238 4045 148 176 244 1815 14409 7047 274 243 240 278
internal_value=0.000688215 0.00368637 -0.0315205 -0.0217412 -0.037316 -0.0391294 -0.00396651 -0.0262454 -0.0397895 -0.036148 -0.00222064 -0.0235736 -0.0221673 -0.00573767 0.00438192 -0.0098319 -0.0155109 -0.0295951 -0.0117557 -0.0184234 -0.0108759 -0.0205703 -0.00708742 0.0028426 -0.000513308 -0.0383531 -0.0351781 0.00326143 -0.0163191 -0.00870397 -0.00281453 0.000651399 -0.017601 -0.0299091 -0.0411519 -0.0242453 -0.0098763 -0.0370195 -0.0128419 -0.0194726 -0.0336297 -0.0325 -0.025984 -0.0105316 -0.00515982 -0.0137168 -0.0292818 -0.00837262 0.00049027 -0.00280318 -0.00719282 0.00132785 -0.00221018 -0.00873457 -0.0147552 -0.00138511 0.00342362 0.00231789 -0.0291518 -0.033191 -0.0149903 -0.0171447
internal_weight=173536 158758 14778 5499 9279 8287 13227 4087 8147 4242 10193 3295 992 4582 145531 3034 685 1519 1498 1776 548 526 2242 26073 2893 3716 1741 23180 1501 1412 3084 5611 792 275 1975 371 1536 307 468 237 343 1204 376 1204 438 1130 738 1103 2672 996 529 5106 1061 324 572 2498 22742 8333 672 398 1028 788
internal_count=173536 158758 14778 5499 9279 8287 13227 4087 8147 4242 10193 3295 992 4582 145531 3034 685 1519 1498 1776 548 526 2242 26073 2893 3716 1741 23180 1501 1412 3084 5611 792 275 1975 371 1536 307 468 237 343 1204 376 1204 438 1130 738 1103 2672 996 529 5106 1061 324 572 2498 22742 8333 672 398 1028 788
cat_boundaries=0 1
cat_threshold=2055
is_linear=0
shrinkage=0.05


Tree=9
num_leaves=63
num_cat=1
split_feature=0 0 0 1 10 0 10 0 1 1 10 0 0 1 0 14 28 0 2 10 26 25 4 10 4 6 1 24 10 0 29 29 33 4 25 24 10 10 21 10 25 29 26 28 10 10 29 18 28 26 28 10 10 10 10 4 10 10 29 24 4 27
split_gain=6329.31 353.274 298.542 135.091 90.9887 69.8244 66.3886 52.5065 51.9279 43.0103 34.3328 32.6383 31.8414 47.6881 23.9935 23.7271 21.9673 20.1159 17.7354 16.4158 16.3575 15.705 13.9696 13.9663 13.4366 13.203 12.7634 14.7085 12.6895 12.1586 11.1082 10.0227 9.79558 9.27323 9.25015 9.17342 9.17298 9.91468 9.02161 8.85964 8.65591 8.53373 8.46897 8.11207 7.74968 56.8775 11.6215 12.0571 9.82521 7.67005 6.87366 16.6936 11.4894 6.72933 15.7453 8.86197 6.71016 6.58721 6.28956 6.26829 8.59969 6.26251
threshold=9.7550000000000008 5.8050000000000006 14.375000000000002 7.6950000000000012 21.500000000000004 8.4750000000000032 1.0000000180025095e-35 11.695000000000002 12.745000000000003 20.422200000000007 7.5000000000000009 -1.0000000180025095e-35 1.7650000000000003 2.5250000000000004 20.755000000000006 23.950000000000003 0.25073545375555112 6.7750000000000012 18.495000000000001 20.500000000000004 0.89003240527524696 2.9423194105462724 26.315000000000001 7.5000000000000009 14.852400000000001 14.439375000000002 28.365000000000006 3.8700000000000006 6.5000000000000009 3.2950000000000004 2.8008333333333337 8.8695833333333347 0 9.7650000000000023 1.7322602420221482 2.0050000000000003 14.500000000000002 12.500000000000002 1.5499999999999992 22.500000000000004 1.2250004102841865 2.8433333333333337 0.99031301078845757 0.17895846141442534 12.500000000000002 14.500000000000002 6.2075000000000005 78.500000000000014 0.37876435041932693 1.3850333017414369 0.25463310085872637 9.5000000000000018 11.500000000000002 8.5000000000000018 11.500000000000002 17.105000000000004 15.500000000000002 14.500000000000002 2.6837500000000007 1.7350000000000001 15.415000000000001 0.50215623663280018
decision_type=2 2 2 2 2 2 2 2 2 2 2 2 2 2 2 2 2 2 2 2 2 2 2 2 2 2 2 2 2 2 2 2 1 2 2 2 2 2 2 2 2 2 2 2 2 2 2 2 2 2 2 2 2 2 2 2 2 2 2 2 2 2
left_child=1 4 7 17 6 15 -1 8 41 28 -7 42 -8 29 25 19 22 24 33 58 -17 36 -13 49 -3 -4 -27 32 -9 34 -20 35 57 -12 -14 61 37 -11 40 53 -38 -2 -6 -32 -30 46 47 -46 -48 59 -15 -52 -53 -19 -55 -56 -29 -28 -5 -10 -61 -25
right_child=2 3 14 5 11 10 12 9 23 21 18 16 13 50 -16 20 -18 39 30 -21 -22 -23 -24 31 -26 26 27 56 44 -31 43 -33 -34 -35 -36 -37 38 -39 -40 -41 -42 -43 -44 -45 45 -47 48 -49 -50 -51 51 52 -54 54 55 -57 -58 -59 -60 60 -62 -63
leaf_value=-0.16667220829649368 -0.064579945049755977 -0.12876100534366702 -0.0077048042805180411 -0.23363123841830899 -0.4875328686720834 -0.17911211577642761 -0.58166425049818415 -0.042174552835081161 -0.045879801855423986 -0.045862555455791522 -0.10619101870595285 -0.20308281670500672 -0.17612241118952437 -0.25485325664986375 0.37719928701512617 -0.11965689647120124 -0.22678663742530905 -0.18872627316439444 -0.13413057514564661 -0.10503830166244506 -0.1897670900173469 -0.22981949550213168 -0.094022496854114859 -0.095191678535007776 -0.14048186404917826 0.11853966680711298 -0.11525994781001235 -0.19125542590437461 0.032829273910661712 -0.1484574316026441 -0.16552963868016779 -0.030986524089399232 0.063028179936186368 -0.071868823952877747 -0.24141800543819503 -0.18713985186299406 -0.019855347025255883 -0.17928392570974339 0.048200466700602441 0.11671224778009032 -0.1982424516155824 -0.015507136251976771 -0.5043519595754743 -0.12926531567252983 -0.24906175845282605 0.043603756946811602 -0.011255766993142924 -0.12717179508120502 -0.11303222775282551 -0.13822140217830833 -0.25028178482442981 -0.094205587554664849 -0.29869753877343003 0.0039446716133814345 -0.13079721031604641 -0.073621017437629097 -0.11951557990331958 0.050833083429411022 -0.20639158994893686 -0.14127636984446748 -0.11727684856470169 -0.028582607424154739
leaf_weight=115 586 207 2132 747 105 392 3306 907 242 501 265 242 232 1409 108299 211 109 138 191 141 501 176 247 108 358 29802 557 122 2972 286 171 279 1869 859 131 773 144 175 382 120 131 2498 202 290 169 3617 319 197 111 101 915 231 401 332 403 419 166 487 1102 116 213 607
leaf_count=115 586 207 2132 747 105 392 3306 907 242 501 265 242 232 1409 108299 211 109 138 191 141 501 176 247 108 358 29802 557 122 2972 286 171 279 1869 859 131 773 144 175 382 120 131 2498 202 290 169 3617 319 197 111 101 915 231 401 332 403 419 166 487 1102 116 213 607
internal_value=0.000768601 -0.0305292 0.00368196 -0.022209 -0.0377121 -0.0266838 -0.0396342 -0.00295158 -0.00685044 -0.000754515 -0.02 -0.0227901 -0.0402612 -0.0370111 0.00439066 -0.0320466 -0.0159866 -0.0111861 -0.0170439 -0.0348492 -0.0242135 -0.00851889 -0.0114622 -0.0123022 -0.0191593 0.0032553 0.00350165 0.000501406 0.000658466 -0.0247381 -0.0236043 -0.00996887 0.00156711 -0.0132384 -0.0308127 -0.0115995 -0.00666542 -0.0107544 -0.00245814 -0.00799575 -0.00936364 -0.00253891 -0.0360423 -0.0194035 0.00134394 1.47294e-05 -0.0120854 -0.0186339 -0.00651163 -0.0184375 -0.0397057 -0.0374047 -0.0311551 -0.00920279 -0.00795494 -0.0116667 -0.0102778 -0.0023055 -0.0361033 -0.0161909 -0.0206839 -0.00751748
internal_weight=173536 14778 158758 6847 7931 4870 7026 15324 5523 9801 2168 905 6911 3605 143434 2702 598 1977 1776 1990 712 1509 489 2439 565 35135 33003 3201 8292 649 652 1767 2913 1124 363 1488 1333 676 657 1412 275 3084 307 461 7385 4413 796 366 430 672 2956 1547 632 1292 1154 822 288 1044 1849 571 329 715
internal_count=173536 14778 158758 6847 7931 4870 7026 15324 5523 9801 2168 905 6911 3605 143434 2702 598 1977 1776 1990 712 1509 489 2439 565 35135 33003 3201 8292 649 652 1767 2913 1124 363 1488 1333 676 657 1412 275 3084 307 461 7385 4413 796 366 430 672 2956 1547 632 1292 1154 822 288 1044 1849 571 329 715
cat_boundaries=0 1
cat_threshold=2055
is_linear=0
shrinkage=0.05


Tree=10
num_leaves=63
num_cat=2
split_feature=5 5 3 2 27 27 4 3 8 27 5 25 9 6 10 9 6 10 27 5 2 9 9 33 8 5 10 29 9 10 29 6 10 10 9 6 27 8 2 27 25 9 29 10 14 4 4 14 9 25 4 18 6 10 9 10 10 6 9 33 10 27
split_gain=2493.42 335.296 327.529 216.988 171.152 150.975 150.132 107.298 89.0307 81.2354 75.5565 67.639 61.3948 91.145 53.3693 49.951 80.8615 49.4627 42.816 41.7491 41.7343 36.2937 35.385 32.9281 32.0901 31.9401 31.1455 30.9288 27.1095 25.8333 25.2109 24.4989 24.2473 26.6066 23.846 37.2925 21.434 41.1296 21.3923 21.2391 33.1617 21.0317 20.8114 19.6637 19.1072 18.92 18.9028 18.5003 18.4729 17.3044 16.8915 16.7437 16.1028 15.8101 45.7628 15.4853 15.4297 15.0856 24.8945 14.4445 17.7448 14.189
threshold=11.842499999999925 5.9666666666666375 14.852400000000001 15.265000000000002 0.61503359767388954 0.57701747027917449 25.775000000000002 11.715000000000002 29.37304404761905 0.53148692389077057 16.204999999999945 1.0814662231618293 -6.9497916666666715 17.202875000000002 1.5000000000000002 -17.204791666666669 31.420416666666679 7.5000000000000009 0.67110278133019141 16.355833333333319 23.575000000000003 -2.2241666666666777 -0.40250000000000868 0 25.462023809523814 2.588333333333297 21.500000000000004 2.9987500000000007 -1.8149999999999993 22.500000000000004 6.8449999999999998 12.568125000000002 12.500000000000002 18.500000000000004 -13.786249999999997 23.453125000000007 0.52765663820368436 18.848541666666669 18.725000000000005 0.53310472788919816 0.39449222875141715 -27.63979166666666 5.7312500000000002 9.5000000000000018 24.750000000000004 16.615000000000006 6.3250000000000011 21.950000000000003 -12.633541666666661 0.61547974658581761 10.775 64.500000000000014 14.680416666666668 8.5000000000000018 -6.4029166666666564 8.5000000000000018 17.500000000000004 27.612916666666674 -12.081458333333343 1 14.500000000000002 0.5958161985768432
decision_type=2 2 2 2 2 2 2 2 2 2 2 2 2 2 2 2 2 2 2 2 2 2 2 1 2 2 2 2 2 2 2 2 2 2 2 2 2 2 2 2 2 2 2 2 2 2 2 2 2 2 2 2 2 2 2 2 2 2 2 1 2 2
left_child=1 6 5 7 19 10 25 9 44 -3 17 61 13 -9 -8 16 47 22 24 20 53 31 -2 28 42 -1 45 -5 29 -16 32 -11 55 51 35 -15 -12 -38 43 -21 -41 -18 -13 -29 48 -27 -33 -10 -6 -39 -37 -34 -51 54 -4 -19 -22 58 -17 60 -26 -7
right_child=2 3 4 27 8 11 14 12 15 21 36 18 -14 34 23 57 41 30 -20 39 56 -23 -24 -25 59 26 -28 38 -30 -31 -32 46 33 -35 -36 50 37 49 -40 40 -42 -43 -44 -45 -46 -47 -48 -49 -50 52 -52 -53 -54 -55 -56 -57 -58 -59 -60 -61 -62 -63
leaf_value=-0.59858104178797211 -0.2132457786435755 -0.097481800150938991 -0.2094854508827389 -0.32009361726317148 -0.23071577785440997 -0.14810484465580334 -0.0048937215734386813 -0.25533725158665543 -0.37939715506836141 -0.24618907325535672 0.045135274578444011 -0.21285943645285729 -0.016876259845092247 -0.35820104542072484 -0.40608102909963861 -0.17705656170234216 -0.2088303984530156 -0.093056040498513237 -0.21258610399763289 0.31383925781451638 -0.21466425278781598 -0.13537855112807651 -0.086005192903457317 -0.074857277541547279 -0.26608314062058708 -0.36558104941736669 -0.15562676100889875 -0.17329619476565761 -0.21758104303966969 -0.25122526845062132 0.020711510309511263 -0.15295840048841605 -0.18803493227432427 -0.0099269818021130753 -0.025530854756735468 -0.15117773000435145 -0.13606293505158723 -0.09656313276984721 -0.28633104280311367 -0.15288004057481844 0.11888629684941164 0.051475178347276898 -0.065665985084995451 -0.17633104339916011 -0.12384700959216124 -0.25171990377999476 -0.14953917754996235 -0.14934386330206537 -0.17319242270509827 -0.22754257846069192 -0.071120166039859448 -0.071128393361206396 0.033052176584082965 0.050434302672930545 0.018551163466730799 0.048508082365428244 -0.038324945257780407 0.1390645143644865 0.037282880591143562 -0.026623993719698227 -0.17244385576057752 -0.15538312921210695
leaf_weight=1886 284 1225 296 561 252 328 408 427 215 452 10764 445 3219 213 744 267 549 236 484 92421 218 440 437 295 278 1043 216 189 306 186 1298 129 612 568 1214 234 346 533 643 480 25227 696 266 565 160 616 644 139 119 233 751 558 3402 7828 1256 766 133 1608 844 1691 713 213
leaf_count=1886 284 1225 296 561 252 328 408 427 215 452 10764 445 3219 213 744 267 549 236 484 92421 218 440 437 295 278 1043 216 189 306 186 1298 129 612 568 1214 234 346 533 643 480 25227 696 266 565 160 616 644 139 119 233 751 558 3402 7828 1256 766 133 1608 844 1691 713 213
internal_value=0.000858583 -0.0175671 0.00280546 -0.0124308 0.0037853 -0.00251176 -0.0273947 -0.00913165 -0.00543514 -0.0170588 -0.000667016 -0.0108782 -0.00534995 -0.0107098 -0.0160933 -0.00305929 -0.0100719 -0.00616831 -0.00856719 0.00413498 0.000987052 -0.0242492 -0.0182316 -0.0203756 -0.00658267 -0.0332212 -0.0286 -0.0275077 -0.0238925 -0.0283333 -0.00401436 -0.0286735 -0.00673358 -0.0103049 -0.0069403 -0.0119449 0.0010466 -0.00184537 -0.0235254 0.0043943 0.00312308 -0.0040763 -0.0160267 -0.0178117 -0.0247552 -0.0309253 -0.0232665 -0.0311582 -0.0309838 -0.000470249 -0.00784264 -0.0146154 0.000763411 0.00162047 -0.00298969 -0.000538922 -0.0159402 0.00106473 -0.00341584 -0.00407905 -0.00883616 -0.0274399
internal_weight=173769 16606 157163 10906 132708 24455 5700 8948 4849 2890 20037 4418 6058 2839 1939 4318 1599 4759 3877 127859 9731 1665 721 1531 3393 3761 1875 1958 1236 930 4038 1225 2740 1738 2412 1198 15278 4514 1397 118128 25707 1245 711 754 531 1659 773 354 371 4168 985 1170 3635 9380 1552 1002 351 2719 1111 2682 991 541
internal_count=173769 16606 157163 10906 132708 24455 5700 8948 4849 2890 20037 4418 6058 2839 1939 4318 1599 4759 3877 127859 9731 1665 721 1531 3393 3761 1875 1958 1236 930 4038 1225 2740 1738 2412 1198 15278 4514 1397 118128 25707 1245 711 754 531 1659 773 354 371 4168 985 1170 3635 9380 1552 1002 351 2719 1111 2682 991 541
cat_boundaries=0 1 2
cat_threshold=2055 2055
is_linear=0
shrinkage=0.05


Tree=11
num_leaves=63
num_cat=0
split_feature=0 0 0 1 10 0 10 0 1 1 0 0 1 10 1 0 29 28 28 10 10 10 28 0 10 10 19 10 10 24 24 0 0 23 26 0 3 10 1 0 28 8 12 10 10 10 25 18 15 10 26 0 1 28 1 3 19 11 10 10 10 10
split_gain=5524.38 412.484 272.906 127.294 87.3076 77.1884 53.9886 51.9678 74.2544 48.6963 44.3749 40.9088 33.5994 28.6677 27.8229 21.2489 21.2283 20.2848 18.4961 22.0711 16.0951 15.7951 18.5215 15.2165 15.0638 14.0905 13.703 15.2532 69.008 14.083 13.1575 12.961 12.8897 12.981 12.7793 12.1908 12.5195 10.7894 10.4973 15.8667 9.33003 9.59922 9.27303 8.62473 8.76814 11.0789 8.7395 8.62325 8.55395 14.1284 9.66941 8.45079 8.38113 10.0951 8.29545 8.1708 7.853 7.80199 8.75321 7.47471 33.9283 16.9786
threshold=9.7550000000000008 5.8050000000000006 14.852400000000001 7.6950000000000012 21.500000000000004 8.4750000000000032 1.0000000180025095e-35 0.90500000000000014 1.7750000000000001 19.605000000000004 12.135000000000003 0.90500000000000014 15.265000000000002 8.5000000000000018 13.555000000000001 21.945000000000004 2.6837500000000007 0.25073545375555112 0.1339035713992375 14.500000000000002 7.5000000000000009 12.500000000000002 0.32972734846383894 12.325000000000001 7.5000000000000009 6.5000000000000009 3.4499999999999997 12.500000000000002 15.500000000000002 3.2450000000000006 4.0900000000000007 2.5250000000000004 6.7750000000000012 19.377083333333339 1.2251720697166859 6.7750000000000012 14.984400000000003 6.5000000000000009 6.2950000000000008 3.2950000000000004 0.14008544828636812 17.247822619047621 4.5000000000000009 8.5000000000000018 11.500000000000002 20.500000000000004 0.34275628520068652 32.333333333333336 2.2500000000000004 15.500000000000002 1.1293027255124815 10.775 4.0750000000000011 0.27368798870781236 11.223200000000002 21.415000000000003 4.1499999999999995 3.5000000000000004 8.5000000000000018 11.500000000000002 14.500000000000002 12.500000000000002
decision_type=2 2 2 2 2 2 2 2 2 2 2 2 2 2 2 2 2 2 2 2 2 2 2 2 2 2 2 2 2 2 2 2 2 2 2 2 2 2 2 2 2 2 2 2 2 2 2 2 2 2 2 2 2 2 2 2 2 2 2 2 2 2
left_child=1 4 9 35 6 13 -1 -8 31 10 14 34 20 -5 57 26 -15 -13 -11 21 -7 23 -23 -20 51 -12 27 37 29 55 48 -9 54 -34 -6 36 -3 47 39 -10 41 -22 -31 -37 -45 46 -46 -4 49 50 -21 -16 53 -41 -18 -29 -40 -2 -59 -27 61 -61
right_child=2 3 15 5 11 12 7 8 38 18 25 17 -14 16 24 -17 32 -19 19 30 40 22 -24 -25 -26 59 -28 28 -30 42 -32 -33 33 -35 -36 43 -38 -39 56 52 -42 -43 -44 44 45 -47 -48 -49 -50 -51 -52 -53 -54 -55 -56 -57 -58 58 -60 60 -62 -63
leaf_value=-0.15399269280371508 0.0010245941968210382 -0.12052390812008743 -0.10095700046572256 -0.20703961138317403 -0.32003711285559788 -0.14953365045910097 -0.56165199637429375 -0.13842908214084368 -0.16833975644431171 -0.23046662542049412 -0.039780147512749942 -0.11831327929673395 -0.18017212247329528 -0.19373255659647787 -0.10787179697113834 0.39114732544136865 -0.1524055074575508 -0.19960927039287957 -0.13724758618474539 -0.20497114281849274 -0.13610850753183487 -0.38858980787286568 -0.10985900253813696 -0.031916901798778333 -0.057547497736352232 0.051576402151190595 0.1203056946607286 -0.12680393584942143 0.12284447993950304 -0.35162683095388586 -0.23412496431060062 -0.10398284514944361 -0.18327713542473964 -0.10072640361592791 -0.48435208269455576 -0.14911991258521981 -0.1009943385863815 0.16739692850827759 -0.26071361555515532 -0.1399169397431281 -0.053861701234627551 -0.093232545696162739 -0.1657475408076767 0.0091118203849954848 -0.119201148617777 0.0023928316930926755 -0.091215480611818986 0.049036316463142132 0.020988057627326563 0.00050587939896783272 -0.098433571723511915 -0.086739067135192832 -0.15825215439146842 -0.19203184935218293 -0.29412861277934232 0.021406157442314378 -0.21758935733559348 -0.091376578756064933 -0.027335545184950086 0.012633067679977399 0.06581350568461497 -0.13326588565578543
leaf_weight=104 2087 289 414 777 212 239 2686 292 764 107 838 414 626 553 207 101503 170 104 276 103 100 124 181 740 1385 2802 24219 1265 4415 210 100 302 438 544 178 142 283 5769 1565 179 1119 107 163 330 188 327 433 3106 747 324 108 349 463 127 239 434 507 274 1804 368 3798 748
leaf_count=104 2087 289 414 777 212 239 2686 292 764 107 838 414 626 553 207 101503 170 104 276 103 100 124 181 740 1385 2802 24219 1265 4415 210 100 302 438 544 178 142 283 5769 1565 179 1119 107 163 330 188 327 433 3106 747 324 108 349 463 127 239 434 507 274 1804 368 3798 748
internal_value=0.000948932 -0.028268 0.00366923 -0.019341 -0.0360726 -0.0236645 -0.0379675 -0.0385076 -0.0350333 -0.00222667 -0.00107094 -0.0214868 -0.0166796 -0.0292889 -0.00432689 0.00439716 -0.0260442 -0.012278 -0.00825623 -0.00744913 -0.0127636 -0.0120704 -0.0220492 -0.0090748 -0.00927099 0.00125322 0.00342105 0.00227434 0.000413905 -0.0071139 -0.00303184 -0.0186532 -0.0227498 -0.0196436 -0.0337179 -0.00867972 -0.0148427 0.00357358 -0.0377323 -0.0345956 -0.0106109 -0.0203623 -0.0159115 -0.00619718 -0.00489828 -0.00734177 -0.0112641 0.00139205 -0.00166927 -0.00649533 -0.016564 -0.016223 -0.0295254 -0.0231046 -0.0302078 -0.00518246 -0.0400531 -0.00202281 -0.00419153 0.00192198 0.000746846 -0.00691756
internal_weight=173769 14801 158968 6904 7897 4912 6989 6885 4199 17470 14660 908 2191 2721 6106 141498 1944 518 2810 2703 1565 1321 305 1016 1941 8554 39995 15776 6487 2072 1382 594 1391 982 390 1992 572 9289 3605 1533 1326 207 373 1420 1278 948 621 3520 1282 535 211 556 769 306 409 1699 2072 4165 2078 7716 4914 1116
internal_count=173769 14801 158968 6904 7897 4912 6989 6885 4199 17470 14660 908 2191 2721 6106 141498 1944 518 2810 2703 1565 1321 305 1016 1941 8554 39995 15776 6487 2072 1382 594 1391 982 390 1992 572 9289 3605 1533 1326 207 373 1420 1278 948 621 3520 1282 535 211 556 769 306 409 1699 2072 4165 2078 7716 4914 1116
is_linear=0
shrinkage=0.05


Tree=12
num_leaves=63
num_cat=0
split_feature=0 0 0 1 10 0 1 10 0 1 0 10 1 0 29 0 28 10 28 0 0 2 10 10 14 28 0 10 0 1 28 28 25 2 10 10 14 28 10 26 29 29 2 10 10 10 10 28 0 26 1 24 1 4 21 27 10 5 21 0 10 8
split_gain=5232.33 385.752 254.411 134.631 85.4208 75.9595 68.4177 51.8074 54.0518 70.0278 38.675 38.313 35.4504 26.3369 26.301 22.7897 18.8158 18.6885 17.9189 17.3569 16.3512 15.1681 24.928 29.1098 17.352 16.4586 13.5384 13.074 11.7834 22.1123 16.0467 11.6797 16.0038 11.2792 9.83495 14.0652 10.3323 9.75361 9.51444 9.63695 9.35381 9.15756 8.9731 20.0297 12.9297 8.49435 23.8866 11.2773 8.44772 8.37792 8.08073 7.97769 8.38995 7.91512 7.88017 7.70701 7.50132 7.27528 7.0045 6.99673 6.86173 6.63775
threshold=8.8450000000000006 12.135000000000003 5.8050000000000006 7.6950000000000012 21.500000000000004 15.415000000000001 15.695000000000002 1.0000000180025095e-35 0.90500000000000014 1.7750000000000001 1.0000000180025095e-35 8.5000000000000018 19.605000000000004 10.305000000000001 2.6837500000000007 10.525 0.25073545375555112 8.5000000000000018 0.1339035713992375 24.535000000000004 6.7750000000000012 15.110600000000002 15.500000000000002 13.500000000000002 18.750000000000004 0.22978180886257998 2.5250000000000004 6.5000000000000009 3.2950000000000004 4.8150000000000004 0.27368798870781236 0.13685033948678196 0.45396655349277865 7.2350000000000012 14.500000000000002 12.500000000000002 26.433333333333337 0.14569636936966585 22.500000000000004 1.0940144771806004 2.3012500000000005 2.5024999999999999 7.6950000000000012 16.500000000000004 12.500000000000002 14.500000000000002 12.500000000000002 0.37189410563890785 6.7750000000000012 0.99031301078845757 34.465000000000011 1.5350000000000004 11.015000000000002 15.110200000000001 5.6499999999999995 0.58524781281623339 19.500000000000004 11.842499999999925 2.649999999999999 7.705000000000001 15.500000000000002 21.021488095238098
decision_type=2 2 2 2 2 2 2 2 2 2 2 2 2 2 2 2 2 2 2 2 2 2 2 2 2 2 2 2 2 2 2 2 2 2 2 2 2 2 2 2 2 2 2 2 2 2 2 2 2 2 2 2 2 2 2 2 2 2 2 2 2 2
left_child=2 6 4 48 7 12 15 -1 -9 26 49 59 27 -8 56 17 38 40 -14 21 -16 22 23 -7 25 -25 58 41 -11 30 -30 32 -19 -20 35 -35 -37 -22 39 -12 -2 -3 43 44 -29 46 -17 -48 53 -6 -36 -39 -53 -4 60 -54 -13 -34 -10 -5 -15 -27
right_child=1 5 3 11 10 19 13 8 9 28 16 14 18 54 20 45 -18 31 33 -21 37 -23 -24 24 -26 61 -28 42 29 -31 -32 -33 57 34 50 36 -38 51 -40 -41 -42 -43 -44 -45 -46 -47 47 -49 -50 -51 -52 52 55 -55 -56 -57 -58 -59 -60 -61 -62 -63
leaf_value=-0.1462930581635293 -0.12778088645043403 -0.13071005406937194 -0.10445028796797191 -0.20496864692966066 -0.43382531865667051 0.022875703819514294 -0.18503030927527941 -0.53356939655557911 -0.13474553502610712 -0.22397186064396216 -0.10481291929196367 -0.19835881414934256 -0.20688699062478741 -0.14808285282703651 -0.21899395886792489 -0.01149321586975802 -0.20946593534700289 -0.064353106138732616 -0.12250878764449312 0.47108994772520846 -0.18299828597353107 0.1320049192949076 0.24692300816834534 -0.085168208815946847 -0.038122381414658582 -0.18757498984800572 -0.098783702891971414 0.1131182909109712 -0.13607739323618792 -0.21506994140055219 -0.16397430428645057 -0.024505859257059854 0.0086668792009897758 -0.024227485410233472 0.038512581248145453 -0.19240164071963961 -0.03312365011125442 -0.088940596371867645 0.028509668452438987 -0.17287902047494763 -0.088456150382853066 -0.010187513812860892 0.038848475089101726 0.13495665380055435 -0.19675084730140596 0.011010213359148487 -0.19887411201287197 -0.17612229921501152 -0.083849168486068548 -0.45468389414762589 -0.18199875292651557 -0.048834817762550303 -0.1798741877597286 -0.11449771271408307 -0.041862405666979276 -0.12405641326281287 -0.088799347046575466 -0.10627098408915998 -0.13150762798286028 -0.15418082100068467 -0.066093319191025693 -0.32452014528117329
leaf_weight=104 115 193 210 530 105 3769 735 2686 151 1394 219 527 124 721 409 1501 106 109 117 86953 223 43332 3712 213 462 146 302 112 242 1799 170 2255 120 975 983 183 145 193 156 101 533 846 8797 423 268 1699 192 107 1013 221 164 386 133 362 466 333 126 176 141 377 294 110
leaf_count=104 115 193 210 530 105 3769 735 2686 151 1394 219 527 124 721 409 1501 106 109 117 86953 223 43332 3712 213 462 146 302 112 242 1799 170 2255 120 975 983 183 145 193 156 101 533 846 8797 423 268 1699 192 107 1013 221 164 386 133 362 466 333 126 176 141 377 294 110
internal_value=0.00103583 0.00347408 -0.0298376 -0.0207881 -0.0353634 0.00407023 -0.00657043 -0.0372378 -0.0377669 -0.0342236 -0.0209361 -0.0266342 0.000465116 -0.0142013 -0.0232403 -0.00408623 -0.0132131 -0.00706167 -0.00466184 0.00441671 -0.0199255 0.00369164 0.00174869 -0.000670213 -0.00858754 -0.0153625 -0.0183165 0.00176191 -0.0368447 -0.0345749 -0.0241262 -0.00520677 -0.0130247 -0.0037651 -0.00304082 -0.00601305 -0.0149695 -0.0171215 -0.00897059 -0.0139062 -0.0146759 -0.00356593 0.00233854 -0.00272105 -0.0110526 -0.00127322 -0.00366667 -0.0165719 -0.00884858 -0.0347239 0.000335658 -0.0150957 -0.0130164 -0.0137063 -0.0103612 -0.0175322 -0.0317534 -0.00699324 -0.0259931 -0.0353528 -0.0128325 -0.0239062
internal_weight=173769 161050 12719 4822 7897 152027 9023 6989 6885 4199 908 3237 13330 2216 2330 6807 582 3308 2691 138697 1677 51744 8412 4700 931 469 594 10639 3605 2211 412 2660 405 2567 2450 1303 328 1268 476 320 648 1039 9600 803 380 3499 1800 299 1585 326 1147 1045 852 572 1481 466 653 296 292 907 1015 256
internal_count=173769 161050 12719 4822 7897 152027 9023 6989 6885 4199 908 3237 13330 2216 2330 6807 582 3308 2691 138697 1677 51744 8412 4700 931 469 594 10639 3605 2211 412 2660 405 2567 2450 1303 328 1268 476 320 648 1039 9600 803 380 3499 1800 299 1585 326 1147 1045 852 572 1481 466 653 296 292 907 1015 256
is_linear=0
shrinkage=0.05


Tree=13
num_leaves=63
num_cat=1
split_feature=0 0 0 1 10 0 0 1 1 10 0 0 28 1 29 0 0 1 1 2 0 1 28 24 14 2 24 1 26 28 29 26 26 0 10 10 10 25 6 0 4 10 24 0 2 24 10 10 11 1 5 26 2 10 10 26 23 34 10 5 27 5
split_gain=4984.83 349.665 272.829 127.265 90.0977 71.3994 57.6374 69.0193 51.4889 45.0049 41.3905 35.5462 35.1412 33.4936 24.1963 22.6529 18.1002 17.7465 17.1701 15.5342 13.5122 13.4677 13.5081 11.7456 11.7601 10.9486 10.3499 10.2071 9.79786 9.65981 9.49849 11.4322 10.9153 9.1145 8.41438 40.853 12.3368 9.25628 8.2629 8.15302 8.12778 7.95092 7.72861 7.66921 7.45909 9.51944 7.90979 7.42818 7.26378 7.24018 8.49571 7.47581 7.22704 7.14709 46.171 21.075 11.858 7.54514 7.47347 7.11296 7.06728 6.98327
threshold=8.8450000000000006 13.885000000000003 5.8050000000000006 7.6950000000000012 21.500000000000004 10.525 -1.0000000180025095e-35 2.5250000000000004 13.555000000000001 8.5000000000000018 2.5250000000000004 18.845000000000002 0.21397751775001464 15.825000000000001 2.6837500000000007 -1.6399999999999997 6.7750000000000012 23.795000000000005 1.0000000180025095e-35 6.7650000000000006 3.2950000000000004 4.8150000000000004 0.2880519324280843 2.7750000000000004 26.708333333333339 3.2950000000000004 3.9050000000000007 9.1550000000000029 1.3838655955404449 0.1339035713992375 2.4229166666666671 1.3340116007267127 0.37848741885235276 0.90500000000000014 14.500000000000002 12.500000000000002 7.5000000000000009 1.5613709618220406 16.807291666666671 6.7750000000000012 20.695000000000004 18.500000000000004 1.5350000000000004 7.705000000000001 7.2350000000000012 3.0400000000000005 7.5000000000000009 11.500000000000002 3.5000000000000004 12.335000000000003 9.2783333333332489 0.98049021317893403 14.852400000000001 14.500000000000002 12.500000000000002 0.35010832543143106 26.652083333333341 0 6.5000000000000009 27.731666666666701 0.5707818197180895 11.128333333333355
decision_type=2 2 2 2 2 2 2 2 2 2 2 2 2 2 2 2 2 2 2 2 2 2 2 2 2 2 2 2 2 2 2 2 2 2 2 2 2 2 2 2 2 2 2 2 2 2 2 2 2 2 2 2 2 2 2 2 2 1 2 2 2 2
left_child=2 5 4 39 6 8 -1 10 27 43 18 17 15 34 48 -6 -16 25 -8 -15 -9 22 -22 28 30 41 52 -2 -21 -18 -25 32 -32 -14 35 36 -7 61 -13 -4 -17 -3 -31 -5 -10 46 -46 -12 -11 50 -44 -51 -19 54 58 56 -56 -57 -27 -30 -49 -37
right_child=1 11 3 9 12 13 7 20 44 14 47 38 33 19 16 40 29 26 -20 23 21 -23 -24 24 -26 53 -28 -29 59 42 31 -33 -34 -35 -36 37 -38 -39 -40 -41 -42 -43 49 -45 45 -47 -48 60 -50 51 -52 -53 -54 -55 55 57 -58 -59 -60 -61 -62 -63
leaf_value=-0.52839091814473127 -0.014632720019687984 -0.1943293747504046 -0.10155485779559287 -0.19472021458317759 -0.43740028385244667 -0.045042855020887979 -0.19166746871036427 -0.22624957668901577 -0.17908269735907967 -0.12712984852261924 -0.091873867179588148 0.093943312892133701 -0.39162530408412571 -0.12850565784654738 -0.20804426092452866 -0.13049165787718167 -0.17500824252312128 -0.03894181005914632 -0.1402784203145265 -0.017526971590758163 -0.13029155812612364 -0.20410982581190931 -0.19115500244042191 -0.058466152503545477 0.013743387095325714 0.019799024462954142 -0.15207857561102314 -0.051005018230895552 -0.03972319324349894 -0.084457240530186606 -0.15647532321756774 -0.055341242012616303 -0.21331877844874481 -0.16931426507294178 0.023525040746925661 -0.15745930559970045 0.025891235559218847 -0.2912523356608358 0.28329005911613941 -0.079656710061765112 -0.068027128257880959 0.19021630298172554 -0.10782858163197895 -0.14647177995065044 -0.10540087272822288 -0.19065547993050316 -0.10094052881257198 -0.17899352490352213 -0.21350640073627181 -0.14388617750197394 -0.031723222542103593 -0.1653569290238921 0.015676254569419176 0.13050313448103509 -0.17901948891426062 -0.15072743426947266 -0.049580366615494621 0.0035614820542732104 0.10571303950189817 -0.12961873977995106 -0.074272296757485048 -0.047831448883361966
leaf_weight=2059 1133 296 572 530 119 892 293 1516 120 397 160 4727 164 132 409 177 161 501 511 2288 198 1804 124 214 243 2205 337 1692 204 202 158 136 326 165 3425 164 2427 121 114962 1013 283 143 107 377 323 308 610 144 256 227 382 189 3440 9475 297 300 178 1235 7613 109 180 316
leaf_count=2059 1133 296 572 530 119 892 293 1516 120 397 160 4727 164 132 409 177 161 501 511 2288 198 1804 124 214 243 2205 337 1692 204 202 158 136 326 165 3425 164 2427 121 114962 1013 283 143 107 377 323 308 610 144 256 227 382 189 3440 9475 297 300 178 1235 7613 109 180 316
internal_value=0.00109482 0.0034747 -0.0290396 -0.0196682 -0.0347619 -0.00370543 -0.0366869 -0.0337525 -0.00927377 -0.0253522 -0.0238043 0.00423066 -0.0199449 -0.00161587 -0.0216738 -0.0125302 -0.0184943 0.00255573 -0.0307587 -0.00541995 -0.0372707 -0.034699 -0.0252795 -0.00481512 -0.00920613 0.00313495 -0.000388032 -0.00542478 -0.00299692 -0.0155442 -0.0120264 -0.0151613 -0.0187603 -0.0329939 0.000357386 -0.00122449 0.000947575 -0.0132196 0.00459478 -0.00805994 -0.0075 -0.00468109 -0.0138799 -0.0348015 -0.017263 -0.016112 -0.0135959 -0.0122521 -0.0298392 -0.0119061 -0.00778119 -0.0167548 0.000331134 0.00329601 0.00247633 -0.00442786 -0.0136316 -0.0015798 0.00388979 -0.0112939 -0.0166049 -0.0101042
internal_weight=173769 161050 12719 4822 7897 15341 6989 4930 4186 3237 1288 145709 908 11155 2330 579 1677 26020 804 3810 3642 2126 322 3678 1077 21742 4278 2825 2601 1268 834 620 484 329 7345 3920 3319 601 119689 1585 460 439 1107 907 1361 1241 933 484 653 905 489 416 3941 21303 11828 2010 475 1535 9818 313 324 480
internal_count=173769 161050 12719 4822 7897 15341 6989 4930 4186 3237 1288 145709 908 11155 2330 579 1677 26020 804 3810 3642 2126 322 3678 1077 21742 4278 2825 2601 1268 834 620 484 329 7345 3920 3319 601 119689 1585 460 439 1107 907 1361 1241 933 484 653 905 489 416 3941 21303 11828 2010 475 1535 9818 313 324 480
cat_boundaries=0 1
cat_threshold=8
is_linear=0
shrinkage=0.05


Tree=14
num_leaves=63
num_cat=0
split_feature=0 0 0 1 10 0 1 0 10 1 0 0 0 1 1 28 14 1 0 1 28 0 1 18 29 14 24 6 10 28 10 28 10 10 29 24 10 12 10 28 5 10 10 8 24 29 25 19 18 0 10 12 0 1 0 12 29 10 10 10 29 18
split_gain=4656.72 319.305 285.028 115.061 88.4465 62.2527 67.0411 60.0097 45.31 43.3032 38.312 34.8298 31.9216 27.8422 22.0301 20.8255 20.6712 18.0276 16.9194 24.9798 17.0482 13.6224 13.3151 12.9002 12.4231 12.1607 9.88555 9.11515 8.66227 11.8829 8.63101 9.18165 8.62431 29.0103 26.335 11.9325 11.7339 8.52832 8.30035 11.8697 8.21997 8.06194 16.4053 9.86844 7.98156 12.3203 7.56138 7.45675 7.5156 7.36663 7.13001 7.24339 8.73359 6.96333 6.67018 6.64818 6.60419 6.59053 30.7067 8.48459 6.66997 8.89119
threshold=8.8450000000000006 13.885000000000003 5.8050000000000006 7.6950000000000012 21.500000000000004 -1.0000000180025095e-35 1.7750000000000001 10.775 8.5000000000000018 13.555000000000001 -1.6399999999999997 18.735000000000003 2.5250000000000004 15.825000000000001 11.223200000000002 0.21714328434034116 23.150000000000002 23.795000000000005 3.2950000000000004 4.8150000000000004 0.27368798870781236 7.705000000000001 1.0000000180025095e-35 17.500000000000004 2.6470833333333332 26.433333333333337 3.9050000000000007 16.807291666666671 15.500000000000002 0.1766089108531316 8.5000000000000018 0.3197491399676104 15.500000000000002 12.500000000000002 5.3174999999999999 2.9550000000000005 6.5000000000000009 6.5000000000000009 15.500000000000002 0.13133237958976859 17.475000000000026 11.500000000000002 14.500000000000002 21.579761904761909 2.9050000000000007 2.4229166666666671 1.3637743283479564 10.216666666666667 68.375000000000014 6.7750000000000012 22.500000000000004 9.5000000000000018 1.7650000000000003 8.4650000000000016 13.353800000000001 8.5000000000000018 4.2679166666666672 14.500000000000002 12.500000000000002 7.5000000000000009 6.6941666666666677 78.500000000000014
decision_type=2 2 2 2 2 2 2 2 2 2 2 2 2 2 2 2 2 2 2 2 2 2 2 2 2 2 2 2 2 2 2 2 2 2 2 2 2 2 2 2 2 2 2 2 2 2 2 2 2 2 2 2 2 2 2 2 2 2 2 2 2 2
left_child=2 7 4 49 5 -1 12 9 -5 30 -6 17 22 57 21 50 38 32 -8 20 -20 24 -7 -15 -10 44 -19 -13 47 -30 31 -2 33 36 35 55 -3 -18 -16 -40 46 -32 43 -43 54 -46 -41 48 -11 -4 51 52 -12 -44 -25 -35 -21 58 59 -9 61 -60
right_child=1 11 3 8 10 6 18 13 14 28 15 27 -14 23 16 -17 37 26 19 56 -22 -23 -24 25 -26 -27 -28 -29 29 -31 41 -33 -34 34 -36 -37 -38 -39 39 40 -42 42 53 -45 45 -47 -48 -49 -50 -51 -52 -53 -54 -55 -56 -57 -58 -59 60 -61 -62 -63
leaf_value=-0.50197137223749466 -0.096554252675952287 0.0088348979564105718 -0.096477114905813219 -0.1694475681399786 -0.42177339511610978 -0.18208409527484606 -0.20753847427669103 -0.024008714320848324 -0.097125797698112096 -0.18248404028754606 -0.15503733479111592 0.088735035010374885 -0.089110037999643163 -0.13128284992912562 -0.28604832291947685 -0.1900006537251159 -0.15880336701311459 0.0042574299398592729 -0.12275894566807236 -0.20175266807367598 -0.14725479976083586 -0.045336519976466955 -0.12885109865507036 -0.058740485593601545 -0.080138716864122453 0.011893930811752738 -0.14663387095808544 0.26660366275555208 -0.11202913806052434 -0.010302600494634849 0.0089559807856501774 -0.03527312945125477 0.1253187916436084 -0.037066307153240975 0.014675008842623162 -0.31250618299214294 0.099164680971336072 -0.057550464156366332 -0.19740296790300704 -0.12152822115671816 -0.1633956824049026 -0.079166800168367857 0.016433107808845032 -0.22151338141856611 0.0054518619809790564 -0.19445168492819892 -0.095554884292266357 -0.037741067623982272 -0.1001308290918117 -0.075673874558676871 0.081772518714988363 0.088606758857590118 -0.10832169833628576 -0.02927624369309367 0.0059254872288288856 -0.11777066252481223 -0.18801983603774819 0.027186212142026218 -0.25859083250240311 0.027713835402734865 -0.042027637242285823 -0.093980004408858175
leaf_weight=2059 269 2338 572 907 215 293 1742 829 145 600 103 4802 340 131 306 218 241 3786 242 1049 172 534 337 1481 381 836 329 115583 266 239 615 212 8339 467 2090 112 7449 194 130 108 185 142 538 158 191 496 106 100 430 1013 132 100 140 1304 503 414 755 3155 154 2285 223 184
leaf_count=2059 269 2338 572 907 215 293 1742 829 145 600 103 4802 340 131 306 218 241 3786 242 1049 172 534 337 1481 381 836 329 115583 266 239 615 212 8339 467 2090 112 7449 194 130 108 185 142 538 158 191 496 106 100 430 1013 132 100 140 1304 503 414 755 3155 154 2285 223 184
internal_value=0.00117509 0.00347532 -0.0279507 -0.018372 -0.0337995 -0.0357068 -0.0326572 -0.00338602 -0.0237766 -0.00796942 -0.0191189 0.00419772 -0.0208763 -0.00125239 -0.0200858 -0.0133983 -0.0245276 0.00251224 -0.0355429 -0.0326465 -0.02157 -0.0147642 -0.0275397 -0.0047856 -0.0204753 -0.00421015 -0.000516403 0.00455227 -0.0146024 -0.00915842 -0.00462014 -0.0108004 0.00309986 0.00228827 -0.00194129 -0.00864552 0.00362062 -0.0156897 -0.0291317 -0.0253403 -0.0210652 -0.00354189 -0.00499066 -0.0158333 -0.00585736 -0.0105022 -0.0143925 -0.0170354 -0.018301 -0.00733438 -0.00752632 -0.0113265 -0.0159877 -0.00322476 -0.00424899 -0.00669126 -0.0351885 0.000629576 -0.000809524 0.00113038 -0.0115775 -0.0160059
internal_weight=173769 161050 12719 4822 7897 6989 4930 15341 3237 4873 908 145709 970 10468 2330 693 1270 25324 3960 2218 414 1060 630 3638 526 3507 4115 120385 1635 505 3238 481 21209 12870 3083 993 9787 435 835 529 399 2757 2142 300 2671 687 214 1130 1030 1585 475 343 243 1842 1984 881 1804 6830 3675 3114 561 338
internal_count=173769 161050 12719 4822 7897 6989 4930 15341 3237 4873 908 145709 970 10468 2330 693 1270 25324 3960 2218 414 1060 630 3638 526 3507 4115 120385 1635 505 3238 481 21209 12870 3083 993 9787 435 835 529 399 2757 2142 300 2671 687 214 1130 1030 1585 475 343 243 1842 1984 881 1804 6830 3675 3114 561 338
is_linear=0
shrinkage=0.05


Tree=15
num_leaves=63
num_cat=1
split_feature=0 0 0 1 0 0 0 10 1 1 10 1 0 0 0 0 1 29 29 1 3 10 5 26 29 27 10 10 28 4 28 1 24 10 33 6 10 10 14 0 10 28 11 28 1 17 29 4 1 26 0 1 5 18 20 26 1 17 21 26 28 10
split_gain=4422.62 290.292 288.765 117.339 88.1925 68.5123 58.6161 48.5218 44.6884 44.0978 38.3893 32.0322 27.23 21.4188 20.0553 19.9091 39.8618 18.9835 15.2961 15.1967 15.0398 14.1528 13.3945 13.2252 12.7312 12.0774 10.7639 10.4468 9.70477 9.57169 11.843 9.30263 9.15319 10.7024 13.9297 9.07474 8.98591 41.6037 23.7523 33.8612 14.128 9.85069 11.9019 9.3501 8.93197 8.39197 9.51159 7.82438 7.72395 10.8256 7.64692 7.28034 7.08989 7.02695 6.62114 6.54227 6.7711 6.2892 6.28876 6.10136 6.02253 11.46
threshold=8.8450000000000006 12.535000000000002 2.5250000000000004 7.2350000000000012 6.7750000000000012 5.8050000000000006 17.005000000000006 21.500000000000004 15.695000000000002 1.7750000000000001 7.5000000000000009 24.425000000000004 -1.6399999999999997 10.025 10.305000000000001 -1.0000000180025095e-35 1.0000000180025095e-35 2.5024999999999999 4.2337499999999997 4.8150000000000004 18.475800000000003 7.5000000000000009 16.788333333333178 0.7664501166232861 6.6470833333333337 0.59087237958612449 11.500000000000002 21.500000000000004 0.1339035713992375 9.4750000000000032 0.13685033948678196 19.605000000000004 3.7800000000000002 14.500000000000002 0 7.8622916666666667 12.500000000000002 14.500000000000002 20.950000000000003 28.765000000000004 13.500000000000002 0.29176611102797223 2.5000000000000004 0.30550694885421142 10.015000000000002 6.6805555555555562 5.1179166666666678 25.225000000000005 17.505000000000006 0.75614332818926522 14.375000000000002 10.525 18.704999999999945 59.166666666666679 3.7500000000000013 0.24642139702708168 8.4650000000000016 4.5555555555555562 8.3166666666666682 1.0194314820861325 0.27493026621636402 9.5000000000000018
decision_type=2 2 2 2 2 2 2 2 2 2 2 2 2 2 2 2 2 2 2 2 2 2 2 2 2 2 2 2 2 2 2 2 2 2 1 2 2 2 2 2 2 2 2 2 2 2 2 2 2 2 2 2 2 2 2 2 2 2 2 2 2 2
left_child=2 8 7 5 18 9 11 15 14 -4 -6 24 -9 57 21 -1 -17 51 55 26 36 -2 25 -14 31 -20 -11 58 -19 30 -23 35 33 34 50 -3 -8 38 39 40 43 42 -42 -38 -31 46 -15 -21 -30 -50 -13 -12 -33 -44 -46 -5 -57 -10 -28 -53 -18 -62
right_child=1 6 3 4 10 -7 20 12 13 19 17 32 23 45 -16 16 60 28 22 47 -22 29 -24 -25 -26 -27 27 -29 48 44 -32 52 -34 -35 -36 -37 37 -39 -40 -41 41 -43 53 -45 54 -47 -48 -49 49 -51 -52 59 -54 -55 -56 56 -58 -59 -60 -61 61 -63
leaf_value=-0.47437279408887678 -0.084950881454425309 -0.20045657381001825 -0.080439339602214596 -0.25170177388369386 -0.16013135081631238 -0.076112831969828335 0.12503588848922101 -0.39444159990401884 -0.099970137496296574 -0.084281854482298801 -0.053807379598888108 -0.15397766466817914 -0.019531604016143379 -0.098594928425941017 -0.0074785572253363818 -0.16163813048402112 -0.18041073283774517 -0.16230194964297584 -0.19440454101674889 -0.12174417826175388 0.26644129113031617 -0.13733672913528036 -0.25824713384504705 -0.1567239958038294 0.063418589013471763 -0.14905458379424322 -0.15761912549514812 -0.13749220136583012 -0.081296788240783846 0.0029506120494827929 -0.03653890236206081 -0.073939733525239942 -0.17766266851654353 0.033657362350461996 -0.007771252048280621 0.035205458059960733 0.060731458401923746 0.17146860026732097 0.018905455420356446 0.089559861730764107 -0.25216441984706561 -0.18940087810273509 -0.2422203930823702 -0.17125731911872855 -0.033707100569787256 -0.14707286668442368 -0.0083162756536168496 -0.11827930804696507 -0.082909363297407446 -0.14980382104553067 -0.11182369442756553 -0.14794389253628867 -0.0077353915365417055 -0.099740933903302076 -0.075236302396263888 -0.12480408314505431 -0.21307547254943182 -0.1745095777613978 -0.110903000350823 -0.1711950119006399 -0.18170768435157705 -0.21582187257814028
leaf_weight=2115 372 187 445 156 495 1414 11315 203 232 212 160 114 108 1113 4931 280 959 186 352 595 106995 113 234 249 8105 400 280 140 1151 980 378 347 261 847 648 8181 186 7677 2499 703 211 127 111 168 733 467 563 129 119 139 292 113 1402 150 164 249 993 350 100 194 321 286
leaf_count=2115 372 187 445 156 495 1414 11315 203 232 212 160 114 108 1113 4931 280 959 186 352 595 106995 113 234 249 8105 400 280 140 1151 980 378 347 261 847 648 8181 186 7677 2499 703 211 127 111 168 733 467 563 129 119 139 292 113 1402 150 164 249 993 350 100 194 321 286
internal_value=0.00121357 0.00346168 -0.0271006 -0.0215383 -0.0264208 -0.0142609 0.00401977 -0.0372583 -0.00461908 -0.0204603 -0.0199707 0.00152669 -0.0234821 -0.0101193 -0.00266523 -0.039206 -0.0354117 -0.016969 -0.0333389 -0.0246703 0.00441026 -0.00609489 -0.02857 -0.0151681 0.00220942 -0.0253191 -0.0195902 -0.0234615 -0.014373 -0.00467061 -0.0108859 0.00102649 -0.00422757 -0.00302209 -0.0063852 0.00171965 0.00325463 0.00229124 -0.00173887 -0.00638285 -0.0125236 -0.0172037 -0.0205297 -0.00460452 -0.00304475 -0.00780915 -0.00615752 -0.0298066 -0.012956 -0.0207752 -0.0135096 -0.0258351 -0.00228988 -0.0133908 -0.00664994 -0.0367024 -0.0379147 -0.0186254 -0.0277632 -0.030342 -0.0385185 -0.0346211
internal_weight=173699 160922 12777 8256 4941 3315 150526 4521 10396 1901 2557 20384 560 2725 7671 3961 1846 2062 2384 1456 130142 2740 986 357 18222 752 732 520 1595 2368 491 10117 2162 1901 1054 8368 23147 11832 4155 1656 953 599 472 354 1877 2143 1676 724 1409 258 406 467 1749 261 897 1398 1242 582 380 307 1566 607
internal_count=173699 160922 12777 8256 4941 3315 150526 4521 10396 1901 2557 20384 560 2725 7671 3961 1846 2062 2384 1456 130142 2740 986 357 18222 752 732 520 1595 2368 491 10117 2162 1901 1054 8368 23147 11832 4155 1656 953 599 472 354 1877 2143 1676 724 1409 258 406 467 1749 261 897 1398 1242 582 380 307 1566 607
cat_boundaries=0 1
cat_threshold=2055
is_linear=0
shrinkage=0.05


Tree=16
num_leaves=63
num_cat=2
split_feature=0 0 0 1 0 10 0 1 0 1 10 0 1 10 0 0 1 1 14 0 25 0 29 0 0 2 26 29 10 10 22 1 0 1 25 4 24 10 34 10 24 21 20 4 12 26 10 1 34 10 0 4 10 1 23 26 3 7 29 12 2 25
split_gain=4118.17 361.465 226.568 123.344 65.7483 49.1261 47.8714 45.4516 42.6536 34.1308 31.2041 29.5275 28.6447 24.2279 24.2218 22.0749 33.2226 19.4394 20.3008 16.7908 15.9483 14.9239 14.6832 13.9045 13.7574 12.5517 12.4756 11.3167 11.1977 15.5013 16.8864 10.2281 9.70231 10.7703 9.49121 11.7474 8.7243 8.9566 11.1399 8.59361 9.83772 8.33786 8.18334 8.09501 8.05507 7.90862 7.67046 6.96059 8.52826 6.82519 6.79723 6.71721 6.6244 12.2235 6.48547 6.35946 6.28654 6.25408 6.83053 6.22104 6.22095 6.19672
threshold=8.1250000000000018 12.135000000000003 2.5250000000000004 6.7650000000000006 17.005000000000006 21.500000000000004 5.8050000000000006 15.110600000000002 5.2750000000000012 2.5250000000000004 7.5000000000000009 10.025 24.425000000000004 7.5000000000000009 -1.6399999999999997 -1.6399999999999997 1.0000000180025095e-35 9.7450000000000028 23.150000000000002 25.295000000000005 0.51015989726721667 9.4750000000000032 6.6941666666666677 10.025 -1.0000000180025095e-35 2.5250000000000004 0.7664501166232861 4.2679166666666672 15.500000000000002 13.500000000000002 2.1500000000000008 12.145000000000001 14.852400000000001 16.115000000000006 2.2973846663277038 16.375000000000004 3.7800000000000002 14.500000000000002 0 14.500000000000002 3.0400000000000005 8.3166666666666682 5.4500000000000011 18.675000000000004 3.5000000000000004 0.94069353087096885 15.500000000000002 29.525000000000002 1 5.5000000000000009 14.225000000000003 20.815000000000001 1.0000000180025095e-35 17.645000000000003 20.547916666666669 1.0758370893233933 16.615000000000006 15.251249850465774 4.2679166666666672 3.5000000000000004 21.090600000000006 0.21218534307912643
decision_type=2 2 2 2 2 2 2 2 2 2 2 2 2 2 2 2 2 2 2 2 2 2 2 2 2 2 2 2 2 2 2 2 2 2 2 2 2 2 1 2 2 2 2 2 2 2 2 2 1 2 2 2 2 2 2 2 2 2 2 2 2 2
left_child=2 7 5 8 12 15 27 13 9 54 -8 39 22 23 -7 -1 24 -12 44 20 28 31 25 43 -17 56 -16 -5 29 49 -31 55 33 -27 -35 -36 37 38 50 59 -41 -29 -11 60 -19 -20 -46 -22 -49 52 -14 -52 -6 -54 -4 -15 -3 -55 -59 -9 -2 -25
right_child=1 4 3 6 19 14 10 11 -10 42 17 -13 36 21 26 16 -18 18 45 -21 47 -23 -24 61 -26 32 -28 41 -30 30 -32 -33 -34 34 35 -37 -38 -39 -40 40 -42 -43 -44 -45 46 -47 -48 48 -50 -51 51 -53 53 57 -56 -57 -58 58 -60 -61 -62 -63
leaf_value=-0.50405416232378375 -0.1259166438441329 -0.30001244868081356 -0.052202350078630735 -0.19681907620518724 0.45543772896546753 -0.37471951990881786 -0.17307751890392428 -0.082658381899226904 -0.078311859448415858 -0.13052436008863627 -0.074147159754873709 -0.093310027474319004 -0.11701982419926038 -0.0039925969341036097 -0.018555023815336202 -0.13027916574768569 -0.19315836513916285 -0.16511483937183297 -0.064114133157962924 0.43824144827021461 0.13849479402141798 -0.011248657942937043 0.056480436741842548 0.024873414913267805 -0.15355622395982005 0.020162549481123282 -0.14888779601363791 -0.21763270992742761 0.19802183807222962 -0.019151582222347585 -0.19908833722920072 -0.10334312534871835 0.050845032226851862 -0.0092935312344465393 -0.13340463564308788 -0.085842099290601076 -0.16423872253922653 0.030692135909696102 -0.0084025815942202747 -0.085198326666373517 -0.1488251132335241 -0.15019662360081015 -0.11503342531270706 -0.09479909613297606 -0.18672701111322834 -0.11620113908776369 -0.12162756932418982 -0.01061753623677932 0.086323111269114003 0.084838566707868254 -0.042889134980826527 -0.12874062380542114 -0.12258547420408301 0.0068242138829952559 -0.13299685262834576 -0.04538204877180043 -0.055417748949683925 -0.02006130005324884 -0.06875668675893995 -0.22623234095283298 -0.1019466399276658 -0.073746209989874648
leaf_weight=1417 117 116 295 1000 210 203 505 155 1222 806 815 1845 126 564 108 267 1997 389 162 82714 37078 4777 8465 124 280 3446 249 499 1086 190 169 341 5185 1539 201 384 271 889 664 358 199 115 137 149 214 238 199 2038 4700 1183 169 138 107 438 284 991 143 129 100 219 129 452
leaf_count=1417 117 116 295 1000 210 203 505 155 1222 806 815 1845 126 564 108 267 1997 389 162 82714 37078 4777 8465 124 280 3446 249 499 1086 190 169 341 5185 1539 201 384 271 889 664 358 199 115 137 149 214 238 199 2038 4700 1183 169 138 107 438 284 991 143 129 100 219 129 452
internal_value=0.00129157 0.00333208 -0.0277559 -0.0220422 0.00395014 -0.036451 -0.0274952 -0.00567658 -0.0138229 -0.0194087 -0.0231919 -0.0111563 0.00140458 -0.00368655 -0.0225893 -0.0384108 -0.035625 -0.020409 -0.0244509 0.0043753 0.00362528 -0.00261277 0.00202243 -0.0110659 -0.0247075 0.000818958 -0.0147479 -0.0342193 0.000431894 -0.00139351 -0.0110167 -0.00636603 0.00108089 -0.000368043 -0.00316855 -0.00858974 -0.00392778 -0.00277946 -0.00580219 -0.0184157 -0.0144794 -0.0288762 -0.0252757 -0.0182911 -0.0290399 -0.01525 -0.0241768 0.00388853 0.00241021 0.000200739 -0.01193 -0.00819218 -0.00287602 -0.00501292 -0.00985319 -0.0046463 -0.0100579 -0.00249625 -0.00919214 -0.0242781 -0.0238618 -0.00611111
