tree
version=v4
num_class=1
num_tree_per_iteration=1
label_index=0
max_feature_idx=35
objective=quantile
feature_names=lmp_lag_1h lmp_lag_3h lmp_lag_6h lmp_lag_24h lmp_lag_168h lmp_roll_6h_mean lmp_roll_24h_mean lmp_roll_24h_std lmp_roll_168h_mean lmp_dev_from_24h hour_of_day day_of_week month is_weekend temperature_c cdh hdh wind_speed_ms relative_humidity cdh_lag_24h hdh_lag_24h cdh_lag_168h hdh_lag_168h temp_roll_24h_mean gas_henry gas_waha waha_basis reserve_margin_proxy renewable_share_proxy thermal_stress heat_rate vom capacity_mw site_id load_zone settlement_point
feature_infos=[-13.300000000000001:2256.4899999999998] [-13.300000000000001:2256.4899999999998] [-13.300000000000001:2256.4899999999998] [-13.300000000000001:2256.4899999999998] [-13.300000000000001:2236.4899999999998] [-12.37500000000002:1092.3966666666668] [-8.6350000000000104:422.13708333333335] [0.0010762600678322777:611.11889235996887] [10.685178571428571:135.42398809523809] [-328.52916666666664:2061.907083333333] [0:23] [0:6] [1:12] [0:1] [-12.800000000000001:42.799999999999997] [0:24.499999999999996] [0:31.100000000000001] [0:28.305555555555557] [1:100] [0:24.499999999999996] [0:31.100000000000001] [0:24.499999999999996] [0:31.100000000000001] [-11.65:36.137499999999996] [1.21:13.199999999999999] [0.10000000000000001:12.430971800333952] [0.20000555615828597:1.399994443841714] [0.050000000000000003:0.78410487107784288] [0.083398200442660941:0.44073397743153298] [0.73083333333333322:19.933333333333334] [6.7999999999999998:7.5999999999999996] [3.3999999999999999:3.9500000000000002] [200:600] -1:6:5:4:8:7:2:1:9:11:0:3:10 -1:3:1:2:0 -1:3:5:6:0:4:2:1:7
tree_sizes=5430 5782 5768 5788 5796 5831 5840 5804 5815 5852 5835 5810 5845 5827 5841 5883 5851 5846 5863 5905 5879 5867 5858 5866 5849 5905 5880 5857 5891 5903 5900 5852 5906 5872 5919 5923 5909 5881 5868 5907 5915 5934 5931 5888 5908 5937 5935 5920 5910 5925 5947 5889 5913 5917 5919 5980 5953 5910 5959 5938 5908 5995 5907 5925 5947 5933 5962 5922 5973 5932 5916 5956 5928 5945 5942 5893 5915 5951 5948 5910 5924 5962 5962 5979 5956 5927 5966 5939 5907 5942 5881 5875 5939 5889 5928 5903 5959 5881 5902 5886 5919 5903 5915 5877 5933 5869 5979 5897 5951 5842 5872 5921 5924 5906 5926 5895 5864 5863 5916 5975 5932 5864 5902 5910 5857 5963 5928 5897 5881 5911 5880 5927 5905 5874 5869 5902 5865 5885 5915 5900 5937 5885 5857 5923 5869 5901 5905 5890 5916 5851 5854 5882 5913 5814 5791 5863 5856 5855 5940 5864 5846 5892 5808 5867 5886 5787 5950 5869 5928 5907 5854 5916 5913 5799 5873 5849 5837 5738 5781 5757 5906 5894 5859 5797 5820 5818 5830 5756 5893 5865 5848 5776 5771 5724 5757 5894 5781 5773 5814 5874 5752 5720 5778 5787 5728 5712 5790 5749 5779 5821 5811 5731 5880 5679 5692 5737 5787 5827 5884 5802 5815 5757 5831 5809 5788 5842 5805 5796 5801 5791 5881 5921 5848 5783 5833 5800 5814 5733 5788 5838 5798 5911 5810 5844 5844 5700 5758 5780 5771 5759 5801 5838 5801 5823 5733 5852 5861 5787 5834 5867 5810 5819 5783 5737 5836 5755 5825 5868 5801 5751 5781 5754 5840 5731 5750 5761 5839 5859 5771 5843 5906 5881 5870 5896 5850 5716 5796 5770 5814 5782 5802 5799 5754 5793 5753 5772

Tree=0
num_leaves=63
num_cat=0
split_feature=0 0 0 1 1 10 10 10 10 0 0 10 3 10 0 1 10 0 10 12 10 10 10 10 28 10 10 6 12 10 10 0 10 10 24 0 10 0 0 1 10 28 10 28 0 1 0 1 2 28 10 28 0 28 0 1 6 3 10 0 6 10
split_gain=27148.6 1097.82 991.456 643.686 615.312 399.268 236.07 247.889 205.104 163.343 145.575 132.99 109.134 108.267 88.7711 137.807 86.0828 79.8378 71.7001 66.2335 86.2325 62.1096 58.4968 52.2011 105.901 47.7511 72.7761 45.9147 43.904 44.204 41.0319 40.0658 50.3249 116.456 50.6345 39.7614 39.278 38.6989 36.3846 43.8029 35.7997 35.7893 45.8192 35.2466 31.7205 27.3579 26.7176 32.3853 25.816 25.1203 53.1166 24.9604 32.3222 24.6916 24.2614 22.9064 22.8067 22.8066 21.6508 20.9644 19.7925 19.1593
threshold=24.535000000000004 29.100600000000004 21.815000000000001 22.705000000000002 32.605000000000011 21.500000000000004 15.500000000000002 12.500000000000002 1.0000000180025095e-35 15.975000000000003 27.085000000000004 15.500000000000002 22.645000000000003 7.5000000000000009 18.845000000000002 16.764400000000006 1.0000000180025095e-35 25.845000000000002 11.500000000000002 9.5000000000000018 22.500000000000004 4.5000000000000009 20.500000000000004 11.500000000000002 0.38256317892061781 9.5000000000000018 1.0000000180025095e-35 25.486458333333335 10.500000000000002 22.500000000000004 4.5000000000000009 41.145000000000003 15.500000000000002 12.500000000000002 2.3150000000000004 20.545000000000005 10.500000000000002 22.931000000000004 23.175000000000004 26.133200000000002 4.5000000000000009 0.3197491399676104 12.500000000000002 0.27906684355581718 22.825000000000003 19.735000000000003 33.045000000000009 51.655000000000008 26.005000000000006 0.27074384375576016 13.500000000000002 0.22686860889168986 10.775 0.2157011947455888 25.985000000000003 17.265000000000004 27.319374999999997 24.105000000000004 15.500000000000002 17.985000000000003 31.084166666666668 18.500000000000004
decision_type=2 2 2 2 2 2 2 2 2 2 2 2 2 2 2 2 2 2 2 2 2 2 2 2 2 2 2 2 2 2 2 2 2 2 2 2 2 2 2 2 2 2 2 2 2 2 2 2 2 2 2 2 2 2 2 2 2 2 2 2 2 2
left_child=2 4 5 11 6 8 7 13 53 28 30 18 31 16 -10 35 -2 -18 25 20 -11 57 38 54 -25 26 -4 -19 29 -7 -6 32 33 34 40 -16 -23 55 -5 60 -3 42 -20 -22 -27 -17 47 -14 49 50 -9 52 -31 -1 -15 -13 -57 -12 -38 -55 -40 -39
right_child=1 12 3 22 10 9 -8 48 14 19 21 37 46 23 15 45 17 27 41 -21 43 36 -24 24 -26 44 -28 -29 -30 51 -32 -33 -34 -35 -36 -37 58 61 39 -41 -42 -43 -44 -45 -46 -47 -48 -49 -50 -51 -52 -53 -54 59 -56 56 -58 -59 -60 -61 -62 -63
leaf_value=24.251420879364012 25.233000946044921 24.570000839233398 25.0052508354187 24.38300085067749 24.405250883102418 23.935000872612001 24.780500888824463 24.688000869750976 23.993000888824461 24.394750833511353 24.449500846862794 24.631750869750977 24.895840835571288 24.613000869750977 24.411250829696655 24.391000843048097 24.504500865936279 24.533500862121581 24.647500896453856 24.789500904083251 24.960000801086426 24.645000839233397 24.54975085258484 24.738500881195069 24.491000843048095 24.53850088119507 24.431750869750978 24.626760864257811 24.54850082397461 24.315000915527342 24.497500896453857 25.629000854492187 25.021000862121582 24.542000865936281 24.880500888824464 24.525000858306885 24.444750833511353 24.688500881195068 24.495680904388429 24.425000858306884 24.85500087738037 24.367500877380373 24.331500911712645 24.447750854492188 24.641500854492186 24.300000858306884 25.587500953674315 24.614000892639162 24.584750890731812 24.330500888824464 24.416500854492188 23.993500852584837 24.643500900268556 24.523000907897949 24.739360904693605 24.490500831604002 24.576000881195068 24.54725089073181 24.5990008354187 25.017750835418703 24.532000827789307 24.620500850677491
leaf_weight=123 635 697 232 3935 1090 1428 6658 229 49840 722 389 506 9659 1393 1832 2939 873 695 243 543 496 1010 448 722 426 423 614 927 367 341 1944 3115 1368 1291 2208 918 298 691 1025 2773 487 635 446 228 570 10533 45121 825 492 629 395 451 232 427 2412 465 521 488 302 240 590 1155
leaf_count=123 635 697 232 3935 1090 1428 6658 229 49840 722 389 506 9659 1393 1832 2939 873 695 243 543 496 1010 448 722 426 423 614 927 367 341 1944 3115 1368 1291 2208 918 298 691 1025 2773 487 635 446 228 570 10533 45121 825 492 629 395 451 232 427 2412 465 521 488 302 240 590 1155
internal_value=24.54 24.5598 24.5202 24.5318 24.5501 24.5178 24.555 24.55 24.5168 24.5317 24.5357 24.5437 24.563 24.5537 24.5165 24.5197 24.5464 24.5423 24.5364 24.5427 24.5371 24.5446 24.523 24.5583 24.549 24.5428 24.534 24.5488 24.5239 24.5215 24.5283 24.558 24.5556 24.5531 24.558 24.5299 24.5505 24.5507 24.522 24.5251 24.5497 24.5275 24.5354 24.5493 24.5502 24.5176 24.5639 24.5616 24.5329 24.5291 24.5362 24.5295 24.5364 24.5421 24.5611 24.5447 24.5403 24.5339 24.5403 24.5459 24.5317 24.5555
internal_weight=173710 86778 86932 15272 22007 71660 16486 9828 66852 4808 5521 6501 64771 8083 66062 16222 3130 2495 3163 1989 1446 2487 8771 4953 1148 1839 846 1622 2819 2452 3034 9166 6051 4683 3392 2750 1610 3338 8323 4388 1184 1324 689 724 993 13472 55605 10484 1745 1253 624 1024 573 790 3805 1492 986 877 600 667 1615 1846
internal_count=173710 86778 86932 15272 22007 71660 16486 9828 66852 4808 5521 6501 64771 8083 66062 16222 3130 2495 3163 1989 1446 2487 8771 4953 1148 1839 846 1622 2819 2452 3034 9166 6051 4683 3392 2750 1610 3338 8323 4388 1184 1324 689 724 993 13472 55605 10484 1745 1253 624 1024 573 790 3805 1492 986 877 600 667 1615 1846
is_linear=0
shrinkage=1


Tree=1
num_leaves=63
num_cat=0
split_feature=0 0 0 5 10 10 10 3 10 0 10 10 3 10 0 14 10 10 0 10 10 10 5 28 11 0 28 10 10 28 0 10 10 12 10 0 5 10 0 10 12 7 12 28 0 3 10 19 10 0 10 28 10 0 10 0 5 2 10 10 10 10
split_gain=26521.8 1166.87 905.849 423.621 407.258 398.491 273.704 218.374 199.308 164.689 138.162 194.088 127.066 104.994 99.5763 88.8017 85.8347 90.863 80.8987 80.4872 113.085 74.4793 64.9705 63.03 60.1604 55.1953 52.0876 51.0336 47.8796 69.8284 45.8469 44.408 141.022 43.2306 45.342 42.5391 40.8605 37.2031 49.0264 35.9975 55.7095 34.9659 29.2402 26.3647 30.3929 26.1568 24.1341 36.7159 33.4361 23.9774 23.4223 23.2816 22.771 22.6193 30.5329 22.4321 22.81 21.3552 21.3466 21.1787 29.5775 20.9086
threshold=24.795000000000005 21.815000000000001 29.100600000000004 27.731666666666701 15.500000000000002 21.500000000000004 15.500000000000002 24.625000000000004 1.0000000180025095e-35 15.975000000000003 4.5000000000000009 12.500000000000002 25.545000000000005 12.500000000000002 18.975000000000005 29.425000000000001 6.5000000000000009 12.500000000000002 26.665000000000003 9.5000000000000018 1.0000000180025095e-35 1.0000000180025095e-35 32.943333333333314 0.2457127188544776 4.5000000000000009 26.115000000000006 0.12513334716390059 7.5000000000000009 11.500000000000002 0.32092563219771442 23.656800000000004 15.500000000000002 12.500000000000002 10.500000000000002 22.500000000000004 35.985000000000007 20.240333333333307 4.5000000000000009 41.145000000000003 22.500000000000004 9.5000000000000018 11.503582134704169 4.5000000000000009 0.22686860889168986 10.775 19.795000000000005 8.5000000000000018 8.1333333333333346 14.500000000000002 23.781800000000004 11.500000000000002 0.2157011947455888 6.5000000000000009 35.715000000000011 5.5000000000000009 26.115000000000006 33.918333333333322 25.615000000000006 22.500000000000004 18.500000000000004 15.500000000000002 14.500000000000002
decision_type=2 2 2 2 2 2 2 2 2 2 2 2 2 2 2 2 2 2 2 2 2 2 2 2 2 2 2 2 2 2 2 2 2 2 2 2 2 2 2 2 2 2 2 2 2 2 2 2 2 2 2 2 2 2 2 2 2 2 2 2 2 2
left_child=1 5 4 6 7 8 13 10 51 33 -2 18 31 19 -10 36 21 55 27 20 -3 -9 -6 39 28 -23 -8 -12 -21 -30 41 32 37 34 -7 45 -16 38 -4 40 -11 -28 -26 44 -36 -34 -5 -48 -49 -22 -29 -1 -51 54 -14 56 -18 -27 -25 60 -17 -13
right_child=2 3 12 46 22 9 26 16 14 23 11 61 53 -15 15 59 17 -19 -20 24 49 25 -24 58 42 57 30 50 29 -31 -32 -33 35 -35 43 -37 -38 -39 -40 -41 -42 -43 -44 -45 -46 -47 47 48 -50 52 -52 -53 -54 -55 -56 -57 -58 -59 -60 -61 -62 -63
leaf_value=-0.27415103435516353 -0.1027625250816346 0.3742375421524049 0.12199996948242192 -0.13326255559921271 0.238974928855896 -0.57475004076957714 -0.064525046348571813 0.66285003662109387 -0.51565002918243408 -0.080987513065338135 -0.025856540203094448 -0.18696256875991824 0.22920793533325201 -0.25252501010894779 -0.18680629372596746 -0.23150003910064695 0.097849941253662115 0.0071249246597290044 0.13074996948242196 0.065899977684020963 -0.10458753585815438 -0.052762525081634593 0.041124939918518066 -0.18723756074905396 0.041574997901916433 -0.019675073623657193 -0.0020250463485718129 0.056469917297363281 0.19062490940094001 -0.11037505149841316 0.11697491168975827 0.5922080421447754 -0.066600041389465403 0.0080749130249023089 -0.21374999999999994 0.27883742809295659 -0.21850002765655516 0.44297503948211664 0.77908748149871832 0.46449995994567872 0.2142749452590943 0.077574944496154791 -0.074312546253204298 -0.51917505979537959 0.098324985504150322 0.072707977294921913 -0.10915000438690187 -0.11767504215240479 0.038662428855896019 -0.12975004673004148 -0.023550019264221157 0.19161247730255121 0.0085329747200011859 1.1601249980926516 0.43170789718627933 0.17003192424774163 -0.013875079154968262 0.061749916076660229 -0.028137531280517616 -0.11955004215240486 -0.02405004978179939 -0.0083250427246094102
leaf_weight=123 1431 314 2139 3641 6044 1428 288 555 50486 418 850 1262 4109 1595 3348 412 878 758 1690 1231 1411 734 745 304 175 569 1353 704 229 347 1515 2683 690 367 341 1198 9827 4323 1912 549 370 1307 628 451 232 595 1601 158 300 314 241 667 282 36926 10196 2331 125 1285 348 733 1256 388
leaf_count=123 1431 314 2139 3641 6044 1428 288 555 50486 418 850 1262 4109 1595 3348 412 878 758 1690 1231 1411 734 745 304 175 569 1353 704 229 347 1515 2683 690 367 341 1198 9827 4323 1912 549 370 1307 628 451 232 595 1601 158 300 314 241 667 282 36926 10196 2331 125 1285 348 733 1256 388
internal_value=-8.98048e-05 -0.0192937 0.0197863 -0.0073866 0.0106508 -0.0220667 -0.00164938 0.00571879 -0.0230666 -0.00816348 -0.000883338 0.00294547 0.0226903 -0.00817499 -0.0233652 -0.0198703 0.0117104 0.0164834 0.00963415 -0.00456804 -0.0113421 0.00549634 0.0206768 0.00285319 0.00145594 0.00193199 0.00789267 0.00224234 0.00651633 -0.00538194 0.00931138 0.0183826 0.0169591 -0.0159365 -0.018332 0.00649416 -0.021482 0.0200621 0.0166194 0.00906881 0.00222081 0.00535714 -0.00993151 -0.0103027 -0.00318499 0.000175097 -0.0184474 -0.0141209 -0.00163755 -0.0157075 0.0102381 0.00189873 -0.00729866 0.0238288 0.0221409 0.020036 0.0137836 0.00652643 -0.00989264 -0.0110267 -0.00791367 -0.0111818
internal_weight=173710 88349 85361 16689 20590 71660 10989 13801 66852 4808 6566 5135 64771 6526 66062 15576 7235 4092 3485 4931 2321 3143 6789 1989 2610 2588 4463 1795 1807 576 4175 13540 10857 2819 2452 2483 13175 8374 4051 1337 788 2660 803 1024 573 1285 5700 2059 458 2007 945 790 596 51231 14305 3334 1003 1854 652 2401 1668 1650
internal_count=173710 88349 85361 16689 20590 71660 10989 13801 66852 4808 6566 5135 64771 6526 66062 15576 7235 4092 3485 4931 2321 3143 6789 1989 2610 2588 4463 1795 1807 576 4175 13540 10857 2819 2452 2483 13175 8374 4051 1337 788 2660 803 1024 573 1285 5700 2059 458 2007 945 790 596 51231 14305 3334 1003 1854 652 2401 1668 1650
is_linear=0
shrinkage=0.05


Tree=2
num_leaves=63
num_cat=0
split_feature=0 0 0 1 1 10 3 10 10 10 10 0 24 0 1 10 0 10 0 28 4 0 1 10 10 10 10 0 10 0 0 10 26 0 10 28 0 1 26 10 0 1 10 2 25 0 10 10 10 10 10 28 0 1 10 11 1 10 28 6 1 29
split_gain=25803 1030.65 1003.08 600.856 548.522 361.834 225.008 187.406 185.794 160.651 140.994 139.118 87.5069 83.9123 136.241 82.9451 97.4671 78.9177 66.7569 63.4612 60.3525 58.9424 72.618 58.3842 56.7817 52.5235 115.649 50.1139 47.3752 58.6359 46.9049 40.068 56.7432 38.6668 38.5943 96.2842 38.215 64.5136 32.606 43.8213 31.8558 29.8037 29.2538 28.9727 28.7933 28.0822 27.7415 41.0342 26.7799 39.9054 25.333 24.1149 25.4711 24.0883 23.0932 35.51 22.7178 22.4436 21.964 20.9459 19.3016 19.1226
threshold=24.535000000000004 27.525000000000002 21.345000000000002 22.705000000000002 31.525000000000002 21.500000000000004 27.215000000000003 15.500000000000002 1.0000000180025095e-35 12.500000000000002 15.500000000000002 15.415000000000001 2.5950000000000002 18.245000000000001 16.764400000000006 16.500000000000004 45.595000000000006 7.5000000000000009 22.315000000000001 0.2457127188544776 31.395000000000003 23.175000000000004 26.133200000000002 1.0000000180025095e-35 4.5000000000000009 11.500000000000002 15.500000000000002 33.305000000000007 11.500000000000002 22.825000000000003 30.005000000000006 22.500000000000004 0.57577024757160877 25.575000000000003 11.500000000000002 0.37307683524478469 33.970600000000012 40.005000000000003 0.53801168692972212 22.500000000000004 25.845000000000002 27.425000000000004 9.5000000000000018 30.175000000000004 1.1299635899990894 20.545000000000005 4.5000000000000009 12.500000000000002 2.5000000000000004 12.500000000000002 18.500000000000004 0.22686860889168986 10.775 21.090600000000006 8.5000000000000018 4.5000000000000009 19.865000000000006 22.500000000000004 0.2157011947455888 21.311249999999998 19.225000000000005 10.420833333333334
decision_type=2 2 2 2 2 2 2 2 2 2 2 2 2 2 2 2 2 2 2 2 2 2 2 2 2 2 2 2 2 2 2 2 2 2 2 2 2 2 2 2 2 2 2 2 2 2 2 2 2 2 2 2 2 2 2 2 2 2 2 2 2 2
left_child=2 4 5 10 7 8 12 9 58 17 20 38 15 -10 45 16 30 23 60 31 28 -5 54 -2 -6 -14 27 -27 29 53 46 32 -13 -25 -19 -36 37 -8 -7 -40 -26 -9 -31 -42 -39 -15 -3 -48 -32 -50 -20 52 -41 -4 -23 -56 61 -52 -1 -35 -12 -16
right_child=1 6 3 21 24 11 36 41 13 -11 18 19 25 14 56 -17 -18 34 50 -21 -22 22 -24 33 40 26 -28 -29 -30 42 48 -33 -34 59 35 -37 -38 44 39 51 43 -43 -44 -45 -46 -47 47 -49 49 -51 57 -53 -54 -55 55 -57 -58 -59 -60 -61 -62 -63
leaf_value=-0.27570351147651667 0.58613816714286815 -0.080436929821968137 -0.029575052976608163 -0.14719254612922672 -0.11362438356876386 -0.12232875633239751 0.35605641281604772 0.19752617478370668 -0.51736753726005547 -0.11659377932548516 0.024704355239868116 0.21181119608879087 0.33711878633499154 -0.12086756968498219 -0.1948675467967986 0.51884754467010497 0.78509561371803294 0.10342333447933197 0.12245119404792781 -0.14067816489934923 0.040415561914443912 -0.052620944142341669 -0.10208691513538355 -0.035531255006790198 -0.057417556047439616 0.044122517585754473 0.43401458072662358 0.33499725258350366 -0.16985626077651991 -0.069929133296012941 0.011112440109253009 0.39567127418518067 -0.093688139319419869 -0.08226250076293945 0.17757331395149231 -0.068872533559799193 1.0501187024116516 -0.074835459709167482 -0.5915125549435617 -0.20331250572204579 -0.080408828735351545 0.042418712377548219 0.092379925966262821 0.018473098874092032 0.11874756145477293 -0.019978611439466488 0.12321244812011721 -0.19067691981792462 0.17761866426467901 -0.020235487937927312 0.029101222276687544 -0.56423629009723653 0.088908728599548334 -0.097858124732971244 0.018104913949966318 -0.033756286382675249 -0.24257506442069998 0.44282112479209901 0.15903180384635915 0.046124473571777361 -0.064075079679489028 -0.074572505712509243
leaf_weight=116 429 560 478 5468 1311 470 11064 4162 46513 1197 834 342 7221 2667 2968 1334 1435 2567 986 640 1114 493 2823 633 1158 1538 2749 1850 1213 220 740 549 468 219 494 307 38585 132 1273 322 259 453 394 1185 1841 608 379 246 1510 471 1342 388 201 497 787 547 10110 296 641 749 578 586
leaf_count=116 429 560 478 5468 1311 470 11064 4162 46513 1197 834 342 7221 2667 2968 1334 1435 2567 986 640 1114 493 2823 633 1158 1538 2749 1850 1213 220 740 549 468 219 494 307 38585 132 1273 322 259 453 394 1185 1841 608 379 246 1510 471 1342 388 201 497 787 547 10110 296 641 749 578 586
internal_value=-0.000157734 0.0191298 -0.0194111 -0.0089264 0.00726873 -0.0221624 0.0216332 0.0128947 -0.0231381 0.00748673 0.00135815 -0.00869869 0.0171355 -0.0234319 -0.0204189 0.0124607 0.00967515 0.0111615 0.00791625 0.00126313 -0.00540092 -0.0170093 -0.012871 0.00337438 -0.00884871 0.0194715 0.0160706 0.00988784 -0.00931478 -0.00363436 0.00558116 0.00737675 0.000308642 -0.00101499 0.0158551 0.00627341 0.0233786 0.0210382 -0.016202 -0.0187729 -0.00457341 0.020623 0.00846906 0.000380886 0.0127091 -0.0112595 -0.00272152 0.00452 0.00919699 0.0122287 0.0126334 -0.0104007 -0.00339388 -0.0112564 -0.005104 -0.00168666 -0.0226142 0.00882173 0.00148613 0.0052686 -0.000849858 -0.0191756
internal_weight=173710 86778 86932 18070 15123 68862 71655 11210 64209 6595 7952 4653 20033 63452 16939 6675 5341 5398 4036 1999 3916 10118 4650 2030 3913 13358 6137 3388 2802 1589 3906 1359 810 1601 3368 801 51622 13037 2654 2184 2602 4615 614 1444 1973 3275 1185 625 2721 1981 2624 911 523 975 1827 1334 13664 1638 757 968 1412 3554
internal_count=173710 86778 86932 18070 15123 68862 71655 11210 64209 6595 7952 4653 20033 63452 16939 6675 5341 5398 4036 1999 3916 10118 4650 2030 3913 13358 6137 3388 2802 1589 3906 1359 810 1601 3368 801 51622 13037 2654 2184 2602 4615 614 1444 1973 3275 1185 625 2721 1981 2624 911 523 975 1827 1334 13664 1638 757 968 1412 3554
is_linear=0
shrinkage=0.05


Tree=3
num_leaves=63
num_cat=0
split_feature=0 0 0 1 1 10 10 10 10 3 0 10 0 10 0 1 0 1 12 10 0 10 10 10 24 0 4 10 10 0 10 15 0 0 10 10 10 12 6 10 0 12 10 10 10 0 10 10 10 10 3 12 10 25 10 0 10 2 10 11 21 10
split_gain=25072 1168.03 881.531 621.373 539.808 342.837 192.544 194.158 176.059 140.617 131.704 128.392 112.499 108.677 105.042 104.909 88.206 135.502 71.0626 90.1955 67.2331 61.5191 59.0239 154.996 76.6416 57.8978 57.8857 51.3702 47.3656 43.6718 47.8126 40.9855 40.6692 40.1994 38.7067 38.0788 37.047 30.642 30.2888 34.5767 29.863 27.9 27.7348 48.1133 26.2153 25.5588 31.0502 38.1992 29.1249 24.7155 24.7153 24.0689 32.7291 22.2966 41.5378 21.8406 21.7457 22.066 26.0441 25.1217 20.8264 19.9416
threshold=24.795000000000005 21.215000000000003 29.485000000000003 21.945000000000004 32.845000000000006 21.500000000000004 15.500000000000002 12.500000000000002 1.0000000180025095e-35 28.120800000000006 14.545000000000002 15.500000000000002 23.656800000000004 7.5000000000000009 27.085000000000004 26.133200000000002 17.625000000000004 17.645000000000003 9.5000000000000018 22.500000000000004 22.825000000000003 4.5000000000000009 15.500000000000002 12.500000000000002 2.5150000000000001 25.845000000000002 31.395000000000003 11.500000000000002 11.500000000000002 45.595000000000006 4.5000000000000009 3.7500000000000004 37.465000000000011 22.825000000000003 11.500000000000002 4.5000000000000009 20.500000000000004 4.5000000000000009 25.486458333333335 1.0000000180025095e-35 20.545000000000005 8.5000000000000018 21.500000000000004 17.500000000000004 14.500000000000002 39.375000000000007 16.500000000000004 12.500000000000002 5.5000000000000009 1.0000000180025095e-35 24.235000000000003 9.5000000000000018 22.500000000000004 1.1299635899990894 1.5000000000000002 25.985000000000003 8.5000000000000018 25.485000000000003 20.500000000000004 4.5000000000000009 3.8249999999999997 7.5000000000000009
decision_type=2 2 2 2 2 2 2 2 2 2 2 2 2 2 2 2 2 2 2 2 2 2 2 2 2 2 2 2 2 2 2 2 2 2 2 2 2 2 2 2 2 2 2 2 2 2 2 2 2 2 2 2 2 2 2 2 2 2 2 2 2 2
left_child=1 5 4 11 6 8 7 13 -1 22 51 26 36 25 35 56 -10 40 19 -12 42 -16 23 24 29 49 28 55 33 30 -4 -29 -25 -3 -23 -6 -5 -21 39 -27 -18 -33 43 -13 50 46 47 48 53 -2 -9 52 -7 54 -11 -15 -14 58 -58 -59 -30 -35
right_child=2 3 9 12 14 10 -8 44 16 45 18 20 15 27 21 -17 17 -19 -20 37 -22 34 -24 32 -26 38 -28 31 60 -31 -32 41 -34 61 -36 -37 -38 -39 -40 -41 -42 -43 -44 -45 -46 -47 -48 -49 -50 -51 -52 -53 -54 -55 -56 -57 57 59 -60 -61 -62 -63
leaf_value=0.034817725288867861 0.3454005119919778 -0.049965283346176115 0.045643982481956696 -0.12962727600336077 -0.11302037165761014 -0.5989369157522918 0.21761684324145314 -0.16005973094701781 -0.51699917184114441 1.2389446568906308 -0.16484173250496392 0.070717268514633072 -0.028989893120527379 0.070786269837617863 -0.037230824932456046 -0.078982538861036219 -0.13099915848970395 -0.2324462616086006 0.20122063628435127 0.2824913639068603 0.10567110880613324 0.086135095423460054 0.56569549951553344 0.018480111402273104 0.40597020323276517 0.60940456156134604 0.05228885205984133 0.19530379699468609 -0.11395602400302884 0.79634074910879138 0.30616556591987598 -0.038498912537098029 0.32185823850035683 -0.092861729103326782 -0.0019299017488956238 -0.03085492005944257 -0.026452762889862137 -0.10294679224789149 0.087326918202638562 -0.014267106628417993 -0.033410816730558859 0.10473263944685458 0.12614245203733451 -0.029921382343769135 0.072735913455486315 1.2686126757383347 0.54173669103980071 0.18827719769477849 0.3801128435850144 -0.027754745662212345 0.0094483906626701142 -0.1498961152195932 -0.27503673453330996 0.24615866620540619 -0.080887217450141879 0.17518301599919789 -0.044777846503257827 0.053637084329128198 0.081004195106029464 -0.013696618831157715 -0.17686351640224471 0.094010977351665484
leaf_weight=751 107 834 1703 7797 994 1141 6696 977 43216 327 850 469 421 1093 1000 2473 4434 14453 598 552 2085 1160 3440 1591 7203 337 1064 639 675 1347 815 391 1387 151 695 1666 426 234 1226 767 665 124 422 1149 240 28978 6145 1089 4423 716 513 397 847 4737 181 2654 462 510 186 217 507 363
leaf_count=751 107 834 1703 7797 994 1141 6696 977 43216 327 850 469 421 1093 1000 2473 4434 14453 598 552 2085 1160 3440 1591 7203 337 1064 639 675 1347 815 391 1387 151 695 1666 426 234 1226 767 665 124 422 1149 240 28978 6145 1089 4423 716 513 397 847 4737 181 2654 462 510 186 217 507 363
internal_value=-0.000274596 -0.0189462 0.0190506 -0.00839023 0.0104262 -0.0220773 0.0149575 0.0104865 -0.0230337 0.0220442 -0.00892509 0.00276266 -0.0152818 0.0137509 -0.00311423 -0.00869642 -0.0233216 -0.020535 -0.000201432 -0.00559291 0.00878182 0.00354641 0.0182289 0.0167913 0.0195157 0.00650967 -0.0041458 0.0184095 -0.00826087 0.0138357 0.00994837 0.00918544 0.00666555 -0.0018546 0.00893531 -0.0102632 -0.0187006 0.00661578 0.0105365 0.00452899 -0.0135272 -0.00131068 0.00232843 -0.000648949 -0.00471098 0.0234983 0.021953 0.0203333 0.0213333 -0.00489064 -0.00718121 -0.0170964 -0.019341 0.0188132 0.00885827 0.0212503 0.000501114 0.00354545 -0.00316358 0.00952545 -0.0155668 0.00914397
internal_weight=173710 88349 85361 20211 21995 68138 16480 9784 63519 63366 4619 7719 12492 8054 5515 4269 62768 19552 2234 1636 4125 2855 17486 14046 11068 3153 3594 4901 2530 3865 2518 1154 2978 1348 1855 2660 8223 786 2330 1104 5099 515 2040 1618 1730 45880 16902 10757 9668 823 1490 2385 1988 5245 508 3747 1796 1375 648 727 1182 514
internal_count=173710 88349 85361 20211 21995 68138 16480 9784 63519 63366 4619 7719 12492 8054 5515 4269 62768 19552 2234 1636 4125 2855 17486 14046 11068 3153 3594 4901 2530 3865 2518 1154 2978 1348 1855 2660 8223 786 2330 1104 5099 515 2040 1618 1730 45880 16902 10757 9668 823 1490 2385 1988 5245 508 3747 1796 1375 648 727 1182 514
is_linear=0
shrinkage=0.05


Tree=4
num_leaves=63
num_cat=0
split_feature=0 0 0 1 1 10 10 10 10 3 0 10 0 1 10 0 1 0 0 10 10 24 10 0 4 10 12 10 10 0 10 12 10 0 10 0 10 15 10 26 6 10 0 11 0 10 23 0 0 10 10 24 10 10 29 10 10 0 1 0 3 26
split_gain=24420.6 1158.43 875.454 577.627 509.63 343.173 186.3 187.295 173.478 153.6 129.158 118.745 108.722 118.525 105.732 101.15 147.198 97.1005 65.0629 62.1063 148.454 75.3693 58.7794 55.7166 54.7578 48.4842 47.6409 64.2553 47.0021 41.5332 42.7751 39.8184 49.009 39.6589 38.1428 37.1482 36.286 35.0866 34.2715 33.0616 30.9936 29.9693 28.5123 27.8244 27.0718 26.0222 25.7662 25.7573 25.3791 36.8295 39.7188 33.8035 25.7164 36.4774 25.1197 24.292 40.4175 23.6555 23.3901 31.7416 21.9517 21.8825
threshold=24.795000000000005 21.215000000000003 29.485000000000003 21.945000000000004 32.845000000000006 21.500000000000004 15.500000000000002 12.500000000000002 1.0000000180025095e-35 28.120800000000006 15.975000000000003 15.500000000000002 23.295000000000005 26.133200000000002 7.5000000000000009 17.495000000000005 17.135000000000002 27.085000000000004 22.931000000000004 15.500000000000002 12.500000000000002 2.5950000000000002 4.5000000000000009 26.665000000000003 31.395000000000003 11.500000000000002 9.5000000000000018 22.500000000000004 11.500000000000002 54.245000000000012 4.5000000000000009 9.5000000000000018 22.500000000000004 22.825000000000003 1.0000000180025095e-35 37.465000000000011 11.500000000000002 2.0499999999999994 4.5000000000000009 0.40109045526325643 25.02041666666668 8.5000000000000018 19.725000000000005 4.5000000000000009 26.115000000000006 21.500000000000004 23.731250000000006 5.8050000000000006 41.907800000000002 16.500000000000004 12.500000000000002 2.6750000000000003 1.0000000180025095e-35 5.5000000000000009 5.3174999999999999 21.500000000000004 17.500000000000004 7.705000000000001 19.865000000000006 19.969600000000003 21.895000000000003 1.2498916745685695
decision_type=2 2 2 2 2 2 2 2 2 2 2 2 2 2 2 2 2 2 2 2 2 2 2 2 2 2 2 2 2 2 2 2 2 2 2 2 2 2 2 2 2 2 2 2 2 2 2 2 2 2 2 2 2 2 2 2 2 2 2 2 2 2
left_child=1 5 4 11 6 8 7 14 61 19 31 24 45 41 23 -10 42 38 55 20 21 29 -19 34 28 44 27 -12 33 30 -4 32 -7 -3 -2 -22 -24 -27 -6 -39 -25 -14 -17 60 -16 -5 -29 -34 49 50 51 52 -11 -54 -9 56 -13 -33 59 -18 -43 -1
right_child=2 3 9 12 17 10 -8 54 15 48 26 18 13 -15 25 16 58 22 -20 -21 35 -23 36 40 -26 37 -28 46 -30 -31 -32 57 47 -35 -36 -37 -38 39 -40 -41 -42 43 -44 -45 -46 -47 -48 -49 -50 -51 -52 -53 53 -55 -56 -57 -58 -59 -60 -61 -62 -63
leaf_value=-0.16612117432892318 0.51793035257846132 -0.047467019178867358 0.061770111914873208 -0.12873407331407058 -0.10736935307472972 -0.50899007950142039 0.20673600107938039 -0.12923654040992255 -0.4961491846388576 1.1170952549600599 -0.13401167243108159 0.068875320491790501 -0.036762238040566511 -0.081533465323746057 0.070315980431735522 -0.14170157899916164 -0.21364920371234392 -0.035369283685833162 0.10383758941471566 0.53741072453975669 0.017556105832159476 0.3878142113530636 0.081828340652286974 0.049572674239575946 0.049674409456849228 0.2281085822826624 0.19915959684073919 0.31836689107894894 -0.15066572283148788 1.1265237879472971 0.3220245228791237 -0.26873793877035379 -0.76314510092973709 0.069310447557568544 -0.018717755273878468 0.30576532657533895 -0.0018334066614508872 0.096005307275652818 -0.029312174056470398 -0.036718933989405754 0.10864191977590335 -0.015179137614965477 -0.053878027056083161 -0.021308581957221052 0.17056411206439126 -0.00050761383533490798 -0.085299452635496931 -0.073903189798891503 1.3461822174274922 0.55773296157509089 0.19108864226758496 0.34331411580085763 0.080594231959581292 0.42202794963955892 0.015155763325095073 0.11983532943546776 -0.024937181232571694 0.13355915222167961 -0.23511651482760901 -0.085259304572939787 0.043454470123648649 0.23707683520972722
leaf_weight=390 237 834 2125 6757 994 1337 6696 928 42580 634 654 495 569 3177 1225 3286 2822 1000 1960 3440 1591 7118 1160 764 1064 518 501 457 1182 909 916 188 290 514 1189 1387 695 207 1666 429 963 363 1433 677 2522 174 188 698 25555 7237 1328 9569 1125 432 802 444 1226 306 11448 1199 775 361
leaf_count=390 237 834 2125 6757 994 1337 6696 928 42580 634 654 495 569 3177 1225 3286 2822 1000 1960 3440 1591 7118 1160 764 1064 518 501 457 1182 909 916 188 290 514 1189 1387 695 207 1666 429 963 363 1433 677 2522 174 188 698 25555 7237 1328 9569 1125 432 802 444 1226 306 11448 1199 775 361
internal_value=-0.000354038 -0.0187815 0.0187184 -0.00826901 0.0101239 -0.0218997 0.0145267 0.0101288 -0.0228565 0.0217017 -0.00874107 0.00248413 -0.0149135 -0.00970599 0.013335 -0.0231424 -0.0202274 -0.00303264 0.00827273 0.0177142 0.0162395 0.0189059 0.00337128 0.00619252 -0.00415971 0.01793 0.00172222 -0.00332948 -0.00816206 0.0133671 0.010564 -0.0154221 -0.0181613 -0.00178042 -0.00112202 0.00632975 0.00863881 0.0089688 -0.00990602 0.00110063 0.0122322 -0.00127936 -0.0124974 0.0018595 0.0206899 -0.0190918 0.00786822 -0.0097166 0.0232214 0.0219028 0.0203201 0.0212457 0.0156435 0.0121869 -0.00479769 0.00229792 -0.000392214 -0.00253036 -0.0225855 -0.0193049 0.00663445 0.00103196
internal_weight=173710 88349 85361 20211 21995 68138 16480 9784 63519 63366 4619 7719 12492 5561 8054 62768 20188 5515 4125 17486 14046 11068 2855 3153 3594 4901 1800 1299 2530 3950 3041 2819 2325 1348 1426 2978 1855 1154 2660 636 1727 2384 4719 1815 3747 6931 645 988 45880 20325 13088 11760 2191 1557 1730 2165 1721 494 15469 4021 1138 751
internal_count=173710 88349 85361 20211 21995 68138 16480 9784 63519 63366 4619 7719 12492 5561 8054 62768 20188 5515 4125 17486 14046 11068 2855 3153 3594 4901 1800 1299 2530 3950 3041 2819 2325 1348 1426 2978 1855 1154 2660 636 1727 2384 4719 1815 3747 6931 645 988 45880 20325 13088 11760 2191 1557 1730 2165 1721 494 15469 4021 1138 751
is_linear=0
shrinkage=0.05


Tree=5
num_leaves=63
num_cat=1
split_feature=0 0 0 10 10 10 3 3 28 10 10 10 10 10 10 24 10 10 10 5 0 0 5 5 10 10 0 0 33 0 3 10 0 0 28 10 29 10 14 0 19 10 26 0 10 0 11 11 10 28 25 24 23 3 0 0 10 26 10 26 10 28
split_gain=23691.6 995.171 985.022 387.202 345.741 297.899 227.888 169.389 154.978 136.272 134.564 139.55 183.432 122.194 208.699 113.851 96.3709 121.924 98.624 92.7068 90.4277 82.9541 83.2947 68.4948 66.7487 68.29 65.7575 65.0368 64.177 60.5098 60.3989 57.8473 57.2704 53.1195 45.1105 44.7694 43.8747 43.0194 53.4511 41.6114 40.8112 39.4264 36.2228 36.0573 47.9635 33.383 33.3492 32.8014 31.0872 38.4072 29.9755 27.6994 26.2301 25.7083 24.1047 23.8201 22.9469 52.3835 22.93 22.8198 22.6923 38.241
threshold=24.535000000000004 28.315000000000001 20.422200000000007 15.500000000000002 15.500000000000002 22.500000000000004 32.065000000000005 26.345000000000002 0.14352983054108062 1.0000000180025095e-35 1.0000000180025095e-35 9.5000000000000018 11.500000000000002 15.500000000000002 12.500000000000002 2.8150000000000004 4.5000000000000009 11.500000000000002 8.5000000000000018 29.539999999999996 22.315000000000001 16.625000000000004 18.341666666666651 29.871666666666613 7.5000000000000009 12.500000000000002 23.295000000000005 11.925000000000002 0 26.665000000000003 25.005000000000006 1.0000000180025095e-35 54.245000000000012 37.465000000000011 0.27835267488456356 21.500000000000004 8.7016666666666698 18.500000000000004 27.950000000000003 25.705000000000002 1.7374999999999992 4.5000000000000009 0.32386144383818227 37.165000000000006 5.5000000000000009 23.656800000000004 4.5000000000000009 4.5000000000000009 21.500000000000004 0.2239796432118237 0.96007181261843744 3.3950000000000005 22.560416666666672 19.795000000000005 25.985000000000003 29.485000000000003 21.500000000000004 0.45785779274136729 19.500000000000004 0.31764768965131368 12.500000000000002 0.33076008896820031
decision_type=2 2 2 2 2 2 2 2 2 2 2 2 2 2 2 2 2 2 2 2 2 2 2 2 2 2 2 2 1 2 2 2 2 2 2 2 2 2 2 2 2 2 2 2 2 2 2 2 2 2 2 2 2 2 2 2 2 2 2 2 2 2
left_child=2 4 5 10 7 9 13 16 42 -1 -4 45 20 14 15 28 51 18 29 -6 46 56 48 26 31 -26 35 -7 -3 -18 -14 -9 41 53 -29 37 60 38 -10 -33 58 55 -5 44 -17 -12 -13 -22 -23 -50 -8 -2 -37 -16 -19 -30 -11 -58 -21 -55 61 -32
right_child=1 6 3 8 19 27 50 24 23 21 11 12 30 -15 33 43 17 54 -20 40 47 22 -24 -25 25 -27 -28 34 32 -31 36 39 -34 -35 -36 52 -38 -39 -40 -41 -42 -43 -44 -45 -46 -47 -48 -49 49 -51 -52 -53 -54 59 -56 -57 57 -59 -60 -61 -62 -63
leaf_value=-0.031776976033181019 -0.099392385543391276 0.28881072454202189 0.3554855161466895 0.0051183123378455882 0.1784322123843877 -0.32871887077333772 1.1638729539682269 0.57779664359453331 -0.060831070114523204 -0.50784175020244704 -0.13602819032803168 -0.012194005592256653 -0.21195302682787187 0.43313935332487524 -0.06642403015239555 0.10561936880069976 -0.016199810960456775 -0.12802083607415859 0.1176277800173275 -0.034520889479920318 0.066344936623781867 -0.17086410635647165 -0.2268050222871601 -0.10069242500770095 0.1180718010935113 -0.0032415515562519205 0.07772308143693199 0.21544846260166164 -0.071062088999412867 0.052958356073066606 0.092608916423231241 -0.043423731559470373 0.69087299974459404 0.30197703735838832 -0.16603442278326314 0.21197957147666796 0.078432309524625599 -0.05195861081311115 0.039947577116593719 0.025708028209433034 0.11600578822080775 0.14740616343501209 -0.11191488950386647 0.71355049181896468 0.23728108168560258 -0.058956750095888924 -0.10006810752800099 -0.01069633018150924 0.1192016360721885 -0.16689911757127193 0.7878729310800433 0.064725481798842563 0.0033375998329967516 -0.065743420864239441 -0.034238524297505624 0.032458424450934054 -0.099451304126381868 -0.43254055263816582 0.038000364013358913 0.10466073474310332 -0.15768582784849397 -0.11147522865095745
leaf_weight=697 1379 2828 398 245 5036 696 2176 458 561 37831 6453 801 3222 6083 950 2421 1512 1003 1198 515 993 5883 14700 601 2113 548 1753 801 288 877 241 579 735 1786 232 557 177 1311 1308 1382 469 602 1175 4732 3812 1751 489 380 268 212 38399 123 434 316 1242 2087 413 1455 117 1049 474 209
leaf_count=697 1379 2828 398 245 5036 696 2176 458 561 37831 6453 801 3222 6083 950 2421 1512 1003 1198 515 993 5883 14700 601 2113 548 1753 801 288 877 241 579 735 1786 232 557 177 1311 1308 1382 469 602 1175 4732 3812 1751 489 380 268 212 38399 123 434 316 1242 2087 413 1455 117 1049 474 209
internal_value=-0.000423543 0.0180409 -0.018908 -0.0101761 0.00777182 -0.0221601 0.0208316 0.00297245 -0.00119257 -0.0227359 -0.0147549 -0.0155069 -0.0103135 0.0173345 0.0155721 0.0179506 -0.00188846 0.00102023 0.00673962 0.01748 9.38791e-06 -0.0229881 -0.0204517 0.00206513 0.00999016 0.0154547 0.00369683 -0.00169173 0.0127294 0.000868564 -0.0166724 0.00397892 0.00832886 0.00541941 0.00626815 0.000281707 -0.00656222 -0.00261006 0.00226057 0.000242223 0.00433697 0.00526537 -0.016162 0.0210648 0.0185665 -0.0199293 -0.00949612 0.00894028 -0.0156726 -0.0034375 0.0232181 -0.0131824 0.00956105 0.000421166 -0.00811804 0.00236842 -0.0243337 -0.018924 -0.0039557 0.00481685 -0.0109307 -0.00288889
internal_weight=173536 86815 86721 23533 18551 63188 68264 12414 7945 61459 15588 15190 6986 27689 21606 17505 7334 5832 3587 6137 2663 60762 21063 6525 5080 2661 5924 1729 6540 2389 4323 2419 3712 4101 1033 4171 1101 3180 1869 1961 1101 2977 1420 10965 6233 8204 1290 1373 6363 480 40575 1502 991 2315 2245 2375 39699 1868 632 1365 924 450
internal_count=173536 86815 86721 23533 18551 63188 68264 12414 7945 61459 15588 15190 6986 27689 21606 17505 7334 5832 3587 6137 2663 60762 21063 6525 5080 2661 5924 1729 6540 2389 4323 2419 3712 4101 1033 4171 1101 3180 1869 1961 1101 2977 1420 10965 6233 8204 1290 1373 6363 480 40575 1502 991 2315 2245 2375 39699 1868 632 1365 924 450
cat_boundaries=0 1
cat_threshold=2055
is_linear=0
shrinkage=0.05


Tree=6
num_leaves=63
num_cat=1
split_feature=3 27 27 5 24 5 4 4 9 27 3 27 3 6 10 27 8 24 27 9 8 10 9 10 29 6 8 6 9 10 9 5 9 8 25 27 27 6 9 14 9 3 5 29 25 8 24 4 6 9 6 5 6 33 9 9 5 10 8 27 21 10
split_gain=12094.3 3022.88 2515.26 539.814 535.915 468.457 400.496 369.598 344.695 270.819 184.795 164.012 160.349 140.454 135.829 126.446 107.423 103.623 109.108 103.373 102.442 96.8007 101.579 95.8376 93.6473 92.0987 81.06 74.3235 74.185 68.7089 68.1027 67.9343 65.119 61.9408 59.7489 59.3026 57.9657 55.9231 57.1309 54.6315 50.1018 49.7664 49.5279 48.8617 59.923 47.2826 47.1038 46.1139 43.4532 48.9482 42.3256 41.7806 40.7057 35.4559 35.0314 31.907 30.8247 30.501 29.5681 29.1786 33.0561 29.1139
threshold=24.745000000000001 0.47604959327425078 0.50116666454926084 16.788333333333178 2.6300000000000003 18.704999999999945 23.471800000000002 26.045000000000005 10.398125000000009 0.536388675330422 34.615000000000002 0.56243287390089847 30.655000000000005 24.902291666666667 16.500000000000004 0.43534322315576773 30.50973214285715 2.5950000000000002 0.51175564567482856 -1.179583333333333 24.504851190476195 5.5000000000000009 8.275208333333314 22.500000000000004 4.0370833333333342 26.650641666666669 24.40604166666667 18.732916666666664 1.5291666666666741 6.5000000000000009 0.98140833333333621 13.910000000000009 -6.4029166666666564 25.700605952380958 0.9852573133254241 0.55854018805722561 0.60577168026252881 29.080383333333355 -7.1797916666666799 29.750000000000004 3.5860416666666706 22.145000000000003 29.208333333333361 7.8608333333333347 3.5884262336711559 29.465059523809526 2.5950000000000002 24.345000000000002 31.536483333333333 -11.237916666666685 18.570208333333337 28.168333333333329 20.944791666666688 0 33.588124999999998 -6.5175000000000116 16.06833333333331 6.5000000000000009 22.675730952380956 0.50730937507606744 10.216666666666667 14.500000000000002
decision_type=2 2 2 2 2 2 2 2 2 2 2 2 2 2 2 2 2 2 2 2 2 2 2 2 2 2 2 2 2 2 2 2 2 2 2 2 2 2 2 2 2 2 2 2 2 2 2 2 2 2 2 2 2 1 2 2 2 2 2 2 2 2
left_child=1 4 5 23 8 30 17 11 14 13 21 16 35 28 26 51 55 59 33 37 -17 22 25 32 48 -7 -1 -10 -8 -18 56 -16 -4 -19 47 45 -26 -15 -39 -37 -33 -11 -20 44 -13 -9 54 -12 -14 -50 -34 -6 -30 -28 -24 -5 -2 -47 -25 60 -3 -31
right_child=2 6 3 7 15 10 9 12 27 41 34 43 24 19 31 20 29 18 42 -21 -22 -23 46 58 36 -27 53 -29 52 61 -32 40 50 -35 -36 39 -38 38 -40 -41 -42 -43 -44 -45 -46 57 -48 -49 49 -51 -52 -53 -54 -55 -56 -57 -58 -59 -60 -61 -62 -63
leaf_value=-0.23379852390378844 -0.16871960214037909 -0.27048343573458489 -0.4259496569702787 -0.13268763503647882 0.16482650491967255 -0.053686545258837093 -0.20114071213330914 -0.037526115552658723 0.062989284673608023 -0.28094967604376503 0.16694002698260935 -0.18129997586459068 -0.034382260378898626 -0.078604124655599961 -0.21814596045255802 -0.045476899525800363 -0.065816019600824574 -0.16611262379770189 -0.284501462848465 0.16308451387658193 0.1170601523506071 0.2992360887479098 0.084698279174646632 -0.21608389729325372 0.27545270508930692 0.085775516588991879 0.080085566443508865 0.54118285921842468 -0.13372793270758834 0.042668241556413911 0.23337114819282656 -0.0036150869491191175 -0.26394966841437045 -0.020730616617661648 0.89524564573571697 -0.11283878720953898 0.0020874683642321478 -0.038907795206390365 0.072510670429719148 0.075593339749492394 0.16451067805911368 -0.10572786404303756 -0.13776676286145301 -0.019754316117310468 0.053427944263578199 -0.017198304439368074 0.50519547515364582 1.3766794054519444 0.0076818893486989559 0.27775474819802354 0.016354066250322853 0.50341690553101004 0.060759540613344147 -0.080008889702910937 1.0810476154283049 -0.00787656809086279 0.045934061564885914 0.093536610527761618 0.15590905144043177 -0.42094963789679235 -0.093320943000317957 0.11512275350585784
leaf_weight=4674 1402 5430 3476 1079 1172 897 2650 668 1707 8810 713 2146 868 1307 336 1251 682 1267 11775 785 2566 11979 1165 234 5703 2946 649 1649 1503 1999 1955 910 730 1718 30711 1142 476 1602 781 332 678 2141 2384 1062 320 496 2481 1452 646 767 751 3981 509 2261 461 986 857 1921 660 22815 652 1410
leaf_count=4674 1402 5430 3476 1079 1172 897 2650 668 1707 8810 713 2146 868 1307 336 1251 682 1267 11775 785 2566 11979 1165 234 5703 2946 649 1649 1503 1999 1955 910 730 1718 30711 1142 476 1602 781 332 678 2141 2384 1062 320 496 2481 1452 646 767 751 3981 509 2261 461 986 857 1921 660 22815 652 1410
internal_value=-0.000558386 -0.0135776 0.0128244 0.000710934 0.00255336 0.0188906 -0.0189036 0.00420099 -0.00398787 -0.0130127 0.0201709 -0.00319599 0.00970313 -0.006657 -0.00885044 0.0119342 0.00173002 -0.0214738 -0.0183942 -0.000329609 0.00503668 0.0163719 0.0120943 -0.0128311 0.0137766 0.00625163 -0.0118605 0.00978844 -0.0127306 0.00642264 0.00284765 0.00301455 -0.0155487 -0.00970687 0.0224738 0.00214411 0.0169728 -0.00383469 0.000723877 -0.00610583 0.00733627 -0.0183157 -0.0202257 -0.0117914 -0.0156529 0.0060859 0.0175615 0.0144457 0.00511837 0.0105272 -0.00676907 0.0170435 -0.00549205 -0.00530928 0.0109471 -0.00756659 -0.00306552 0.00934009 0.00223714 -0.0233009 -0.0202236 0.00932092
internal_weight=173536 87963 85573 28554 21834 57019 66129 22703 12864 20088 52805 9684 13019 9137 9508 8970 6156 46041 17144 4475 3817 19929 7950 5851 8460 3843 7584 3356 4662 4091 4214 1924 4957 2985 32876 4559 6179 3690 2383 1474 1588 10951 14159 3528 2466 3085 4107 2165 2281 1413 1481 5153 2012 2910 1626 2065 2259 2417 894 28897 6082 3409
internal_count=173536 87963 85573 28554 21834 57019 66129 22703 12864 20088 52805 9684 13019 9137 9508 8970 6156 46041 17144 4475 3817 19929 7950 5851 8460 3843 7584 3356 4662 4091 4214 1924 4957 2985 32876 4559 6179 3690 2383 1474 1588 10951 14159 3528 2466 3085 4107 2165 2281 1413 1481 5153 2012 2910 1626 2065 2259 2417 894 28897 6082 3409
cat_boundaries=0 1
cat_threshold=2055
is_linear=0
shrinkage=0.05


Tree=7
num_leaves=63
num_cat=1
split_feature=0 0 0 1 1 0 3 3 0 0 1 1 0 3 29 4 24 0 1 3 0 1 1 1 2 29 2 28 0 29 0 33 1 14 24 0 1 28 29 29 2 1 0 23 28 3 26 0 0 14 2 3 4 20 29 0 22 4 0 11 9 0
split_gain=22108.4 1205.76 814.257 553.741 541.176 234.347 151.944 150.304 114.044 112.383 107.281 95.6752 81.8486 72.2939 65.8154 65.602 59.4536 55.8843 116.98 52.1432 51.6696 92.6982 48.8056 44.0098 41.3005 57.5009 40.533 37.7745 37.5681 36.8642 34.7742 34.5267 33.3723 33.3221 30.644 30.028 60.0877 27.1739 26.2922 25.9565 33.9948 25.3583 33.1152 24.6217 25.7054 24.4164 24.3544 23.7285 23.684 22.9692 22.0014 21.8644 21.8267 20.5705 20.3999 19.3456 22.4936 18.7451 17.7611 17.7243 17.5134 17.0672
threshold=24.145000000000003 30.157400000000006 20.055000000000003 32.605000000000011 20.545000000000005 25.985000000000003 25.675000000000004 33.235000000000007 27.085000000000004 22.931000000000004 26.415000000000003 25.995000000000001 21.945000000000004 25.930800000000001 7.8608333333333347 55.925000000000004 2.8150000000000004 16.375000000000004 15.985000000000001 26.765000000000004 14.545000000000002 16.885000000000002 43.535000000000004 16.764400000000006 24.965000000000003 6.6941666666666677 33.32500000000001 0.31399207251234923 38.085000000000008 7.4183333333333339 54.245000000000012 0 43.535000000000004 26.912500000000005 2.5250000000000004 46.175000000000004 62.815000000000005 0.37617186116488693 6.0587500000000007 8.5066666666666677 23.071400000000004 23.795000000000005 21.945000000000004 17.764583333333338 0.20998307066968458 24.745000000000001 0.20719189021210208 25.435000000000006 37.465000000000011 25.650000000000002 23.455000000000002 23.745000000000001 40.505000000000003 1.2500000000000002 7.2775000000000007 9.4750000000000032 4.2500000000000018 24.345000000000002 53.415000000000006 4.5000000000000009 -8.7052083333333332 25.575000000000003
decision_type=2 2 2 2 2 2 2 2 2 2 2 2 2 2 2 2 2 2 2 2 2 2 2 2 2 2 2 2 2 2 2 1 2 2 2 2 2 2 2 2 2 2 2 2 2 2 2 2 2 2 2 2 2 2 2 2 2 2 2 2 2 2
left_child=2 3 6 5 12 10 17 16 34 41 14 -11 23 24 19 20 27 -1 52 -2 -8 43 26 45 25 -7 -10 33 32 51 31 -29 -18 46 -5 36 39 -16 50 40 57 42 -6 44 -22 54 -3 -12 -38 61 -15 -14 -19 -27 -4 -17 -57 -9 -48 -44 -49 -36
right_child=1 7 4 8 9 13 15 35 22 11 47 -13 29 38 37 55 28 18 -20 -21 21 -23 -24 -25 -26 53 -28 30 -30 -31 -32 -33 -34 -35 49 -37 48 -39 -40 -41 -42 -43 59 -45 -46 -47 58 60 -50 -51 -52 -53 -54 -55 -56 56 -58 -59 -60 -61 -62 -63
leaf_value=-0.47240219414892537 -0.0065548145095313259 -0.053421661731514997 -0.11117793837866136 -0.12453038898385166 -0.11221519772106509 -0.0074446987830491199 -0.52915216267767295 0.12798325275572964 -0.013179781443544591 -0.013484288818975544 -0.026519210414279293 -0.092086614853157833 -0.053188945024959813 0.16198282166416203 0.11260372316623624 -0.57022344636433253 0.26108764942231899 -0.12086238417645596 -0.21689905080358188 0.10725450605154539 0.19113059834364884 -0.21737846427911817 -0.022504038459505084 -0.056100268372656359 0.10259979082261267 0.17167390871797999 0.065429641906542907 0.18668355978362838 0.68858274672258402 0.068172267903253217 0.85827287625583137 0.037272239304146741 0.10703676002001927 0.51999083198736062 -0.087383862888409783 1.4482171624565403 -0.039470928438575831 -0.01410533860835006 0.19648281657149003 0.55108684734935887 0.34570631500872812 -0.15833955260284577 -0.033685596930467555 -0.10052344489301497 -0.10285111234791629 0.06354579533657248 0.25520125882676953 0.045066799888294186 0.13671718534472391 0.002002613159152844 0.12567800616823099 0.048563447177578746 0.0011652366287041361 -0.0035037269771718729 0.030760778856417127 0.16804463880910792 -0.19441698795135576 0.4092170327568333 1.160107483648233 -0.077850257291897942 -0.0087067258534144539 -0.030670582712138208
leaf_weight=34091 1812 182 457 1130 2937 1258 3944 449 781 2603 1453 2477 822 930 2358 263 6398 3208 13754 1147 278 2555 1524 2615 2918 1019 1498 1553 7413 1867 906 1821 1958 1530 740 19005 283 178 5149 8418 5618 6271 888 1697 460 854 2019 258 669 708 1931 785 257 187 421 426 183 1858 608 512 413 831
leaf_count=34091 1812 182 457 1130 2937 1258 3944 449 781 2603 1453 2477 822 930 2358 263 6398 3208 13754 1147 278 2555 1524 2615 2918 1019 1498 1553 7413 1867 906 1821 1958 1530 740 19005 283 178 5149 8418 5618 6271 888 1697 460 854 2019 258 669 708 1931 785 257 187 421 426 183 1858 608 512 413 831
internal_value=-0.000669314 0.0167417 -0.0189622 0.00820342 -0.0110543 0.0123066 -0.0220041 0.0207125 -0.00375069 -0.0164106 0.00530581 -0.0102953 -0.000310063 0.0162896 0.00899454 -0.0163012 0.0176767 -0.0230939 -0.0207721 0.00392869 -0.0175789 -0.0141984 0.00220221 -0.00488268 0.0118079 0.0070414 0.00683414 0.0143375 0.0195019 0.00541163 0.0110047 0.00866924 0.0172032 0.017625 -0.0103916 0.0227521 0.0212446 0.0149054 0.0193009 0.0219559 0.0199022 -0.0193392 -0.0163996 -0.00721766 0.000406504 0.00129908 0.0143912 -0.00423729 0.00903361 -0.00705353 0.0154579 -0.000140012 -0.0125613 0.0148425 -0.00455581 -0.00321101 0.00168309 0.0147919 0.0156167 -0.0100714 0.00353949 -0.0104233
internal_weight=173536 88911 84625 28223 23509 21011 61116 60688 7212 15688 7619 5080 7821 13392 5495 9806 24388 51310 17219 2959 8934 4990 3803 4347 5382 2464 2279 8619 15769 3474 4280 3374 8356 4339 3409 36300 17295 2536 8010 16343 7925 10608 4337 2435 738 1732 2809 2124 952 2279 2861 1607 3465 1206 878 872 609 2307 2627 1400 671 1571
internal_count=173536 88911 84625 28223 23509 21011 61116 60688 7212 15688 7619 5080 7821 13392 5495 9806 24388 51310 17219 2959 8934 4990 3803 4347 5382 2464 2279 8619 15769 3474 4280 3374 8356 4339 3409 36300 17295 2536 8010 16343 7925 10608 4337 2435 738 1732 2809 2124 952 2279 2861 1607 3465 1206 878 872 609 2307 2627 1400 671 1571
cat_boundaries=0 1
cat_threshold=2055
is_linear=0
shrinkage=0.05


Tree=8
num_leaves=63
num_cat=0
split_feature=0 0 0 1 1 10 10 10 0 3 0 10 0 10 10 10 1 10 0 0 10 0 1 0 10 10 10 0 10 12 10 0 29 10 28 28 10 25 28 10 10 10 10 10 28 10 10 12 10 28 0 10 27 10 10 2 10 28 10 7 29 0
split_gain=21301.8 1174.8 830.219 513.853 509.517 292.306 236.111 207.568 171.272 149.939 135.443 123.067 115.658 106.144 136.248 105.235 104.146 95.3115 95.0594 85.2326 85.1967 82.6413 162.85 66.447 56.9526 53.9344 53.2862 51.9735 50.7697 50.5938 83.753 48.3181 46.9949 44.6506 69.7191 43.8818 43.0102 42.4069 42.0183 72.6187 40.2938 41.3467 36.7282 47.0699 49.6008 46.6452 35.8158 37.4407 35.5794 34.4968 33.4433 32.0964 29.8471 29.5635 39.9363 29.3996 28.6455 27.5342 49.4203 26.9262 26.7989 31.2732
threshold=24.145000000000003 30.715000000000003 20.055000000000003 31.525000000000002 20.545000000000005 21.500000000000004 15.500000000000002 12.500000000000002 27.235000000000003 34.375000000000007 25.985000000000003 1.0000000180025095e-35 22.315000000000001 16.500000000000004 12.500000000000002 4.5000000000000009 24.685000000000006 4.5000000000000009 12.325000000000001 41.145000000000003 15.500000000000002 16.375000000000004 16.115000000000006 25.705000000000002 6.5000000000000009 14.500000000000002 1.0000000180025095e-35 50.915000000000006 8.5000000000000018 9.5000000000000018 22.500000000000004 21.945000000000004 9.7958333333333343 11.500000000000002 0.37422245116445069 0.1191093171732535 4.5000000000000009 1.693315324213948 0.37189410563890785 11.500000000000002 11.500000000000002 6.5000000000000009 12.500000000000002 9.5000000000000018 0.34314109047477742 11.500000000000002 1.0000000180025095e-35 9.5000000000000018 1.0000000180025095e-35 0.27835267488456356 60.385000000000012 21.500000000000004 0.47029284274957955 22.500000000000004 17.500000000000004 26.005000000000006 14.500000000000002 0.2808879018740601 13.500000000000002 11.437839081852806 8.5066666666666677 46.725000000000001
decision_type=2 2 2 2 2 2 2 2 2 2 2 2 2 2 2 2 2 2 2 2 2 2 2 2 2 2 2 2 2 2 2 2 2 2 2 2 2 2 2 2 2 2 2 2 2 2 2 2 2 2 2 2 2 2 2 2 2 2 2 2 2 2
left_child=2 3 5 6 20 11 7 10 36 13 28 -1 51 14 15 19 -14 -10 -7 32 26 -13 -23 35 46 27 -4 59 48 30 -20 53 -3 -26 -35 -8 -5 50 -30 -40 41 -19 43 -28 -45 -46 47 -12 -2 -32 -21 -6 -48 54 -22 57 -42 58 -9 -16 61 -11
right_child=1 9 4 8 12 18 23 55 17 60 24 21 16 -15 25 -17 -18 40 29 37 31 22 -24 -25 33 -27 42 -29 38 -31 49 -33 -34 34 -36 -37 -38 -39 39 -41 56 -43 -44 44 45 -47 52 -49 -50 -51 -52 -53 -54 -55 -56 -57 -58 -59 -60 -61 -62 -63
leaf_value=-0.034389536227305499 0.36025557266349079 0.11913722281957728 0.45369777714442672 -0.10088414462857394 -0.13489434859195493 -0.45274595819950375 -0.042679959640203172 0.12619330123719638 -0.029239314681234953 0.32893791198087929 0.7199753796480558 -0.45427727420696506 -0.017419484002354758 0.52708266799602377 0.11538314506799363 0.37826817664741769 -0.089351953355337521 0.042364144431693521 -0.16634192669898554 0.14322755435867249 0.030813827505525818 -0.10387243317110145 -0.20521075812972214 0.20150964566899499 0.13511398115677284 0.28535314451292104 -0.14456857192255904 0.75877825628355089 0.10483781170059236 0.16264265297603908 0.22746496227467211 0.067194139111227 -0.0014738699377607745 0.17333101072502244 -0.030819555614577256 0.093932496674362306 -0.02611767294169498 0.6307299041448351 0.057291502019451636 -0.092615371130072621 -0.12427230330828483 0.097562277913923981 -0.22017578695648937 0.060871806926082607 0.0015547709496574137 -0.14274153063146564 -0.035930722897072533 -0.056500492136034634 -0.016004386279615267 -0.17312346353865796 1.2069664007863137 -0.014930125459756827 0.070353163716811551 0.38219104360303136 -0.038947945049591495 0.047198047286888034 0.041912556479381635 -0.17009248711603658 -0.13590618547544084 -0.041335262649876726 1.0227344553998694 1.1173010553706255
leaf_weight=666 206 2952 290 1306 7954 1862 152 302 1532 7670 575 36506 3113 4786 777 7507 4393 1297 931 1170 655 4341 15402 6408 3364 1033 563 565 940 570 620 2015 1062 642 408 2391 2668 2613 652 247 355 945 721 777 660 422 630 108 1590 218 845 228 675 252 1466 572 881 815 537 1491 19726 6516
leaf_count=666 206 2952 290 1306 7954 1862 152 302 1532 7670 575 36506 3113 4786 777 7507 4393 1297 931 1170 655 4341 15402 6408 3364 1033 563 565 940 570 620 2015 1062 642 408 2391 2668 2613 652 247 355 945 721 777 660 422 630 108 1590 218 845 228 675 252 1466 572 881 815 537 1491 19726 6516
internal_value=-0.000751429 0.0163391 -0.0187075 0.00832505 -0.0107225 -0.0217791 0.0125695 0.00806287 -0.00169746 0.020461 0.0111263 -0.0227185 -0.0159198 0.0175064 0.0159068 0.0179253 -0.0114375 0.0044511 -0.00905142 0.0141634 -0.000297277 -0.0229715 -0.0203654 0.0187437 0.015503 0.00747543 -0.0061972 0.00390928 0.00341816 -0.00234074 -0.00651498 0.0043186 0.00883159 0.0186679 0.00966667 0.0119052 -0.00944892 0.0187878 0.00925775 0.00152948 0.00902818 0.0130241 -0.00808941 -0.00514038 -0.00130446 -0.00822551 0.00847586 0.0177526 -0.00256125 0.00495227 0.0133375 -0.0200318 0.00362069 -0.000516224 -0.00243989 -0.00575022 0.00177994 -0.00912938 -0.00277116 0.000529101 0.0226218 0.0209643
internal_weight=173536 88911 84625 30198 23509 61116 21214 12263 8984 58713 10037 56915 15688 24801 20015 16149 7506 5010 4201 8642 7821 56249 19743 8951 6402 3866 3433 2833 3635 2339 1769 4388 4014 4414 1050 2543 3974 4628 1839 899 3478 2242 3143 2422 1859 1082 1988 683 1796 838 2015 8182 1305 2373 2121 2226 1236 1654 839 2268 33912 14186
internal_count=173536 88911 84625 30198 23509 61116 21214 12263 8984 58713 10037 56915 15688 24801 20015 16149 7506 5010 4201 8642 7821 56249 19743 8951 6402 3866 3433 2833 3635 2339 1769 4388 4014 4414 1050 2543 3974 4628 1839 899 3478 2242 3143 2422 1859 1082 1988 683 1796 838 2015 8182 1305 2373 2121 2226 1236 1654 839 2268 33912 14186
is_linear=0
shrinkage=0.05


Tree=9
num_leaves=63
num_cat=1
split_feature=0 0 0 1 1 10 10 10 0 10 10 0 10 10 1 10 0 1 0 0 24 10 10 28 10 10 0 10 10 10 0 28 0 1 0 0 10 10 26 28 24 6 1 24 10 11 10 10 21 10 33 2 10 26 10 10 10 28 11 4 10 10
split_gain=20543.9 1081.2 910.659 476.962 459.796 317.631 227.407 208.345 169.933 130.472 127.161 193.892 138.753 164.828 122.218 117.32 106.717 184.428 104.378 100.949 81.5099 88.8053 80.9863 125.494 79.133 68.9281 66.4112 66.0454 52.8739 52.4556 50.5907 47.8784 47.3121 57.2677 44.0307 40.4941 39.182 36.6061 36.133 35.9958 35.989 35.9163 33.9494 32.4557 31.6503 30.8232 29.8651 45.5381 39.4208 28.9571 28.0491 27.7071 27.5484 27.0054 50.2686 26.364 29.5077 45.134 32.2352 26.1939 33.1959 25.6977
threshold=24.665000000000003 20.422200000000007 31.283600000000003 20.545000000000005 33.545000000000009 21.500000000000004 15.500000000000002 12.500000000000002 22.931000000000004 1.0000000180025095e-35 17.500000000000004 48.315000000000005 12.500000000000002 5.5000000000000009 25.995000000000001 7.5000000000000009 17.255000000000006 16.764400000000006 27.235000000000003 14.545000000000002 2.7250000000000005 1.0000000180025095e-35 11.500000000000002 0.36552191649050547 14.500000000000002 14.500000000000002 26.665000000000003 4.5000000000000009 21.500000000000004 12.500000000000002 22.315000000000001 0.2494454357583914 26.953600000000005 24.295000000000005 26.385000000000002 37.165000000000006 1.0000000180025095e-35 22.500000000000004 0.46639262732666115 0.24007481092701136 2.5950000000000002 24.123750000000012 48.275000000000013 2.5250000000000004 1.0000000180025095e-35 4.5000000000000009 1.0000000180025095e-35 8.5000000000000018 4.7500000000000009 11.500000000000002 0 25.875000000000004 8.5000000000000018 0.82839257006833555 22.500000000000004 8.5000000000000018 11.500000000000002 0.35832895009521776 4.5000000000000009 49.245000000000012 17.500000000000004 18.500000000000004
decision_type=2 2 2 2 2 2 2 2 2 2 2 2 2 2 2 2 2 2 2 2 2 2 2 2 2 2 2 2 2 2 2 2 2 2 2 2 2 2 2 2 2 2 2 2 2 2 2 2 2 2 1 2 2 2 2 2 2 2 2 2 2 2
left_child=1 5 4 24 6 9 7 15 28 -1 11 12 13 20 55 26 -11 -18 43 37 21 -4 34 -24 29 -14 36 -20 52 46 59 53 33 -8 45 42 -2 38 -7 -39 -13 44 -22 -6 -28 -17 -3 -48 -49 -29 -23 -9 -5 -21 -55 -10 58 -58 -57 60 -26 -32
right_child=2 3 10 8 18 19 32 51 14 16 -12 40 25 -15 -16 22 17 -19 27 31 35 50 23 -25 30 -27 41 49 -30 -31 61 -33 -34 -35 -36 -37 -38 39 -40 -41 -42 -43 -44 -45 -46 -47 47 48 -50 -51 -52 -53 -54 54 -56 56 57 -59 -60 -61 -62 -63
leaf_value=-0.022562197101622952 0.45105879541325966 0.37310778979862036 1.0475259752487662 -0.13364627231522591 -0.1037709621036333 -0.10629220523352956 0.15785487531012665 -0.091386291608475834 -0.034612091324591178 -0.39489061803945535 0.72496322198360597 1.0853054280085426 0.063969541213979936 0.36385477544444139 -0.07529675734192641 0.072177441745709642 -0.081996826204851034 -0.18409821325373488 -0.022769589783363742 0.13292866435069381 0.19601532710098202 0.11621760430784756 0.18985334084136893 -0.042422745064781789 0.043329596844236741 0.25763503327987591 0.50215656457463476 0.064668884239480737 0.014193180813963036 -0.20890497896316146 0.11584819635417141 -0.14164645853205063 0.2178860416756864 0.028925063911757934 0.15427022640819016 0.29207069970080152 -0.018074517226329512 -0.011057366772798005 -0.44828610198724894 -0.46945080159732627 1.2561694442346181 0.085996045512180611 0.046556233122616503 -0.024752206093052821 -0.019496471670254679 0.0043517989021388814 -0.16221636521547947 0.033690935655754116 -0.0557502431026256 0.011140737427015957 0.014142667233324425 0.039413587887143553 -0.091001423177753005 -0.10289431047773592 0.25280562278953672 0.043512758229432971 0.0028001859626671788 -0.14634674245897691 -0.0099731288776011354 0.24514360113222652 -0.023134530279301124 0.047768705621974134
leaf_weight=697 262 295 860 4005 969 289 2434 1612 708 41171 12934 4772 2717 8083 3618 1126 4085 12907 1673 660 2044 1254 837 688 564 1414 324 1943 304 663 841 599 5266 1221 3178 5185 1389 597 1156 317 14121 1613 1258 1837 743 466 438 1232 597 1141 2043 708 5178 380 330 761 1488 312 348 157 1543 1181
leaf_count=697 262 295 860 4005 969 289 2434 1612 708 41171 12934 4772 2717 8083 3618 1126 4085 12907 1673 660 2044 1254 837 688 564 1414 324 1943 304 663 841 599 5266 1221 3178 5185 1389 597 1156 317 14121 1613 1258 1837 743 466 438 1232 597 1141 2043 708 5178 380 330 761 1488 312 348 157 1543 1181
internal_value=-0.000849968 -0.0179245 0.0164835 -0.00894545 0.0093476 -0.021368 0.013023 0.00879036 -0.0136467 -0.0223293 0.0201883 0.0189007 0.0159989 0.0176666 -0.00787491 0.0117542 -0.022587 -0.0192532 -0.00127925 -0.00829482 0.0141016 0.00836541 0.016112 0.00608197 0.0015211 0.00763132 0.00542023 0.00323208 -0.0180484 -0.00439535 0.00597294 6.3484e-05 0.0191655 0.0147948 0.0193187 0.0169112 -0.0024682 -0.0152713 -0.0202249 -0.00743982 0.0227187 0.0102799 0.0125833 -0.0089273 0.00316307 0.0125314 -0.00115144 -0.00309881 0.000369054 0.00757134 0.004633 -0.00478448 -0.0187275 0.00521898 -0.0015493 -0.00137545 0.000730492 -0.00322222 0.00714608 0.000839223 -0.000628856 0.0117211
internal_weight=173536 87421 86115 24233 29430 63188 21867 12946 16722 58860 56685 43751 24858 20727 7235 10626 58163 16992 7563 4328 12644 4157 6295 1525 7511 4131 4331 4757 9487 3225 4286 1969 8921 3655 4770 8487 1651 2359 1445 914 18893 2680 3302 2806 1067 1592 2562 2267 1829 3084 3297 2320 9183 1370 710 3617 2909 1800 1109 2264 2107 2022
internal_count=173536 87421 86115 24233 29430 63188 21867 12946 16722 58860 56685 43751 24858 20727 7235 10626 58163 16992 7563 4328 12644 4157 6295 1525 7511 4131 4331 4757 9487 3225 4286 1969 8921 3655 4770 8487 1651 2359 1445 914 18893 2680 3302 2806 1067 1592 2562 2267 1829 3084 3297 2320 9183 1370 710 3617 2909 1800 1109 2264 2107 2022
cat_boundaries=0 1
cat_threshold=2055
is_linear=0
shrinkage=0.05


Tree=10
num_leaves=63
num_cat=1
split_feature=3 27 27 5 24 4 5 4 9 27 3 3 10 27 10 8 3 27 9 8 10 27 6 8 10 8 8 10 3 9 4 25 6 5 9 25 27 8 27 24 10 9 29 8 6 25 27 4 6 8 2 10 25 6 8 10 24 6 9 33 27 9
split_gain=10455.4 2604.7 2076.32 485.518 476.432 435.979 320.012 316.395 278.422 245.983 214.27 150.435 146.308 143.686 139.267 123.262 118.347 117.904 116.057 114.764 113.439 97.9189 79.839 76.0714 73.614 71.1693 69.0682 66.3646 63.9246 58.4782 57.3553 57.0679 53.1129 49.4598 48.5343 47.8894 47.7233 46.5577 49.917 43.5309 42.7845 42.266 41.5304 40.6282 38.8753 36.614 39.376 36.3341 35.63 35.1716 35.0828 34.9494 34.7502 34.6663 34.5529 44.1938 34.3469 34.1892 32.9136 31.8588 30.9894 30.6941
threshold=24.745000000000001 0.47604959327425078 0.49896093899646837 15.920833333333265 2.6300000000000003 22.484000000000005 18.574999999999957 26.455000000000002 10.398125000000009 0.536388675330422 37.675000000000004 28.435000000000006 5.5000000000000009 0.56243287390089847 16.500000000000004 30.3352380952381 19.545000000000005 0.40051423591107588 13.440416666666652 24.504851190476195 7.5000000000000009 0.56457749841518323 26.933125000000015 30.422470238095244 22.500000000000004 30.3352380952381 24.40604166666667 1.0000000180025095e-35 19.795000000000005 11.44895833333333 33.3992 0.9852573133254241 16.807291666666671 13.910000000000009 -9.0829166666666623 2.8964467606313806 0.536388675330422 39.164702380952384 0.60364525859925722 2.8150000000000004 21.500000000000004 1.3960416666666584 7.6516666666666682 33.464166666666678 31.763541666666679 2.8620122354737183 0.54505970948478499 22.745000000000001 30.979583333333345 25.462023809523814 26.843400000000006 1.0000000180025095e-35 2.3154272767569259 35.145758333333355 26.558919047619053 14.500000000000002 2.8750000000000004 28.33291666666668 3.4170833333333381 0 0.37772918413408557 3.5860416666666706
decision_type=2 2 2 2 2 2 2 2 2 2 2 2 2 2 2 2 2 2 2 2 2 2 2 2 2 2 2 2 2 2 2 2 2 2 2 2 2 2 2 2 2 2 2 2 2 2 2 2 2 2 2 2 2 2 2 2 2 2 2 1 2 2
left_child=1 4 6 24 8 16 41 13 14 15 12 44 18 20 26 40 29 -6 22 59 -5 23 51 -13 27 -22 60 -4 -11 45 31 -12 -10 -16 53 -17 54 42 52 -20 49 -2 -15 -30 58 -3 -47 -14 -33 -7 -21 -8 -39 -23 -18 -56 -24 -36 -9 -19 -1 -35
right_child=2 5 3 7 17 9 10 11 32 28 30 21 47 37 33 35 36 19 39 50 25 34 56 -25 -26 -27 -28 -29 43 -31 -32 48 -34 61 57 -37 -38 38 -40 -41 -42 -43 -44 -45 -46 46 -48 -49 -50 -51 -52 -53 -54 -55 55 -57 -58 -59 -60 -61 -62 -63
leaf_value=-0.085812302752259664 -0.022107807194926644 -0.30979615057234189 0.10691452752913851 -0.071384080953173085 0.57356159423420494 -0.16114731556759967 0.39452749917880259 -0.037726290173901326 0.017874524786568636 -0.26982369364385533 0.27781424203891003 0.041846699844512975 0.17328141292187349 -0.15917853485614464 -0.16346390040425068 -0.017170333755974456 -0.13388970710909673 0.092888161422594095 0.23785280171717604 0.056789762233226786 -0.024534400362350085 -0.095940160910229721 0.017342541414265611 0.19820536763521268 0.028248746071115962 0.068261752666445116 -0.048962368769766056 -0.29319615996961534 -0.13008733638364109 0.12597405466323827 0.98763261913616596 0.24028138014581479 0.36505983789120527 0.020996401821724932 0.0029319477759073287 0.077578066368241411 -0.19712021334369495 -0.18230873101752751 -0.11632849346667928 0.53158595715180479 0.016320474637197435 0.20671309126440729 -0.021331285291398938 -0.069433727647171581 0.045499915827558107 -0.043006680455831781 -0.33502916865963145 0.28561537527945635 0.62833085634788854 -0.06038743201688828 0.14002304840301294 -0.042379516488406037 0.051920625020081879 0.022026988295199959 -0.068593087542398123 0.024458724357530673 0.10750993131948974 0.22835011872705488 0.11318530726791814 -0.039043321890082444 -0.21127326051495299 0.1234228808489581
leaf_weight=685 2017 30960 388 1706 3242 2958 195 1790 1397 7445 932 1341 4179 1559 325 3492 2372 580 1737 1223 1657 521 1388 6622 847 3533 2913 4141 2394 138 18653 1333 1980 904 502 786 5564 234 728 2162 536 1809 554 2421 1200 666 1375 9935 7212 2403 2550 1489 703 851 2012 717 2747 765 222 1421 3997 661
leaf_count=685 2017 30960 388 1706 3242 2958 195 1790 1397 7445 932 1341 4179 1559 325 3492 2372 580 1737 1223 1657 521 1388 6622 847 3533 2913 4141 2394 138 18653 1333 1980 904 502 786 5564 234 728 2162 536 1809 554 2421 1200 666 1375 9935 7212 2403 2550 1489 703 851 2012 717 2747 765 222 1421 3997 661
internal_value=-0.000925798 -0.0130176 0.011514 0.000873962 0.00194031 -0.0179581 0.0172098 0.00386107 -0.00423729 -0.0122899 0.0182374 0.00885696 0.0147491 -0.00260446 -0.00862678 -0.006543 -0.0208611 0.0107531 0.0100278 0.00646865 0.00168939 0.0117289 0.00555508 0.0144952 -0.0127325 0.00536609 -0.0116491 -0.0152628 -0.0170595 -0.0223355 0.0211927 0.0180252 0.0080915 0.00351852 0.00338196 -8.18139e-05 -0.0162799 -0.010442 -0.00418919 0.016703 -0.0112303 0.00325405 -0.0153691 -0.0125701 -0.000622665 -0.0224713 -0.0159848 0.0179999 0.0193066 -0.0125769 0.0116022 -0.00362233 0.00344184 -0.00313411 -0.0127867 -0.00895016 0.00929262 0.010438 -0.00487078 -0.00321089 -0.0154101 0.00720447
internal_weight=173769 88117 85652 29864 21878 66239 55788 24488 12862 22435 51962 13814 23832 10674 9485 10175 43804 9016 9718 5774 6896 10602 5819 7963 5376 5190 7595 4529 12260 33139 28130 9477 3377 1890 2639 4278 10665 3778 1665 3899 5897 3826 2113 4815 3212 33001 2041 14114 8545 5361 3773 1684 937 1372 5101 2729 4135 1267 2012 2001 4682 1565
internal_count=173769 88117 85652 29864 21878 66239 55788 24488 12862 22435 51962 13814 23832 10674 9485 10175 43804 9016 9718 5774 6896 10602 5819 7963 5376 5190 7595 4529 12260 33139 28130 9477 3377 1890 2639 4278 10665 3778 1665 3899 5897 3826 2113 4815 3212 33001 2041 14114 8545 5361 3773 1684 937 1372 5101 2729 4135 1267 2012 2001 4682 1565
cat_boundaries=0 1
cat_threshold=2055
is_linear=0
shrinkage=0.05


Tree=11
num_leaves=63
num_cat=0
split_feature=0 0 0 1 1 10 10 0 10 0 1 10 0 10 10 1 10 0 10 24 0 10 0 10 10 15 10 10 28 0 3 0 1 24 28 10 0 4 1 10 10 26 10 28 10 15 10 28 10 10 28 10 10 28 28 10 0 20 10 26 10 10
split_gain=18989 1144.41 828.098 434.53 430.497 316.518 195.224 180.924 180.437 156.83 227.23 147.456 202.977 146.68 193.205 121.028 118.419 111.02 103.106 111.033 89.9236 84.2693 71.9466 69.9957 59.3104 53.0536 50.8795 48.8405 46.7146 44.0628 43.7245 42.2666 42.1968 42.1898 41.8821 40.813 39.3965 35.6817 35.1347 34.917 34.3301 35.6342 33.5439 64.1321 50.9559 33.146 32.7645 32.657 29.666 29.6131 42.0577 28.8809 46.7281 79.8741 42.5062 28.528 28.4424 28.3932 26.7938 25.6911 48.0834 25.5695
threshold=24.795000000000005 20.645000000000003 31.485000000000003 20.755000000000006 32.605000000000011 21.500000000000004 15.500000000000002 22.825000000000003 12.500000000000002 15.265000000000002 16.255000000000006 17.500000000000004 50.915000000000006 12.500000000000002 5.5000000000000009 26.277600000000003 4.5000000000000009 14.545000000000002 1.0000000180025095e-35 2.8250000000000006 26.525000000000002 14.500000000000002 27.985000000000003 14.500000000000002 8.5000000000000018 12.350000000000001 12.500000000000002 1.0000000180025095e-35 0.24337721399446641 26.953600000000005 24.745000000000001 22.931000000000004 27.290800000000004 2.5950000000000002 0.2494454357583914 21.500000000000004 41.145000000000003 43.275000000000013 54.175000000000004 11.500000000000002 22.500000000000004 0.46639262732666115 11.500000000000002 0.38256317892061781 8.5000000000000018 12.65 17.500000000000004 0.24007481092701136 6.5000000000000009 11.500000000000002 0.3383402555397611 2.5000000000000004 1.5000000000000002 0.32972734846383894 0.28427402227616044 1.0000000180025095e-35 26.953600000000005 3.850000000000001 21.500000000000004 0.82839257006833555 22.500000000000004 8.5000000000000018
decision_type=2 2 2 2 2 2 2 2 2 2 2 2 2 2 2 2 2 2 2 2 2 2 2 2 2 2 2 2 2 2 2 2 2 2 2 2 2 2 2 2 2 2 2 2 2 2 2 2 2 2 2 2 2 2 2 2 2 2 2 2 2 2
left_child=1 5 4 21 6 9 8 35 20 27 30 12 13 14 18 -9 56 40 -4 51 24 26 -18 37 -2 -12 -3 -1 55 32 45 46 -8 -14 59 61 38 -15 -21 48 41 -7 44 -44 -30 -11 -23 -42 -24 -26 -51 52 53 -20 -54 -22 -6 -25 -48 -19 -61 -5
right_child=2 3 11 7 16 17 29 15 -10 10 25 -13 33 23 -16 -17 22 34 19 36 28 31 39 57 49 -27 -28 -29 42 -31 -32 -33 -34 -35 -36 -37 -38 -39 -40 -41 47 -43 43 -45 -46 -47 58 -49 -50 50 -52 -53 54 -55 -56 -57 -58 -59 -60 60 -62 -63
leaf_value=-0.16718119884731841 -0.0056931260110718368 -0.0052711057348499681 0.9065903472063902 -0.11754774951463692 -0.087540954112189706 -0.083293672109474678 0.11496753424717605 -0.0052748833084190318 -0.048939576536762536 -0.12169353595151017 -0.17840354846819279 0.67653978950773108 1.1320170449422517 -0.0030292155538717228 0.35186082746092534 -0.068715655832079045 -0.01270524053729627 0.13960479451587934 -0.074095880236892953 0.14624666442267778 0.1963774367011869 0.066005002922110562 0.040231743307648317 0.35592118615271034 0.074310204236301122 -0.077570350060824467 -0.18281365258819415 -0.44224506474223979 0.079040880863366428 0.20234482971885123 -0.042021601658042765 0.09157322104044692 -0.010493711898943481 1.270251148396643 -0.11907432807683094 0.014870034497509366 0.27747944024820798 0.3110971736832287 0.033629804234680628 0.015326937382876516 -0.014111973968643632 -0.41545453144908556 0.14964263663324023 -0.029703866002771129 0.17353734230687756 -0.036481682035731391 -0.02102708919876424 -0.43660083338275835 0.095845580911266923 0.21121605191541049 -0.050918047816440118 0.074070434342394617 0.24132612632958939 0.42558788173166051 -0.089290092030501894 -0.12080414027063924 -0.027429687070237477 0.083588427732738252 0.14685869529276624 -0.099080286680421639 0.2512913033460662 -0.079331157925442319
leaf_weight=362 1674 2544 2557 3510 925 291 3072 4118 2171 4088 19873 12673 4298 2401 8444 4021 2407 707 500 2843 228 629 1193 761 1211 1276 694 31400 2801 5442 2035 1631 373 12517 597 242 3174 449 1251 1137 591 1186 654 368 2426 1091 1457 331 826 190 248 1865 178 498 955 186 1974 645 503 412 348 4317
leaf_count=362 1674 2544 2557 3510 925 291 3072 4118 2171 4088 19873 12673 4298 2401 8444 4021 2407 707 500 2843 228 629 1193 761 1211 1276 694 31400 2801 5442 2035 1631 373 12517 597 242 3174 449 1251 1137 591 1186 654 368 2426 1091 1457 331 826 190 248 1865 178 498 955 186 1974 645 503 412 348 4317
internal_value=-0.000978454 -0.0172485 0.0158127 -0.00784247 0.00903376 -0.020695 0.0128635 -0.0124383 0.00874599 -0.0216486 -0.0189463 0.0193839 0.0179966 0.0152719 0.0168976 -0.0071784 -0.000490428 -0.00784786 0.013257 0.0111994 0.0115862 0.00214535 0.00377944 0.00676692 0.00486759 -0.0215601 -0.00392217 -0.0240618 0.014937 0.0184961 -0.0112836 0.00680095 0.0140711 0.0222941 0.00065407 -0.0177438 0.0148803 0.00226316 0.011639 0.00874525 -0.0151626 -0.0198883 0.0160146 0.00772994 0.0176344 -0.0137237 0.00282928 -0.00759219 0.0126919 0.0115979 0.000456621 0.0045045 0.000527921 0.00841683 -0.00642101 -0.0013285 -0.00868403 0.0158962 -0.000357143 0.00519768 -0.00118421 -0.0183691
internal_weight=173769 88254 85515 23666 29506 64588 21044 16208 12157 60125 28363 56009 43336 26521 22265 8139 8462 4463 13821 11264 9986 7458 5563 4256 3323 21149 3238 31762 6663 8887 7214 4220 3445 16815 2064 8069 7268 2850 4094 3156 2399 1477 6249 1022 5227 5179 2589 922 2019 1649 438 3996 2131 998 1133 414 2899 1406 1960 1467 760 7827
internal_count=173769 88254 85515 23666 29506 64588 21044 16208 12157 60125 28363 56009 43336 26521 22265 8139 8462 4463 13821 11264 9986 7458 5563 4256 3323 21149 3238 31762 6663 8887 7214 4220 3445 16815 2064 8069 7268 2850 4094 3156 2399 1477 6249 1022 5227 5179 2589 922 2019 1649 438 3996 2131 998 1133 414 2899 1406 1960 1467 760 7827
is_linear=0
shrinkage=0.05


Tree=12
num_leaves=63
num_cat=1
split_feature=0 0 0 1 1 10 0 1 0 10 10 10 1 0 1 10 10 0 10 24 10 10 10 10 34 10 10 25 10 28 10 28 1 10 10 14 28 29 0 28 0 0 0 10 0 10 28 25 14 10 0 9 28 29 10 11 11 10 26 0 10 10
split_gain=18245.2 1075.67 863.309 464.341 378.571 260.609 250.527 284.985 162.419 133.767 208.089 126.491 121.476 116.742 193.251 114.077 93.9409 91.6914 81.9532 118.596 95.6505 80.227 73.9157 67.8766 88.3277 63.8428 63.2979 62.9965 60.4556 64.8342 48.102 98.7873 47.0469 46.8399 42.2645 41.7165 41.322 39.6773 39.3826 39.1706 38.2722 37.9624 37.2597 36.3981 35.7551 45.8514 34.0997 36.6915 31.9117 40.5579 31.4545 31.3154 31.1276 31.0051 34.0448 38.8773 30.4823 28.4417 65.4621 27.899 27.4292 38.0601
threshold=24.145000000000003 28.315000000000001 19.725000000000005 19.605000000000004 30.355000000000004 21.500000000000004 37.465000000000011 42.275000000000013 22.315000000000001 15.500000000000002 12.500000000000002 15.500000000000002 25.325000000000003 14.984400000000003 15.695000000000002 12.500000000000002 6.5000000000000009 12.325000000000001 15.500000000000002 2.5950000000000002 12.500000000000002 15.500000000000002 8.5000000000000018 1.5000000000000002 0 4.5000000000000009 1.0000000180025095e-35 1.3867654823984641 11.500000000000002 0.36552191649050547 11.500000000000002 0.38256317892061781 21.465000000000003 1.0000000180025095e-35 12.500000000000002 30.650000000000002 0.2457127188544776 9.8591666666666686 58.305000000000007 0.28651508484682725 26.385000000000002 32.595000000000006 22.315000000000001 9.5000000000000018 53.415000000000006 5.5000000000000009 0.12205699914197 1.4844248054976712 30.850000000000005 17.500000000000004 60.385000000000012 59.494583333333345 0.39157727625423183 8.0258333333333365 11.500000000000002 4.5000000000000009 4.5000000000000009 22.500000000000004 0.80774610591335716 25.705000000000002 17.500000000000004 22.500000000000004
decision_type=2 2 2 2 2 2 2 2 2 2 2 2 2 2 2 2 2 2 2 2 2 2 2 2 1 2 2 2 2 2 2 2 2 2 2 2 2 2 2 2 2 2 2 2 2 2 2 2 2 2 2 2 2 2 2 2 2 2 2 2 2 2
left_child=2 4 5 21 11 13 7 9 43 10 16 15 -10 33 48 22 26 -7 19 23 44 34 59 39 -25 -6 -3 -28 56 -30 -18 -32 -13 -1 -4 -16 57 -26 -22 50 -27 -9 60 -5 45 52 -34 -48 -15 -50 -8 -39 -21 54 55 -45 -24 58 -19 -2 -23 -62
right_child=1 6 3 8 25 17 18 41 12 -11 -12 32 -14 14 35 -17 30 36 -20 20 38 42 28 24 37 40 27 -29 29 -31 31 -33 46 -35 -36 -37 -38 51 -40 -41 -42 -43 -44 53 -46 -47 47 -49 49 -51 -52 -53 -54 -55 -56 -57 -58 -59 -60 -61 61 -63
leaf_value=-0.17816087144545956 -0.011507759250758198 0.73575479324896964 -0.020715658594869527 -0.11762435042052655 -0.077203721698239219 -0.38293179820091106 0.13426332337836397 -0.0030862691084209363 -0.013089685854081346 0.24690630987970935 0.0070349224624450812 0.16946567671999554 -0.076976410663248812 -0.1077491597265981 -0.17867393959593994 -0.079780394570283519 0.19458351732444967 0.1001672014252037 0.98671266270324309 0.33723843075952548 0.20488823749114415 0.04542763811722228 0.11860149906769896 0.48190301235502597 0.12727223194262116 -0.028354663151993444 -0.059024544178937079 0.088103312440498183 0.12430811219909793 -0.046263932659821365 0.26204670706519123 -0.035372561523868383 -0.016208120357641499 -0.43122023474371574 -0.18445118630895474 -0.08130788775171266 -0.16070818059425351 -0.10926270849607321 1.4834541913806791 1.4493869227281799 0.014155947258453505 0.064871594919768336 0.07664253444511511 0.0020659910156761718 1.3434317573447427 0.51133289168216067 0.017682911941167844 0.088918927507352308 0.016356465974969581 -0.071416764639838703 1.3761219576909818 0.89141067287182496 0.099892279701555342 -0.060557154996997035 -0.13713856371036642 -0.06764759287957807 0.034359840613293537 0.21493367989451981 -0.12475200931268003 0.032273578187743367 -0.021013517365179625 0.36927137372462887
leaf_weight=352 1349 1294 2309 4932 1854 1898 646 2563 4162 8679 2413 2712 3949 4772 17287 1578 5159 523 8787 5631 1803 803 2002 2318 1053 2258 713 3112 585 458 1009 492 297 30100 645 1175 619 520 966 2209 2028 3102 1346 494 9896 3860 705 2400 673 596 633 111 1424 1324 3233 422 675 584 503 1741 1732 301
leaf_count=352 1349 1294 2309 4932 1854 1898 646 2563 4162 8679 2413 2712 3949 4772 17287 1578 5159 523 8787 5631 1803 803 2002 2318 1053 2258 713 3112 585 458 1009 492 297 30100 645 1175 619 520 966 2209 2028 3102 1346 494 9896 3860 705 2400 673 596 633 111 1424 1324 3233 422 675 584 503 1741 1732 301
internal_value=-0.00104694 0.0147585 -0.0176547 -0.00999532 0.00475487 -0.0209802 0.0177778 0.0142014 -0.0141715 0.0166882 0.0136979 0.00916081 -0.00886759 -0.0218902 -0.0193211 0.00517406 0.0164382 -0.00886237 0.0203383 0.0191326 0.0208736 0.000840807 0.00798091 0.0136515 0.0092079 -0.00565147 0.011345 0.00811111 0.0127285 0.00251678 0.0203529 0.012475 0.0146304 -0.0239574 -0.00546716 -0.0218611 -0.0019852 0.000442739 0.0121434 0.01875 -0.00229818 0.00416152 0.00529651 -0.0183061 0.0220352 0.0200618 0.0107143 0.0122625 -0.0115585 -0.00451143 0.0117866 -0.0094691 0.0176648 -0.0154988 -0.0176247 -0.00911572 0.0167071 0.00223602 -0.00277778 0.00226537 0.00204513 -0.00104525
internal_weight=173769 89035 84734 25652 20642 59082 68393 28536 18516 22871 14192 14502 8111 54955 24503 8388 11779 4127 39857 31070 23580 7136 6810 7490 4002 6140 5119 3825 3720 1043 6660 1501 6114 30452 2954 18462 2229 1684 2769 3488 4286 5665 4182 10405 20811 10915 3402 3105 6041 1269 1279 631 7055 5473 4149 916 2677 1610 1026 3090 2836 2033
internal_count=173769 89035 84734 25652 20642 59082 68393 28536 18516 22871 14192 14502 8111 54955 24503 8388 11779 4127 39857 31070 23580 7136 6810 7490 4002 6140 5119 3825 3720 1043 6660 1501 6114 30452 2954 18462 2229 1684 2769 3488 4286 5665 4182 10405 20811 10915 3402 3105 6041 1269 1279 631 7055 5473 4149 916 2677 1610 1026 3090 2836 2033
cat_boundaries=0 1
cat_threshold=8
is_linear=0
shrinkage=0.05


Tree=13
num_leaves=63
num_cat=0
split_feature=0 0 0 1 1 10 0 1 10 10 10 0 0 24 10 10 0 1 0 0 10 10 28 10 10 1 10 10 10 10 12 24 1 24 0 28 0 1 10 0 19 10 10 10 0 1 0 12 0 10 10 29 29 26 10 28 2 10 28 28 10 10
split_gain=17495 1352.44 610.425 400.697 384.089 316.785 200.171 261.016 184.634 185.837 153.289 170.838 137.682 135.557 131.88 125.638 112.573 95.5839 92.4192 87.9112 82.7563 80.5938 90.2026 69.8072 65.9245 54.3635 54.1424 51.337 50.3625 49.9313 73.795 69.3729 49.313 48.3036 48.0119 45.523 44.2576 66.692 43.1631 43.1522 41.4774 40.9399 39.9714 40.9683 39.621 38.0643 34.8873 31.785 29.9311 29.872 29.2189 58.5836 28.3683 28.2238 66.226 27.5606 26.8585 26.8439 25.3723 24.6342 24.6295 24.3649
threshold=25.295000000000005 20.985000000000003 32.595000000000006 22.071200000000001 39.005000000000003 21.500000000000004 15.265000000000002 17.645000000000003 15.500000000000002 12.500000000000002 17.500000000000004 55.225000000000001 22.825000000000003 2.7250000000000005 7.5000000000000009 12.500000000000002 12.325000000000001 26.277600000000003 22.565000000000001 17.985000000000003 5.5000000000000009 11.500000000000002 0.37422245116445069 1.0000000180025095e-35 3.5000000000000004 13.735000000000001 1.0000000180025095e-35 12.500000000000002 15.500000000000002 1.0000000180025095e-35 9.5000000000000018 2.2550000000000003 16.764400000000006 2.5950000000000002 28.150600000000001 0.24007481092701136 42.765000000000008 50.865000000000002 12.500000000000002 26.805000000000003 10.850000000000001 14.500000000000002 18.500000000000004 22.500000000000004 27.385000000000002 25.735000000000003 26.953600000000005 9.5000000000000018 85.250000000000014 4.5000000000000009 18.500000000000004 10.079166666666667 4.1087500000000015 0.80774610591335716 22.500000000000004 0.24007481092701136 24.181600000000003 16.500000000000004 0.2239796432118237 0.34727082567743278 4.5000000000000009 1.5000000000000002
decision_type=2 2 2 2 2 2 2 2 2 2 2 2 2 2 2 2 2 2 2 2 2 2 2 2 2 2 2 2 2 2 2 2 2 2 2 2 2 2 2 2 2 2 2 2 2 2 2 2 2 2 2 2 2 2 2 2 2 2 2 2 2 2
left_child=1 5 4 18 8 6 26 19 9 14 11 13 -5 23 29 20 -7 -14 32 25 36 44 -23 47 61 -8 -1 -26 38 30 -2 -31 -3 48 -6 53 37 -15 -20 -33 -9 -17 -30 58 -16 -10 -47 -4 -13 -19 51 -21 -11 -18 -55 -41 -54 -53 -44 -42 -36 -25
right_child=2 3 10 12 34 16 7 40 45 52 -12 33 17 15 21 41 35 49 28 50 -22 22 -24 24 27 -27 -28 -29 42 31 -32 39 -34 -35 60 -37 -38 -39 -40 55 59 -43 43 -45 -46 46 -48 -49 -50 -51 -52 57 56 54 -56 -57 -58 -59 -60 -61 -62 -63
leaf_value=-0.1499140953326796 0.68631375199849409 0.048128435213329636 1.0862201290228375 -0.088527269629118083 -0.048032272586437941 -0.36378520829086547 -0.069361709369662711 -0.16437253352580719 0.20552188272003136 -0.12268391040958866 0.66115931810766737 0.60795246556417348 -0.0071382332753124446 0.21551957098442412 0.061046689095470799 0.085614528981312971 0.12282614531281376 -0.13935741164013341 0.038857821065865043 -0.085299844819594295 0.36675796157197915 0.15158166039525992 -0.036120161375293947 0.17217636616022061 0.27303098684796157 -0.12965805189585797 -0.39873917557938604 0.021904381589708068 0.10838655911699302 -0.052249492758375385 -0.088930665367145251 -0.002451166116933834 -0.039075292036142177 1.3467386899500242 -0.017457789712383941 -0.10710640348322578 0.3368326586332282 0.044390721668450796 -0.14567328879876912 -0.043036038117042888 -0.054222125634584908 0.23897458969769547 0.047750708111057888 0.46462893455124715 0.15193860461788677 0.016958834166992887 0.09778273896222274 -0.035608755120870937 2.4224523206056774 -0.04286122950629867 -0.079164883284086163 0.13084573469590302 -0.048954711974462661 -0.11220324151243553 0.21413152082283293 0.05649025999067625 0.055994729834891205 0.0023462052224143548 -0.01504293429848147 -0.1910496092151327 0.03169642413163274 -0.013812750747711178
leaf_weight=362 918 1166 878 5710 1867 1898 2096 17616 5817 856 11754 2021 3907 3447 1820 2206 824 1119 1817 2328 6820 885 612 1080 1750 4172 31400 782 1113 1011 133 1126 3000 10500 1600 868 4588 1927 557 149 1446 1104 789 373 3320 708 2892 127 1725 4115 966 294 995 535 458 2757 868 805 665 631 1771 1925
leaf_count=362 918 1166 878 5710 1867 1898 2096 17616 5817 856 11754 2021 3907 3447 1820 2206 824 1119 1817 2328 6820 885 612 1080 1750 4172 31400 782 1113 1011 133 1126 3000 10500 1600 868 4588 1927 557 149 1446 1104 789 373 3320 708 2892 127 1725 4115 966 294 995 535 458 2757 868 805 665 631 1771 1925
internal_value=-0.00112923 -0.0162545 0.0155117 -0.00616395 0.00983308 -0.0199355 -0.0208714 -0.017968 0.0124251 0.00906149 0.0187597 0.0173129 -0.0112905 0.0149489 0.0115957 0.0169844 -0.00724962 -0.0074855 0.00186709 -0.0116664 0.0187403 0.0164721 0.00626253 0.00869765 0.0064972 -0.0154675 -0.0236462 0.0124408 0.00623824 0.00628487 0.0161989 0.00421872 -0.00370859 0.0217324 -0.00247232 -0.00066108 0.0158352 0.0127559 0.000821398 0.00715526 -0.0213794 0.00808157 0.0106122 0.00606185 0.0194455 0.0179436 0.0139028 0.0208209 0.016858 -0.0119029 -0.00624289 -0.00407791 -0.00280434 0.00383875 -0.00183787 0.0103751 0.000657542 0.00543676 0.0022696 -0.0146967 0.00109018 0.00148918
internal_weight=173769 91030 82739 24331 30105 66699 62116 30354 24867 15450 52634 40880 14851 26634 12731 20092 4583 9141 9480 10661 16782 6637 1497 6542 5537 6268 31762 2532 5314 6094 1051 5043 4166 14246 5238 2685 9962 5374 2374 4032 19693 3310 2940 1827 5140 9417 3600 1005 3746 5234 4393 3427 2719 1817 993 2906 1863 1099 1454 2077 3371 3005
internal_count=173769 91030 82739 24331 30105 66699 62116 30354 24867 15450 52634 40880 14851 26634 12731 20092 4583 9141 9480 10661 16782 6637 1497 6542 5537 6268 31762 2532 5314 6094 1051 5043 4166 14246 5238 2685 9962 5374 2374 4032 19693 3310 2940 1827 5140 9417 3600 1005 3746 5234 4393 3427 2719 1817 993 2906 1863 1099 1454 2077 3371 3005
is_linear=0
shrinkage=0.05


Tree=14
num_leaves=63
num_cat=2
split_feature=0 0 0 1 1 0 1 10 0 10 10 10 0 1 10 10 1 10 24 0 10 0 10 24 10 10 28 10 10 28 33 10 28 0 1 10 14 10 12 0 28 10 1 0 10 10 0 0 11 0 4 28 1 10 0 10 12 10 33 10 10 10
split_gain=16763.9 1182.52 713.641 447.158 331.637 283.331 310.638 210.012 144.871 136.153 200.554 115.994 111.539 171.355 105.273 113.483 99.7002 96.5761 130.6 79.2478 71.5763 70.7493 67.4448 68.4096 62.2011 61.9182 105.56 57.9721 57.8861 57.6637 66.7545 54.6252 64.3792 52.6241 48.1557 48.077 44.8957 52.3984 43.6725 43.2999 41.9251 39.5406 38.3269 35.5351 49.2696 35.3516 34.9778 34.275 32.7372 32.3853 31.5265 29.7152 29.0185 28.9993 28.518 28.0696 28.4598 27.8216 27.7871 27.2092 35.3569 26.5211
threshold=23.781800000000004 27.675000000000004 18.495000000000001 19.355000000000004 28.215000000000003 38.085000000000008 42.275000000000013 22.500000000000004 22.315000000000001 15.500000000000002 12.500000000000002 6.5000000000000009 14.225000000000003 14.225000000000003 14.500000000000002 12.500000000000002 25.055000000000003 17.500000000000004 2.6750000000000003 19.855000000000004 12.500000000000002 85.250000000000014 1.0000000180025095e-35 2.2800000000000007 8.5000000000000018 11.500000000000002 0.38577613612801281 21.500000000000004 15.500000000000002 0.38100905991995121 0 11.500000000000002 0.36552191649050547 25.575000000000003 18.983600000000006 1.0000000180025095e-35 30.650000000000002 21.500000000000004 9.5000000000000018 34.445000000000007 0.24007481092701136 12.500000000000002 49.555000000000007 57.245000000000012 4.5000000000000009 8.5000000000000018 25.435000000000006 61.495000000000012 4.5000000000000009 20.985000000000003 40.505000000000003 0.2808879018740601 17.385000000000002 1.5000000000000002 3.2950000000000004 1.0000000180025095e-35 8.5000000000000018 13.500000000000002 1 17.500000000000004 21.500000000000004 4.5000000000000009
decision_type=2 2 2 2 2 2 2 2 2 2 2 2 2 2 2 2 2 2 2 2 2 2 2 2 2 2 2 2 2 2 1 2 2 2 2 2 2 2 2 2 2 2 2 2 2 2 2 2 2 2 2 2 2 2 2 2 2 2 1 2 2 2
left_child=2 4 7 19 14 6 9 12 27 10 11 22 35 -14 15 24 -10 18 21 52 43 29 38 -24 55 -13 -27 45 41 50 -31 48 -33 -6 -16 -1 37 -15 -3 61 54 -21 -35 44 53 -5 -36 -22 -26 -47 58 57 -4 -20 -9 56 -2 -17 -7 -30 -61 -8
right_child=1 5 3 8 33 17 39 40 16 -11 -12 25 13 36 34 51 -18 -19 20 28 47 -23 23 -25 31 26 -28 -29 59 30 -32 32 -34 42 46 -37 -38 -39 -40 -41 -42 -43 -44 -45 -46 49 -48 -49 -50 -51 -52 -53 -54 -55 -56 -57 -58 -59 -60 60 -62 -63
leaf_value=-0.14366837149255929 0.5468340550769123 0.74901483152714077 -0.043238814692557706 -0.13947966034685991 -0.053824700515162506 0.45512281941099347 -0.018492505393560954 -0.4363236006619442 -0.014860149914860976 0.2134069219556235 0.0086242491720489589 0.16477994014439759 -0.076003826443229727 -0.17076137549899803 0.18303762234341897 0.059302617354875235 -0.073573471491524961 0.98578417469029533 0.58750472652485652 -0.011925013211876135 0.23586749881819635 2.2827566546153664 -0.043700338536778821 0.07567192605752382 0.093890199694056611 0.22037936936425562 -0.041003915701226391 0.0008072277447254806 0.062618859361502383 0.47413652768100595 -0.061405389735263771 0.10734409761208621 -0.050000562349950609 0.0006443519074844418 0.025406438732616811 -0.4192236661766684 -0.07534333221239109 -0.046360456199970382 -0.05473040799884963 0.074496466682074575 -0.26863414606047903 -0.16997706636369614 -0.078515106757108918 1.4016523463851531 0.48936066689406571 -0.10336988216666523 0.081250991576900244 1.610728939280881 0.015489630064094052 -0.061494343678332092 0.58460995859253928 -0.16943098184787075 -0.097339776618622767 0.16504076925020819 0.11696566891881038 -0.008101493183098718 -0.091968785793289251 -0.14178256920061366 0.080817938027354153 -0.0037925173221919906 0.20624899133797803 0.026175249356212762
leaf_weight=325 396 1316 2322 5825 3164 1288 2129 136 3292 9898 2750 5997 4526 15751 1521 251 3237 7807 2707 1953 2192 1846 1026 3383 1814 1138 547 417 920 342 770 573 456 3390 1830 28248 1195 456 145 2335 535 570 595 8141 4596 5063 2498 995 541 3224 2174 655 1209 4187 778 1869 108 310 1472 1995 685 1955
leaf_count=325 396 1316 2322 5825 3164 1288 2129 136 3292 9898 2750 5997 4526 15751 1521 251 3237 7807 2707 1953 2192 1846 1026 3383 1814 1138 547 417 920 342 770 573 456 3390 1830 28248 1195 456 145 2335 535 570 595 8141 4596 5063 2498 995 541 3224 2174 655 1209 4187 778 1869 108 310 1472 1995 685 1955
internal_value=-0.00118649 0.0136063 -0.0174905 -0.0114483 0.00285539 0.0166245 0.0131955 -0.0210626 -0.0155333 0.0156107 0.0128021 0.0153003 -0.0216011 -0.0189187 0.00766651 0.00351714 -0.00934676 0.0195284 0.018266 -0.00253781 0.0201836 0.0127217 0.0100085 0.00692334 0.00644867 0.0193439 0.0108754 -0.0183134 0.000902335 0.0101059 -0.000179856 0.0108008 0.00119048 -0.00577353 0.0126133 -0.0236596 -0.0211729 -0.0218625 0.019319 0.00333775 -0.00229469 -0.00490488 -0.00195107 0.021312 0.0195213 -0.0188563 0.00992375 0.0132334 0.015 -0.0167582 0.012424 -0.0103618 -0.00850326 0.016848 0.00421225 0.000242309 0.0107143 -0.00191622 0.00887681 0.00497222 0.00242537 0.000232615
internal_weight=173769 91107 82662 30712 19971 71136 32619 51950 21058 26200 16302 13552 50501 21928 12822 6973 6529 38517 30710 9654 22818 7892 5870 4409 5757 7682 1685 14529 6123 6046 1112 3384 1029 7149 5849 28573 17402 16207 1461 6419 1449 2523 3985 19631 11490 14112 4328 3187 2355 8287 4934 1216 3531 6894 914 2373 504 561 2760 3600 2680 4084
internal_count=173769 91107 82662 30712 19971 71136 32619 51950 21058 26200 16302 13552 50501 21928 12822 6973 6529 38517 30710 9654 22818 7892 5870 4409 5757 7682 1685 14529 6123 6046 1112 3384 1029 7149 5849 28573 17402 16207 1461 6419 1449 2523 3985 19631 11490 14112 4328 3187 2355 8287 4934 1216 3531 6894 914 2373 504 561 2760 3600 2680 4084
cat_boundaries=0 1 2
cat_threshold=4 2055
is_linear=0
shrinkage=0.05


Tree=15
num_leaves=63
num_cat=1
split_feature=0 0 0 1 1 10 0 10 0 1 10 10 1 29 24 10 10 10 24 10 10 10 10 0 3 12 0 1 10 0 10 28 10 28 0 20 28 33 1 10 0 0 10 28 10 0 5 10 0 25 0 18 10 12 14 10 10 28 11 0 0 12
split_gain=16083.1 1122.71 729.152 432.183 305.1 250.498 302.789 207.357 153.019 140.941 128.171 151.887 121.524 106.984 105.636 101.943 101.344 97.6513 85.8202 84.5144 73.9118 72.2628 71.5324 62.8182 59.8273 55.6329 55.3561 77.0232 52.0532 51.98 51.7795 62.8875 49.3367 103.954 48.0521 47.5014 44.1605 51.099 43.3459 43.3407 41.3163 38.9319 38.911 38.6195 53.2188 36.1282 34.8096 34.5861 34.3321 32.4674 32.0293 31.2761 30.9308 41.7761 30.758 30.6166 30.2693 55.4566 37.209 28.976 28.7265 28.3087
threshold=23.781800000000004 28.150600000000001 18.385000000000002 18.395000000000003 28.815000000000001 17.500000000000004 43.177400000000006 21.500000000000004 21.215000000000003 48.925000000000004 12.500000000000002 6.5000000000000009 25.325000000000003 10.643750000000002 2.6450000000000005 14.500000000000002 15.500000000000002 1.0000000180025095e-35 2.6300000000000003 12.500000000000002 1.0000000180025095e-35 8.5000000000000018 4.5000000000000009 11.695000000000002 20.245000000000001 9.5000000000000018 12.325000000000001 13.735000000000001 21.500000000000004 13.555000000000001 11.500000000000002 0.36552191649050547 11.500000000000002 0.38726786529391677 85.250000000000014 2.4500000000000006 0.38100905991995121 0 19.865000000000006 8.5000000000000018 35.205000000000005 26.385000000000002 13.500000000000002 0.38256317892061781 17.500000000000004 37.165000000000006 46.133333333333262 15.500000000000002 25.435000000000006 2.8620122354737183 30.905000000000005 83.416666666666671 22.500000000000004 10.500000000000002 29.425000000000001 1.0000000180025095e-35 11.500000000000002 0.34972795239818166 4.5000000000000009 21.815000000000001 15.565000000000003 8.5000000000000018
decision_type=2 2 2 2 2 2 2 2 2 2 2 2 2 2 2 2 2 2 2 2 2 2 2 2 2 2 2 2 2 2 2 2 2 2 2 2 2 1 2 2 2 2 2 2 2 2 2 2 2 2 2 2 2 2 2 2 2 2 2 2 2 2
left_child=2 4 7 24 16 6 9 13 28 10 11 17 39 20 34 51 19 25 -19 21 -1 55 -6 -9 47 -3 -22 60 54 -15 -23 -32 -13 -34 36 -17 -8 -38 -18 -10 -11 -24 -16 44 -31 46 -7 -4 -40 52 -20 -12 53 -25 -5 61 58 -58 -41 -26 -28 -2
right_child=1 5 3 8 22 45 14 23 12 40 15 32 -14 29 42 35 38 18 50 -21 26 30 41 49 59 -27 27 -29 -30 43 31 -33 33 -35 -36 -37 37 -39 48 56 -42 -43 -44 -45 -46 -47 -48 -49 -50 -51 -52 -53 -54 -55 -56 -57 57 -59 -60 -61 -62 -63
leaf_value=-0.0087714577390876521 0.5145055376194565 0.78405871236499436 -0.11023245873035581 -0.12175953421300197 -0.075302434722103767 0.20022307139564621 0.48821827878756691 -0.34613477982627788 -0.063462665218824377 -0.0025632853177587124 -0.054822117761532674 0.19602926714823515 -0.091369766514189446 -0.32413337770273398 0.74864625563961418 0.22436682404541772 0.16179045455042013 -0.0093780428311289309 0.022717665341751216 -0.076907110860679764 -0.48476245997965128 0.075640339023663031 -0.022567455898746938 -0.12939873681253486 -0.00092523476658961106 -0.017449942950573671 -0.1452624618869999 -0.17518559549436985 -0.0051076774847305557 -0.0044234138193505858 0.099166514997229893 -0.050312678783694588 0.26931258848870637 -0.025855208520644359 2.2303052707493913 0.0075287819118333493 0.62439916204806423 -0.064261610245867476 0.019413296488073686 0.015257737500663549 0.071053312219775761 0.015829584559379131 0.48130368618292219 -0.1929886429377218 -0.10492993691454622 0.86503637793020516 -0.042181393535362238 -0.0064832797940482583 0.078124515189029617 0.13669850083608778 0.12138312624747272 0.094878193908891628 0.044920010006222456 0.12300939715181346 -0.066410160652115566 -0.0063010692445828916 -0.02579737636225872 -0.14769392748973306 -0.029511438620182597 0.066032767864215289 -0.085954686751416445 -0.079890484883438084
leaf_weight=390 443 1923 1490 10209 1977 7826 3498 1765 1263 2583 2052 6764 4932 1420 16411 1218 2055 2030 1513 1512 19304 2694 3197 733 3823 251 3217 19405 386 1354 661 491 1438 624 1784 418 245 569 1618 1318 3140 2297 1417 347 814 8381 152 1284 2695 223 3799 1008 678 248 943 2253 3090 566 679 1395 1372 114
leaf_count=390 443 1923 1490 10209 1977 7826 3498 1765 1263 2583 2052 6764 4932 1420 16411 1218 2055 2030 1513 1512 19304 2694 3197 733 3823 251 3217 19405 386 1354 661 491 1438 624 1784 418 245 569 1618 1318 3140 2297 1417 347 814 8381 152 1284 2695 223 3799 1008 678 248 943 2253 3090 566 679 1395 1372 114
internal_value=-0.00120424 0.0132912 -0.0171734 -0.0111702 0.00345685 0.0164258 0.0147476 -0.0208475 -0.0146006 0.0112905 0.013035 0.014922 -0.0106094 -0.0217274 0.0189036 0.0056644 0.00767749 0.0105401 0.00778398 0.00399119 -0.0224387 0.00641526 -0.00475505 -0.00935701 -0.00113238 0.0198482 -0.0226338 -0.0210303 -0.0186991 -0.013831 0.0108684 0.00199653 0.0196465 0.0128758 0.0132218 0.0157396 0.0103664 -0.00012285 0.0124058 -0.00633314 0.00426787 -0.00182017 0.0208464 -0.00951292 -0.00703413 0.0218305 0.0194222 -0.00706561 0.00955831 -0.00300213 0.0111258 0.000277778 -0.00540989 -0.0110856 -0.0193239 0.000320285 -0.00446223 -0.0071663 0.000488232 0.00202185 -0.0152048 0.0108169
internal_weight=173699 91051 82648 31378 22007 69044 52685 51270 23386 28761 23038 18342 11848 47623 23924 4696 14536 9516 7342 8168 43688 6656 7471 3647 7992 2174 43298 23994 11538 3935 3846 1152 8826 2062 6096 1636 4312 814 6368 6916 5723 5494 17828 2515 2168 16359 7978 2774 4313 1882 5312 3060 1659 981 11152 2810 5653 3656 1997 5218 4589 557
internal_count=173699 91051 82648 31378 22007 69044 52685 51270 23386 28761 23038 18342 11848 47623 23924 4696 14536 9516 7342 8168 43688 6656 7471 3647 7992 2174 43298 23994 11538 3935 3846 1152 8826 2062 6096 1636 4312 814 6368 6916 5723 5494 17828 2515 2168 16359 7978 2774 4313 1882 5312 3060 1659 981 11152 2810 5653 3656 1997 5218 4589 557
cat_boundaries=0 1
cat_threshold=4
is_linear=0
shrinkage=0.05


Tree=16
num_leaves=63
num_cat=1
split_feature=0 0 0 1 1 10 0 10 0 10 10 10 0 1 0 1 10 24 24 10 0 1 3 12 10 0 10 10 29 10 10 10 12 3 14 10 0 9 25 10 0 3 27 10 29 26 11 10 23 3 1 0 0 10 35 8 10 14 26 10 0 24
split_gain=15275.4 1056.39 742.497 408.061 274.095 248.718 285.306 200.063 163.113 132.618 279.386 202.923 111.485 150.819 104.993 96.5363 84.3179 83.5045 81.2984 79.3969 63.8533 62.0166 60.8043 57.5241 56.8382 55.6942 54.7803 54.6866 50.3216 46.8259 68.7863 45.463 76.7457 44.362 43.2144 41.9017 41.5017 40.4611 37.824 37.684 37.134 36.3793 36.302 37.1923 45.6587 41.2593 35.5012 39.6763 34.1422 33.9819 32.9289 31.3515 29.8396 29.0744 28.6854 28.6095 27.3117 47.5026 26.9543 26.0019 25.8965 25.0038
threshold=23.781800000000004 28.150600000000001 18.245000000000001 18.395000000000003 30.355000000000004 17.500000000000004 48.965000000000011 21.500000000000004 22.315000000000001 4.5000000000000009 12.500000000000002 1.0000000180025095e-35 14.055000000000001 14.984400000000003 25.575000000000003 25.055000000000003 15.500000000000002 3.3150000000000004 2.6450000000000005 8.5000000000000018 33.970600000000012 22.315000000000001 22.025000000000002 9.5000000000000018 21.500000000000004 5.2750000000000012 1.5000000000000002 4.5000000000000009 9.2537500000000019 7.5000000000000009 11.500000000000002 22.500000000000004 9.5000000000000018 26.485000000000003 30.050000000000004 11.500000000000002 34.685000000000009 67.728750000000019 2.4984035273301535 15.500000000000002 38.682200000000002 18.365000000000006 0.28535496917026315 1.5000000000000002 4.1433333333333335 0.29987116826466681 4.5000000000000009 9.5000000000000018 17.764583333333338 17.975000000000005 38.365000000000002 64.385000000000005 20.175000000000004 13.500000000000002 0 31.357232142857146 14.500000000000002 23.950000000000003 0.28875822161679371 14.500000000000002 21.815000000000001 3.1450000000000005
decision_type=2 2 2 2 2 2 2 2 2 2 2 2 2 2 2 2 2 2 2 2 2 2 2 2 2 2 2 2 2 2 2 2 2 2 2 2 2 2 2 2 2 2 2 2 2 2 2 2 2 2 2 2 2 2 1 2 2 2 2 2 2 2
left_child=2 4 7 22 14 6 9 12 19 11 20 23 26 49 21 -10 41 36 37 -5 29 59 39 -3 28 -9 -1 -6 35 -11 -31 32 61 -16 -15 46 -13 42 -32 -4 50 -12 43 45 -45 -8 47 -21 -18 -14 -7 53 -41 -20 -38 -25 -37 -58 -43 -2 -24 -27
right_child=1 5 3 8 27 40 18 25 15 10 16 17 13 34 33 -17 48 -19 51 24 -22 -23 60 55 -26 31 -28 -29 -30 30 38 -33 -34 -35 -36 56 54 -39 -40 52 -42 58 -44 44 -46 -47 -48 -49 -50 -51 -52 -53 -54 -55 -56 -57 57 -59 -60 -61 -62 -63
leaf_value=-0.19218273843743638 0.018468595400172563 0.82998169380306308 -0.09893762154315873 -0.13023119728119231 -0.073515467226840242 0.20052916871561255 0.039658601255399974 -0.6161460318379357 -0.01079059941425875 0.054642782845712917 -0.083428396378107728 -0.015719919763988344 -0.11198281992381071 -0.16063526851436816 0.034413400233034963 -0.06636068229109178 0.036976320687823264 0.1145746556359688 0.5358310541342618 -0.047784736994615967 0.29513648414912624 -0.0072459954088488487 0.0013383906602831175 -0.066475287486785994 0.0015182936193761877 -0.19455710931719317 -0.38602434842476047 -0.0098257755851181017 -0.03162199820201881 0.14830601871832591 -0.0066613614383355113 0.031534093285346114 0.12986357579428348 0.094297056117080225 -0.068765947980772957 -0.19526470247026451 0.08778202860658163 2.8194120530626208 0.17910427647437555 -0.046850160484242759 0.92606052167776987 -0.083425057634791966 0.84973888938873265 0.53268340715967588 -0.071077292641272299 1.1592397825224996 -0.063284653251637832 9.6339594103334047e-05 0.24793677031909508 -0.051405978867745367 0.023671613646664369 1.6220463575620134 0.033385483745677826 0.1463126975547521 0.0081472479023624086 0.23453346926674962 -0.12170164350131883 -0.044730395843396581 0.093109337924003915 0.085183542936836443 0.06873195018053338 -0.030474118643907123
leaf_weight=436 1357 2408 1855 6332 1868 8562 482 852 3685 3086 1052 2902 2482 13851 3852 3198 614 3067 6053 763 6999 4055 3396 293 610 880 26146 4392 1356 3236 599 1084 474 4650 1156 2110 2515 1309 451 994 7450 559 1031 286 827 904 983 920 905 2884 347 7084 777 453 2455 136 2446 1400 2979 1833 1258 320
